svm_type c_svc
kernel_type rbf
gamma 0.5
nr_class 8
total_sv 604
rho 0.336431 0.17194 0.735853 -0.796892 0.225156 0.238575 -0.784221 -1.80734 0.552126 0.00369753 -0.288897 -0.624907 -0.24617 0.690043 0.265774 -0.0568641 0.887848 0.0562967 -0.542486 -0.671292 -0.631768 -0.660836 -0.193997 -0.149398 -0.838105 0.0685742 -0.00963836 -0.0974134
label 2 4 6 5 1 3 7 8
probA -4.678 -5.14714 -5.2023 -3.11165 -4.8499 -5.2409 -1.67019 -1.41456 -5.43332 -4.89453 -4.01758 -2.21969 -4.4058 -5.19396 -5.36305 -4.3224 -2.01823 -4.72695 -6.30063 -5.58428 -5.06341 -4.97239 -4.87378 -5.32899 -2.00183 -4.19765 -4.76007 -4.62245
probB -0.0813034 -0.564769 -0.731816 0.508834 -0.524943 -0.748166 0.166739 0.132957 -0.831839 0.229101 0.190758 0.0574221 -0.287207 -0.463668 0.756609 0.625033 0.0135425 0.440221 0.966476 0.907091 -0.0427988 0.298434 -0.122907 -0.682874 0.106468 -0.248781 -0.299625 0.274891
nr_sv 58 103 87 105 59 38 71 83
SV
0 0.1006191996532851 0.3176422859365076 3.682498599648798 0.1381992685866765 0 47.74328792511641 1:-0.3000828 2:-0.48826215 3:0.31044639 4:0.31044639 5:-0.37096783 6:-0.51748451 7:-0.26680755 8:-0.38299458 9:-0.29954839 10:-1.1119847 11:-0.47641863 12:-0.39879248 13:-0.41928392 14:-1.0290756 15:1.1557211 16:0.17318901 17:-0.14498424 18:0.66322226 19:-0.10234747 
0 0 0 6.143988434169552 0 0 10.9667671634817 1:-0.29165296 2:-0.52188224 3:0.30969297 4:0.30969297 5:-0.38212727 6:-0.54270926 7:-0.36364555 8:-0.12652984 9:-0.29653178 10:-1.1060604 11:0.63518855 12:-0.12597651 13:-0.4218645 14:-0.99774803 15:1.1462838 16:-0.44450414 17:-0.40046975 18:0.63564926 19:-0.16767487 
0 0.04585052447498164 0 0 0 0 512 1:-0.45216863 2:-0.67317262 3:0.30987671 4:0.30987671 5:-0.39156452 6:-0.65692798 7:-0.53795395 8:1.0275615 9:-0.30218857 10:-1.1093021 11:1.037667 12:1.0822085 13:-0.42576348 14:-0.99143576 15:1.0942035 16:-0.67981582 17:-0.65723349 18:0.64327583 19:-0.31400826 
0 0 0 0 0 0 512 1:-0.50335147 2:-0.74041279 3:0.30956853 4:0.30956853 5:-0.39274746 6:-0.69759004 7:-0.61542435 8:1.0275615 9:-0.3025098 10:-1.1085597 11:1.037667 12:1.0822085 13:-0.42622908 14:-0.98769516 15:1.0942035 16:-0.73864374 17:-0.69390937 18:0.63946255 19:-0.32184755 
0 0 0 270.4869385605855 0 0 0 1:-0.50674944 2:-0.74041279 3:0.30953059 4:0.30953059 5:-0.39286117 6:-0.69689905 7:-0.63479195 8:1.0275615 9:-0.30266498 10:-1.0961385 11:1.037667 12:1.0822085 13:-0.4261583 14:-0.97366789 15:1.0735811 16:-0.7680577 17:-0.7093478 18:0.6350626 19:-0.37619995 
0 0 0 7.264135504979068 0 0 0 1:-0.51255602 2:-0.77403288 3:0.30950601 4:0.30950601 5:-0.39312737 6:-0.72520203 7:-0.61542435 8:1.0275615 9:-0.3027228 10:-1.1018813 11:1.037667 12:1.0822085 13:-0.42649351 14:-0.9963453 15:1.0760278 16:-0.79747166 17:-0.70714551 18:0.66146228 19:-0.36888328 
0 0 0 512 0 0 0 1:-0.5221166 2:-0.77403288 3:0.30941132 4:0.30941132 5:-0.39317973 6:-0.72145522 7:-0.65415955 8:1.0275615 9:-0.30272835 10:-1.0995017 11:1.037667 12:1.0822085 13:-0.42649752 14:-0.99307227 15:1.0746297 16:-0.79747166 17:-0.70971481 18:0.65999564 19:-0.37567733 
0 0 0 128.6969954516632 0 0 0 1:-0.52755787 2:-0.77403288 3:0.30936794 4:0.30936794 5:-0.39321424 6:-0.72222771 7:-0.65415955 8:1.0275615 9:-0.30273571 10:-1.0985407 11:1.037667 12:1.0822085 13:-0.42648921 14:-0.99190333 15:1.0746297 16:-0.79747166 17:-0.70971481 18:0.65970231 19:-0.37776781 
0 0 0 27.60270064531161 0 0 0 1:-0.5147972 2:-0.79084292 3:0.30945857 4:0.30945857 5:-0.39314337 6:-0.71579887 7:-0.65415955 8:1.0275615 9:-0.30272724 10:-1.0934941 11:1.037667 12:1.0822085 13:-0.42648034 14:-0.99704666 15:1.0651923 16:-0.7680577 17:-0.72176174 18:0.67231549 19:-0.40285353 
0.1563295550808945 0.04220908967392955 0.565207101101024 0 0 0.240472589199457 0 1:-0.51592397 2:-0.77403288 3:0.30947056 4:0.30947056 5:-0.39314099 6:-0.71293753 7:-0.67352715 8:1.0275615 9:-0.30272593 10:-1.0929428 11:1.037667 12:1.0822085 13:-0.42647336 14:-0.99728045 15:1.0637942 16:-0.7680577 17:-0.73279596 18:0.67319548 19:-0.40598925 
0 0 0 107.0227614979446 0 0 264.3687704724678 1:-0.51838469 2:-0.77403288 3:0.30944827 4:0.30944827 5:-0.39316417 6:-0.71546007 7:-0.67352715 8:1.0275615 9:-0.30271157 10:-1.0956947 11:1.037667 12:1.0822085 13:-0.42644189 14:-0.99681287 15:1.0641438 16:-0.7680577 17:-0.72685346 18:0.66908886 19:-0.3991952 
1.27938640314061 1.125095650439187 1.61400836951411 0.7825888654587124 1.15405094856119 1.149365706867134 0.487722131261178 1:-0.025386149 2:-0.55550232 3:0.295397 4:0.295397 5:-0.23374464 6:-0.53991066 7:-0.034396354 8:0.78941566 9:-0.27795912 10:-0.80488142 11:0.75018239 12:0.78990569 13:-0.41909699 14:-0.81352334 15:0.81492745 16:1.5556451 17:1.5710133 18:0.70047516 19:-0.58211193 
1.312746827468063 1.137390787165202 1.680631340974847 0.5135837249750953 1.190491457561475 1.22281129225264 0.2186675199333026 1:0.24626591 2:-0.48826215 3:0.29522729 4:0.29522729 5:-0.22220052 6:-0.40247342 7:0.31422044 8:-0.38299458 9:-0.28304995 10:-0.36643551 11:-0.47641863 12:-0.45725305 13:-0.41158142 14:-0.44320365 15:0.2647641 16:1.9380266 17:2.5401723 18:0.81370048 19:-1.0796454 
0.6576604583797754 0.4255362871157483 0.6665612245352369 0.7635790903254121 0.4527488021349167 0.626343789024351 9.858831397379234 1:0.30390553 2:-0.5050722 3:0.25287796 4:0.25287796 5:-0.31990231 6:-0.53336795 7:0.21738244 8:-0.47458913 9:-0.20691298 10:-0.96761569 11:-0.054774531 12:-0.067515943 13:-0.42047522 14:-0.89160842 15:0.97780935 16:-0.091536624 17:-0.19260311 18:0.59428975 19:-0.34275232 
0.3447298095930257 0.3826732150935737 0.5732409241063743 0 0.3326704508253686 0.4115049963285236 1.285781175583295 1:-0.32955143 2:-0.5050722 3:0.30947456 4:0.30947456 5:-0.38075006 6:-0.53488548 7:-0.40238075 8:-0.18148657 9:-0.29809021 10:-0.99216551 11:0.76934803 12:-0.32084506 13:-0.4155993 14:-0.91171416 15:0.94075896 16:-0.56215998 17:-0.47655368 18:0.61892946 19:-0.66886673 
0 0 0 7.246311132420234 0 0 0 1:-0.16574271 2:-0.63955254 3:0.3096836 4:0.3096836 5:-0.3879817 6:-0.66083953 7:-0.40238075 8:0.99092367 9:-0.2984825 10:-1.0878184 11:0.11771624 12:-0.0090553772 13:-0.42529122 14:-1.0234647 15:1.0718335 16:-0.56215998 17:-0.32298211 18:0.65530236 19:-0.3014654 
0 0 0 0 0.5411507002493734 0 512 1:-0.49352176 2:-0.77403288 3:0.30946925 4:0.30946925 5:-0.39309297 6:-0.71567648 7:-0.63479195 8:1.0275615 9:-0.30270742 10:-1.1717102 11:1.037667 12:1.0822085 13:-0.42647574 14:-1.0886914 15:1.1885771 16:-0.7680577 17:-0.69814822 18:0.66204894 19:0.0047894745 
0 0 0 0 0 0 512 1:-0.49218043 2:-0.77403288 3:0.30959186 4:0.30959186 5:-0.39292455 6:-0.72368541 7:-0.61542435 8:1.0275615 9:-0.3024981 10:-1.1631693 11:1.037667 12:1.0822085 13:-0.42648547 14:-1.0727939 15:1.1704015 16:-0.73864374 17:-0.69079554 18:0.66468891 19:-0.062628407 
0 0 0 0 0 0 512 1:-0.47677186 2:-0.75722284 3:0.30971809 4:0.30971809 5:-0.39258306 6:-0.71006095 7:-0.59605675 8:1.0275615 9:-0.30225005 10:-1.1525284 11:1.037667 12:1.0822085 13:-0.42643942 14:-1.0482462 15:1.1466333 16:-0.73864374 17:-0.68365499 18:0.65412904 19:-0.13422724 
0 0 0 2.351033896068291 0 0 53.46613409714261 1:-0.41475131 2:-0.5050722 3:0.31026571 4:0.31026571 5:-0.38702396 6:-0.57307157 7:-0.49921875 8:0.40471855 9:-0.30197655 10:-1.1152317 11:0.42436649 12:0.36119487 13:-0.42331002 14:-1.00219 15:1.1060876 16:-0.41509018 17:-0.51540579 18:0.66674222 19:-0.26697253 
10.27239239251665 0.8552921288257002 0.6256876534811615 0 0.8486414009695527 1.160446191392867 6.136061588653162 1:-0.070899563 2:-0.10163117 3:0.30833407 4:0.30833407 5:-0.3317362 6:-0.19490624 7:-0.26680755 8:0.020021439 9:-0.29145005 10:-1.2742466 11:-0.016443249 12:0.068892044 13:-0.37629432 14:-1.4456852 15:0.76179858 16:0.29084485 17:0.50784994 18:0.61716948 19:0.31261221 
0 0 0 12.70457338895361 0 0 33.84142053141773 1:-0.46069744 2:-0.72360275 3:0.30979795 4:0.30979795 5:-0.39255749 6:-0.70042029 7:-0.57668915 8:1.0275615 9:-0.30260479 10:-1.179139 11:1.037667 12:0.77041884 13:-0.4263725 14:-1.2074556 15:1.2867956 16:-0.7680577 17:-0.69663389 18:0.56906338 19:0.7876731 
0 0 0 102.7760779616004 0 0 34.17722816193035 1:-0.48839169 2:-0.75722284 3:0.30967667 4:0.30967667 5:-0.39273404 6:-0.7003626 7:-0.59605675 8:1.0275615 9:-0.30264785 10:-1.172372 11:1.037667 12:1.0822085 13:-0.42626278 14:-1.1705171 15:1.2892424 16:-0.7680577 17:-0.69975597 18:0.57404999 19:0.88383504 
0 0 0 66.81938908859152 0 0 0 1:-0.50492049 2:-0.77403288 3:0.30956195 4:0.30956195 5:-0.39303453 6:-0.71340657 7:-0.61542435 8:1.0275615 9:-0.30270066 10:-1.1710488 11:1.037667 12:1.0822085 13:-0.42641875 14:-1.1597629 15:1.2895919 16:-0.7680577 17:-0.72191331 18:0.58636984 19:0.92930291 
1.085539466243022 0.954755844142913 1.412014980216714 0 1.049172657292906 1.009482266447024 0 1:-0.51980193 2:-0.77403288 3:0.30942379 4:0.30942379 5:-0.39324148 6:-0.72551696 7:-0.67352715 8:1.0275615 9:-0.30273125 10:-0.55636341 11:1.037667 12:1.0822085 13:-0.42650385 14:-0.60404958 15:0.34865177 16:-0.7680577 17:-0.72171133 18:0.32530627 19:-1.4669063 
0 0 0 0 0 0 9.132072286620394 1:-0.50022129 2:-0.74041279 3:0.30960843 4:0.30960843 5:-0.39281133 6:-0.70374761 7:-0.59605675 8:1.0275615 9:-0.30267155 10:-0.56675386 11:1.037667 12:1.0822085 13:-0.42640252 14:-0.61784305 15:0.36368165 16:-0.70922978 17:-0.67296924 18:0.31797302 19:-1.4454789 
0 0 0 0 0.03562402050976748 0 0 1:-0.51416416 2:-0.77403288 3:0.30948226 4:0.30948226 5:-0.39299764 6:-0.71270543 7:-0.63479195 8:1.0275615 9:-0.30271596 10:-0.55849963 11:1.037667 12:1.0822085 13:-0.42645254 14:-0.6017117 15:0.35354522 16:-0.70922978 17:-0.69010344 18:0.31239975 19:-1.4554087 
0 0 0 0 0.01136431391687712 0 0 1:-0.34556768 2:-0.65636258 3:0.31014833 4:0.31014833 5:-0.38912219 6:-0.62802733 7:-0.46048355 8:0.80773457 9:-0.30166861 10:-0.86720143 11:0.46269778 12:-0.16495022 13:-0.42362465 14:-0.63187031 15:0.8362489 16:-0.50333206 17:-0.47437797 18:0.08800241 19:-0.52044286 
0.5597012433119375 0.6321206627192048 0.8578696590392707 1.344490916384524 0.7394169383883835 0.6948055430459812 9.338033755470113 1:-0.33912401 2:-0.60593245 3:0.30998989 4:0.30998989 5:-0.38632592 6:-0.58320976 7:-0.44111595 8:0.33144291 9:-0.30029038 10:-0.84164843 11:-0.36142479 12:-0.37930563 13:-0.42409996 14:-0.62485668 15:0.79640225 16:-0.4739181 17:-0.47010121 18:0.10325556 19:-0.62287623 
0 0 0 0.7080738688239505 0 0 6.769533286578916 1:-0.36703902 2:-0.65636258 3:0.3099197 4:0.3099197 5:-0.38666745 6:-0.56089068 7:-0.44111595 8:0.056659258 9:-0.29995066 10:-0.8985582 11:0.21354444 12:0.22478689 13:-0.4198088 14:-0.67348452 15:0.8526769 16:-0.4739181 17:-0.49042303 18:0.20357437 19:-0.60876551 
0 0.1667511021992059 0 0 0 0 0 1:-0.48809282 2:-0.74041279 3:0.30962199 4:0.30962199 5:-0.39246217 6:-0.69315108 7:-0.61542435 8:1.0275615 9:-0.30223155 10:-0.94364515 11:1.037667 12:1.0822085 13:-0.42595038 14:-0.70995539 15:0.88972729 16:-0.70922978 17:-0.67428049 18:0.28453342 19:-0.61608218 
0 0 0 0 0 0 105.8591837566322 1:-0.45361833 2:-0.75722284 3:0.30965847 4:0.30965847 5:-0.39232489 6:-0.69382783 7:-0.57668915 8:1.0275615 9:-0.30237298 10:-0.91211139 11:1.037667 12:1.0432348 13:-0.42593822 14:-0.69522677 15:0.84813298 16:-0.67981582 17:-0.61161844 18:0.27514686 19:-0.69447507 
0 0 0 0 0 0 125.014900663308 1:-0.49211411 2:-0.75722284 3:0.30965162 4:0.30965162 5:-0.39265862 6:-0.70838539 7:-0.61542435 8:1.0275615 9:-0.30251919 10:-0.94770486 11:1.037667 12:1.0822085 13:-0.42640959 14:-0.71463115 15:0.8865815 16:-0.70922978 17:-0.66524431 18:0.28541341 19:-0.61190123 
0 0 0 0 0.1821745347460547 0 0 1:-0.52147878 2:-0.79084292 3:0.30941942 4:0.30941942 5:-0.39313523 6:-0.71950852 7:-0.65415955 8:1.0275615 9:-0.30272472 10:-0.95782031 11:1.037667 12:1.0822085 13:-0.4264834 14:-0.72164478 15:0.89811606 16:-0.7680577 17:-0.70315545 18:0.29333331 19:-0.59308694 
0.187883161443125 0 0 0 0 0.09187448567522397 0 1:-0.5174522 2:-0.77403288 3:0.30945168 4:0.30945168 5:-0.39307626 6:-0.71188504 7:-0.67352715 8:1.0275615 9:-0.30270668 10:-0.95963776 11:1.037667 12:1.0822085 13:-0.42634372 14:-0.72725568 15:0.89566933 16:-0.79747166 17:-0.70971481 18:0.30330653 19:-0.60197146 
0 0 0 331.9844773352069 0 0 0 1:-0.51980193 2:-0.77403288 3:0.30943258 4:0.30943258 5:-0.39311223 6:-0.71489016 7:-0.67352715 8:1.0275615 9:-0.30272943 10:-0.96645375 11:1.037667 12:1.0822085 13:-0.42646976 14:-0.73590583 15:0.89671793 16:-0.79747166 17:-0.70774849 18:0.31239975 19:-0.59726789 
0 0 0 61.09468654013632 0 0 0 1:-0.52147878 2:-0.79084292 3:0.30942504 4:0.30942504 5:-0.39309995 6:-0.71474926 7:-0.65415955 8:1.0275615 9:-0.30273325 10:-0.96563432 11:1.037667 12:1.0822085 13:-0.42648329 14:-0.73310037 15:0.90161138 16:-0.79747166 17:-0.70135979 18:0.31063977 19:-0.59308694 
2.00089903514618 6.937514351153935 0.4967100042642161 7.823382926857875 4.903684445338055 3.608615584545581 30.11814690025547 1:-0.50755563 2:-0.48826215 3:0.3095724 4:0.3095724 5:-0.37178823 6:-0.40621762 7:-0.55732155 8:0.78941566 9:-0.30271755 10:-1.6972144 11:0.78851367 12:1.0822085 13:-0.40867427 14:-1.8468649 15:0.51677666 16:-0.29743434 17:-0.080804421 18:0.67084884 19:0.68471711 
1.273012606376544 0 0 0 0 0 0.2926429601400244 1:-0.27979031 2:-0.58912241 3:0.31004879 4:0.31004879 5:-0.37667315 6:-0.55855112 7:-0.28617515 8:0.51463201 9:-0.29969915 10:-1.0908261 11:0.30937265 12:0.24427374 13:-0.41964367 14:-1.1564899 15:1.3532067 16:0.43791465 17:-0.21533107 18:0.63740924 19:0.79655762 
0.07516577731424487 0.3009379807191415 0.3075889656760775 1.172085506164899 0.1117585823802116 0.1809788197927788 17.07037394502343 1:-0.3176208 2:-0.58912241 3:0.30978421 4:0.30978421 5:-0.37579748 6:-0.57557973 7:-0.28617515 8:0.1299349 9:-0.29990608 10:-1.0799544 11:0.079384956 12:0.010431478 13:-0.41860417 14:-1.1550871 15:1.3654403 16:0.43791465 17:-0.21563321 18:0.72394154 19:0.94916244 
0 0 0 145.0733152174349 0 0 0 1:-0.50627832 2:-0.77403288 3:0.30956185 4:0.30956185 5:-0.39298364 6:-0.71082021 7:-0.63479195 8:1.0275615 9:-0.30268199 10:-1.118666 11:1.037667 12:1.0822085 13:-0.42643835 14:-1.2511739 15:1.3720814 16:-0.7680577 17:-0.71026477 18:0.75444785 19:0.83418621 
0.2276648601857647 0.1504778044973586 0.3603128755598478 0 0.2998486666737519 0.2551237510939315 17.31563832902235 1:-0.35739021 2:-0.77403288 3:0.31023233 4:0.31023233 5:-0.39181117 6:-0.7115998 7:-0.42174835 8:1.0275615 9:-0.30229064 10:-1.1446756 11:1.037667 12:-0.28187135 13:-0.42642994 14:-1.188285 15:1.3056704 16:-0.73864374 17:-0.65466494 18:0.76530105 19:0.32201935 
0.1820185267598403 0.1035180236131377 0.04535877242620236 0 0.1853731659929051 0.01147482181897856 10.31566942210109 1:-0.13882078 2:-0.74041279 3:0.31012947 4:0.31012947 5:-0.38668069 6:-0.69845671 7:-0.24743995 8:1.0275615 9:-0.29744668 10:-1.0819392 11:1.037667 12:-0.24289764 13:-0.42639363 14:-1.1333449 15:1.3518086 16:-0.67981582 17:-0.6516247 18:0.76794102 19:0.97842912 
0.2160610543258483 0.4501917554806643 0.491250502305452 0 0.3055806679184552 0.4586344742805418 0 1:-0.39812351 2:-0.68998267 3:0.3105443 4:0.3105443 5:-0.39081019 6:-0.68601969 7:-0.42174835 8:1.0092426 9:-0.30215167 10:-1.0279151 11:1.037667 12:-0.20392393 13:-0.42633373 14:-1.0129442 15:1.3643917 16:-0.6209879 17:-0.64105622 18:0.76412774 19:1.3536697 
0 0 0 0 0 0 36.53442289425487 1:-0.45464585 2:-0.60593245 3:0.30999452 4:0.30999452 5:-0.38975629 6:-0.50405896 7:-0.51858635 8:0.16657272 9:-0.30250207 10:-1.1251961 11:1.037667 12:0.61452399 13:-0.4212504 14:-1.2219504 15:1.3462161 16:-0.70922978 17:-0.67130638 18:0.63095598 19:0.67844567 
0 0 0 0 0 0 9.396830299392979 1:-0.24328367 2:-0.57231237 3:0.30705795 4:0.30705795 5:-0.37777449 6:-0.5662305 7:-0.15060195 8:0.71614002 9:-0.29356584 10:-1.0986578 11:0.90350752 12:0.45862915 13:-0.421179 14:-1.0875225 15:1.3329339 16:-0.50333206 17:-0.51901122 18:0.54061038 19:0.76781356 
0 0 0.7234052990952955 0.07469619526252241 0.088539367665057 0.2619789876824361 0 1:-0.34192339 2:-0.75722284 3:0.31001888 4:0.31001888 5:-0.37862501 6:-0.71456963 7:-0.53795395 8:1.0275615 9:-0.30184192 10:-1.3082028 11:0.021888033 12:0.049405189 13:-0.42644079 14:-1.4784155 15:0.97745982 16:-0.1797785 17:0.64016114 18:0.7303948 19:0.93505172 
0 1.765456257275328 0.5636835528898245 8.964550618963479 1.424148564556753 0 24.46492380889271 1:-0.43799708 2:-0.77403288 3:0.30997816 4:0.30997816 5:-0.37719537 6:-0.73836577 7:-0.55732155 8:1.0275615 9:-0.30199114 10:-1.756388 11:0.86517624 12:0.90682682 13:-0.4265237 14:-1.8915183 15:0.51188321 16:-0.1797785 17:0.0067216563 18:0.7362614 19:0.72234569 
0.1171171908517402 0.004186832158995051 0.3949480134165536 0 0.2143262985151595 0.2094157769772593 5.040587434554695 1:-0.38487838 2:-0.55550232 3:0.31030999 4:0.31030999 5:-0.38744751 6:-0.54485687 7:-0.47985115 8:0.11161599 9:-0.30116282 10:-1.0498316 11:0.098550597 12:0.2637606 13:-0.42104147 14:-1.0152821 15:1.3629936 16:-0.53274602 17:-0.60399305 18:0.75327453 19:1.2381709 
0 0 0 7.520502753833776 0 0 20.68709654157871 1:-0.49330872 2:-0.74041279 3:0.30970802 4:0.30970802 5:-0.39256663 6:-0.69917322 7:-0.61542435 8:1.0275615 9:-0.30258495 10:-1.0911592 11:1.037667 12:1.0822085 13:-0.42628818 14:-1.0777034 15:1.3650908 16:-0.65040186 17:-0.67349762 18:0.87647307 19:1.0171029 
0 0 0 0 0 0 43.78684992452217 1:-0.42561526 2:-0.74041279 3:0.31054144 4:0.31054144 5:-0.39113951 6:-0.70160192 7:-0.32491035 8:1.0275615 9:-0.30209673 10:-1.0880191 11:1.037667 12:-0.028542232 13:-0.42635809 14:-1.081444 15:1.3664889 16:-0.67981582 17:-0.68502629 18:0.85652664 19:1.0359172 
0 0 0 2.644269319599008 0 0 5.686710008867587 1:-0.41963162 2:-0.74041279 3:0.31021761 4:0.31021761 5:-0.37322309 6:-0.67742292 7:-0.51858635 8:1.0275615 9:-0.30166133 10:-1.1360375 11:0.78851367 12:0.8288794 13:-0.42586588 14:-1.172855 15:1.2703676 16:-0.1797785 17:0.12436362 18:0.83716687 19:1.0160577 
0.401239314669855 0 0 0 0 0 5.630761627529379 1:-0.36210518 2:-0.74041279 3:0.31006408 4:0.31006408 5:-0.37756108 6:-0.64820593 7:-0.51858635 8:1.0275615 9:-0.30171603 10:-1.4336764 11:0.098550597 12:0.12735261 13:-0.42585159 14:-1.6109731 15:0.80304336 16:-0.1797785 17:0.6240471 18:0.77908756 19:0.83888978 
0 0 0.1083794699178496 0 0 0 0 1:-0.52633603 2:-0.79084292 3:0.30937827 4:0.30937827 5:-0.39317646 6:-0.71604053 7:-0.67352715 8:1.0275615 9:-0.30273796 10:-0.98592475 11:1.037667 12:1.0822085 13:-0.42645443 14:-0.88552994 15:1.3409731 16:-0.79747166 17:-0.71444857 18:0.83804686 19:1.5512198 
0.6553868023029811 0 0.9327694550404837 0 0.8381227416618862 0 0 1:-0.5241643 2:-0.79084292 3:0.30939407 4:0.30939407 5:-0.39322559 6:-0.717735 7:-0.67352715 8:1.0275615 9:-0.30272775 10:-0.99012997 11:1.037667 12:1.0822085 13:-0.42648459 14:-0.8881016 15:1.3364292 16:-0.79747166 17:-0.73022204 18:0.83980684 19:1.5491293 
0 0 0 0 0 0.6542090037117069 0 1:-0.52575446 2:-0.77403288 3:0.30938068 4:0.30938068 5:-0.39318012 6:-0.71489016 7:-0.67352715 8:1.0275615 9:-0.30273356 10:-0.98722703 11:1.037667 12:1.0822085 13:-0.42647458 14:-0.88669888 15:1.339575 16:-0.79747166 17:-0.71832425 18:0.83804686 19:1.5506972 
0 0.5173670432465362 0 0 0 0 0 1:-0.52575446 2:-0.77403288 3:0.30938131 4:0.30938131 5:-0.39320949 6:-0.7194107 7:-0.67352715 8:1.0275615 9:-0.30273718 10:-0.98758248 11:1.037667 12:1.0822085 13:-0.42643092 14:-0.88412721 15:1.3385264 16:-0.7680577 17:-0.71859448 18:0.84215348 19:1.5506972 
1.073464548673415 0 0 0 0 0 16.15486649804739 1:-0.21358087 2:-0.75722284 3:0.30700195 4:0.30700195 5:-0.36422196 6:-0.67377978 7:-0.42174835 8:1.0275615 9:-0.28952612 10:-1.5534509 11:0.55852598 12:0.59503714 13:-0.42543248 14:-1.7386212 15:0.62198579 16:-0.20919246 17:0.3444473 18:0.75620783 19:0.86502074 
-0 0 0 0 0 2.486990309157669 0.4460180739828576 1:-0.08899966 2:0.60439062 3:0.30253575 4:0.30253575 5:-0.22332525 6:0.36867316 7:-0.015028754 8:-1.0058375 9:-0.29303962 10:0.2170968 11:-1.1472161 12:-0.96391129 13:-0.32390849 14:0.080246956 15:-0.15397522 16:0.73205425 17:1.0412122 18:-0.946572 19:0.28543601 
-0 75.94554400139614 0 0 0 0 0 1:-0.10409475 2:0.46991028 3:0.29994352 4:0.29994352 5:-0.24142278 6:0.11524115 7:-0.015028754 8:-1.1523888 9:-0.28721505 10:0.52926651 11:-1.1088848 12:-1.139293 13:-0.34670292 14:0.48095904 15:-0.51364364 16:0.14377505 17:0.37308788 18:-1.2328619 19:0.23892289 
-0 0 0 0 0 0.9003469829370898 0 1:0.16317269 2:0.52034041 3:0.28250771 4:0.28250771 5:-0.093836952 6:0.28291362 7:0.33358804 8:-1.0241564 9:-0.25923253 10:0.53429821 11:-1.1663817 12:-1.1587798 13:-0.27070656 14:0.50784462 15:-0.54335386 16:2.1439243 17:1.5459835 18:-1.0683039 19:-0.01245696 
-0.2736339987545997 0 0.6142901002233924 0.7526186203874329 0.4903637647288938 0 0.2279964910287937 1:0.16146939 2:0.53715045 3:0.28027407 4:0.28027407 5:-0.10526344 6:0.19048508 7:0.33358804 8:-1.0241564 9:-0.26755498 10:0.43602936 11:-1.0705535 12:-1.1587798 13:-0.31535222 14:0.52000158 15:-0.5503445 16:2.1439243 17:1.8036768 18:-0.89230598 19:-0.34066184 
-0 0 0 0 0 4.506955785460727 0 1:0.46686773 2:1.0078316 3:0.19419313 4:0.19419313 5:0.043546732 6:0.87015927 7:0.66283724 8:-1.1340699 9:-0.10322292 10:0.64665663 11:-1.1280504 12:-1.2367273 13:-0.12152106 14:0.57283759 15:-0.41018217 16:0.55557049 17:0.59954868 18:-1.0867837 19:-0.31557612 
-0 5.044904304826164 0 0 0 0 0 1:0.071127508 2:0.15051947 3:0.27714492 4:0.27714492 5:-0.23496035 6:0.0056358441 7:0.12054444 8:-1.0974321 9:-0.2307449 10:0.35262282 11:-1.1855474 12:-1.1003193 13:-0.29328651 14:0.56769426 15:-0.54510152 16:0.58498445 17:0.50716239 18:-0.9131324 19:-0.54343811 
-0 0 0 0 0 4.604303052793524 0 1:0.31789383 2:0.58758058 3:0.25570235 4:0.25570235 5:-0.13715515 6:0.21599429 7:0.54663164 8:-1.0974321 9:-0.22978519 10:0.40111608 11:-1.1855474 12:-1.1003193 13:-0.32336787 14:0.54314656 15:-0.43499894 16:0.7614682 17:0.81450557 18:-0.89787925 19:-0.6301929 
-0.1460418089776799 14.35195757736112 0.3459118354129342 0.1694564583587861 0 1.619880852253369 0.5271392228262699 1:0.042247862 2:0.35223998 3:0.29434129 4:0.29434129 5:-0.30386873 6:-0.056615436 7:0.15927964 8:-1.0791132 9:-0.27742901 10:0.064885311 11:-1.0705535 12:-1.139293 13:-0.38556093 14:0.17376203 15:-0.14034348 16:0.026119214 17:0.070790243 18:-0.80254704 19:-0.44414045 
-0 20.14310812289141 0 0 0 7.137834241786815 0.7748582492327131 1:-0.14594393 2:0.65482075 3:0.3058697 4:0.3058697 5:-0.17150319 6:0.9041884 7:-0.13123435 8:-0.6028215 9:-0.29297465 10:0.0020913398 11:-0.66807504 12:-0.6521216 13:0.025929981 14:-0.31578937 15:-0.18019012 16:0.23201693 17:0.83394138 18:-0.58049634 19:0.30999911 
-0.3434735231447954 38.22382284368424 0 0 2.668135623885406 68.43711880711632 0 1:-0.35547665 2:0.35223998 3:0.31023528 4:0.31023528 5:-0.21369935 6:0.66612201 7:-0.40238075 8:0.56958874 9:-0.29941718 10:-0.88646763 11:0.55852598 12:0.59503714 13:-0.010023317 14:-1.449192 15:0.19870255 16:0.23201693 17:0.7350625 18:0.34994597 19:0.60266588 
-0 28.01079439506772 0 0 0 0 0 1:0.073919313 2:0.16732951 3:0.27128313 4:0.27128313 5:-0.21630453 6:0.096780751 7:0.23675004 8:-1.115751 9:-0.21380429 10:0.30336904 11:-0.87889709 12:-1.0613456 13:-0.34955221 14:0.30491691 15:-0.29238989 16:0.40850069 17:0.57109813 18:-1.0295844 19:-0.0030498141 
-0 0 0 0 0 12.52777176286756 0 1:0.39565607 2:0.43629019 3:0.22536433 4:0.22536433 5:-0.08006786 6:0.41129894 7:0.70157244 8:-1.0791132 9:-0.22031285 10:0.08412349 11:-0.87889709 12:-1.0613456 13:-0.08653813 14:0.070427874 15:-0.069738015 16:1.2320916 17:0.89183093 18:-0.63476236 19:-0.44309521 
-0.316289629069919 0.3355802594971729 1.008116376856219 1.045025787318293 0.9482539581797247 0.4069884875720395 0 1:0.52265714 2:0.30180985 3:0.23716656 4:0.23716656 5:-0.16682311 6:0.64414379 7:0.66283724 8:0.093297078 9:-0.2403643 10:-0.5572441 11:0.060219315 12:0.088378899 13:-0.32007244 14:-1.0092036 15:0.28643508 16:1.2320916 17:0.67883049 18:0.16661481 19:-0.015070057 
-0.183898455428544 0.7960034233991582 0.4268515003134383 0.167798954651446 0.06788322258403459 7.323551241796198 0 1:0.27899126 2:1.2431722 3:0.26566919 4:0.26566919 5:-0.023106209 6:0.71824839 7:1.2244976 8:-1.1523888 9:-0.25446723 10:0.3649797 11:-1.1280504 12:-1.139293 13:0.13671479 14:0.26096483 15:-0.20360877 16:1.1732636 17:0.9259545 18:-0.93659879 19:-0.018205772 
-0 0 0 0 0 1.423936793804931 0.3373977206726778 1:0.1242095 2:0.85654126 3:0.27237495 4:0.27237495 5:-0.23274471 6:0.16017522 7:0.33358804 8:-1.115751 9:-0.24227515 10:0.092480868 11:-1.1280504 12:-1.139293 13:-0.33040222 14:0.11180829 15:-0.087564146 16:0.55557049 17:0.74148494 18:-0.80049373 19:-0.25442967 
-0 18.64787819130688 0 0 0 0 0 1:-0.032725057 2:0.48672032 3:0.29521193 4:0.29521193 5:-0.22876326 6:0.11751643 7:0.081809245 8:-1.0058375 9:-0.27567665 10:0.43741875 11:-1.0513879 12:-0.94442443 13:-0.28117276 14:0.48259555 15:-0.5143427 16:0.49674257 17:0.51646141 18:-1.1061434 19:0.01471924 
-0.6096918095910219 0 1.406820645496078 1.127060431546748 0.6230462353445845 0.2428994472793924 0.683320181721695 1:0.31016296 2:0.82292118 3:0.26412726 4:0.26412726 5:-0.016386659 6:0.73770543 7:1.1470272 8:-1.115751 9:-0.26747414 10:0.041545892 11:-1.1663817 12:-1.2562141 13:-0.21462348 14:0.16300779 15:-0.030590432 16:3.5557944 17:2.1396296 18:-0.1419682 19:-0.8664168 
-0 14.25049674654499 0 0 0 39.00198758647171 0 1:0.32565459 2:0.94059148 3:0.26263388 4:0.26263388 5:0.014230393 6:0.93046133 7:0.48852884 8:-1.1340699 9:-0.22984805 10:0.45225144 11:-1.0897191 12:-1.0808324 13:0.0021416279 14:0.31076161 15:-0.38711306 16:0.46732861 17:0.55332298 18:-0.92017232 19:-0.11018676 
-0.1937818576683182 0 0.3982696811967448 0.4444008633313732 0.1861746706228026 4.059283250610346 0.1821946831244598 1:0.36578091 2:1.0246417 3:0.27223696 4:0.27223696 5:-0.12913145 6:0.83818125 7:0.60473444 8:-1.1340699 9:-0.26752159 10:0.017274983 11:-1.1472161 12:-1.1782667 13:-0.23722335 14:-0.083871994 15:0.10502798 16:1.1144357 17:1.0386604 18:-0.24346033 19:-0.94271921 
-0.2403654591712177 0 1.026601890846548 0.8135121818001789 0.390419905852355 1.56397339810838 0.8602556595879838 1:0.39328653 2:0.016039128 3:0.23946686 4:0.23946686 5:-0.20089195 6:0.024390225 7:0.79841044 8:-1.1340699 9:-0.22964266 10:-0.53247201 11:-1.1472161 12:-1.1782667 13:-0.22696912 14:-0.52245768 15:0.66847354 16:0.67322633 17:0.46032945 18:0.02522982 19:-0.63437386 
-2.189981441645094 0 0.3930587744427135 0.3857688690163681 1.366778835775418 0.07479434884886597 3.516592130238894 1:0.052806963 2:-0.00077091511 3:0.30315086 4:0.30315086 5:-0.2979313 6:0.1981077 7:0.21738244 8:-0.52954586 9:-0.28630352 10:-0.94052037 11:-0.61057812 12:-0.45725305 13:-0.33479257 14:-1.1003808 15:0.67266793 16:0.49674257 17:0.3055886 18:0.15136166 19:0.38682414 
-1.023291770410612 14.0625684899765 0.5547532831905453 1.3388166502677 4.256177305822267 15.39345527697512 2.055564402167576 1:-0.36955315 2:-0.068011086 3:0.31092538 4:0.31092538 5:-0.34086417 6:-0.023049219 7:-0.22807235 8:0.64286438 9:-0.30147648 10:-1.4838215 11:0.6160229 12:0.78990569 13:-0.32259989 14:-1.7545187 15:0.48531878 16:-0.032708705 17:-0.25746598 18:0.56701007 19:0.71659688 
-0 8.378448061208694 0 0 0 0 0 1:0.24336111 2:0.52034041 3:0.24873976 4:0.24873976 5:-0.1676672 6:0.22407769 7:0.56599924 8:-1.115751 9:-0.2143442 10:0.61061778 11:-1.1472161 12:-1.1977536 13:-0.26300264 14:0.58195531 15:-0.43989239 16:0.32025881 17:0.3770757 18:-1.2686482 19:0.046076394 
-0 0 0 0 0 0.5157970057609923 0 1:0.26902036 2:0.58758058 3:0.24783956 4:0.24783956 5:-0.18984881 6:0.1468231 7:0.50789644 8:-1.0241564 9:-0.24210839 10:0.23977757 11:-1.1088848 12:-1.1977536 13:-0.34072283 14:0.34208916 15:-0.30357491 16:0.17318901 17:0.48470177 18:-0.83569332 19:-0.51626191 
-0.003554017016110885 0 0 0.6891102331083717 0 3.227622948277074 0.4940467236044691 1:0.20094429 2:0.9910216 3:0.2930369 4:0.2930369 5:-0.21131506 6:0.70499681 7:0.37232324 8:-0.95088079 9:-0.27454753 10:-0.29973152 11:-1.0322222 12:-1.0223719 13:-0.19922782 14:-0.43642381 15:0.28259023 16:1.2909195 17:1.5300827 18:-0.15780801 19:-0.1357951 
-10.39867667786449 0.04906554595692654 0.7879508057431799 1.747837566601027 0.2919470970061617 0.6269693104978933 4.471118384902308 1:-0.079528007 2:-0.13525126 3:0.30195379 4:0.30195379 5:-0.34382574 6:-0.34835789 7:-0.073131554 8:0.22152945 9:-0.28431773 10:-1.4141088 11:0.1943788 12:0.22478689 13:-0.39989112 14:-1.5950755 15:0.66462869 16:0.34967277 17:0.34726187 18:0.63828923 19:0.44692535 
-0.2642635776460386 0 0.6505190248795437 0.4185410387911583 0 0 0.1002614194220269 1:-0.34059577 2:-0.30335168 3:0.3105117 4:0.3105117 5:-0.36574218 6:-0.3357306 7:-0.38301315 8:-0.71273496 9:-0.30134958 10:0.24831092 11:-0.70640633 12:-0.61314789 13:-0.40032243 14:0.15669553 15:-0.42521205 16:-0.41509018 17:-0.25517062 18:-1.087077 19:0.74847665 
-0 32.1282363245469 0 0 0 0 0 1:-0.34402712 2:-0.21930147 3:0.30951674 4:0.30951674 5:-0.33854491 6:-0.18517559 7:-0.40238075 8:-1.115751 9:-0.29555369 10:0.28900565 11:-0.89806274 12:-0.32084506 13:-0.3107069 14:0.19503671 15:-0.48078763 16:-0.26802038 17:-0.11048036 18:-1.0911836 19:0.61311827 
-0 29.52315816638235 0 0 0 0 0 1:-0.28921603 2:-0.21930147 3:0.31056013 4:0.31056013 5:-0.32577608 6:-0.13708431 7:-0.22807235 8:-1.115751 9:-0.30028223 10:0.32451274 11:-0.95555966 12:-0.80801645 13:-0.35375713 14:0.26821225 15:-0.51189598 16:-0.23860642 17:-0.027550539 18:-1.1023302 19:0.49605156 
-0 16.81824720849244 0 0 0 0 0 1:-0.32084527 2:-0.068011086 3:0.31037227 4:0.31037227 5:-0.33139056 6:-0.18294027 7:-0.30554275 8:-1.1523888 9:-0.29990487 10:0.37935067 11:-0.95555966 12:-0.53520047 13:-0.33380946 14:0.37411807 15:-0.62479481 16:-0.032708705 17:0.06443432 18:-1.1117167 19:0.39779914 
-0.04657306379303905 0 0.08419349453336436 0.05682890346028152 0 0 0 1:-0.34984167 2:-0.32016173 3:0.31046905 4:0.31046905 5:-0.35252447 6:-0.30362147 7:-0.42174835 8:-1.1340699 9:-0.29940982 10:0.3901459 11:-0.93639402 12:-0.98339814 13:-0.39318844 14:0.36313005 15:-0.64961158 16:0.23201693 17:-0.08314144 18:-1.1322498 19:0.50441347 
-0 0 0 0 4.151518756572241 1.104012525294756 0 1:-0.25018525 2:-0.40421194 3:0.30864392 4:0.30864392 5:-0.35338593 6:-0.36844769 7:-0.26680755 8:-0.87760515 9:-0.29474505 10:0.44155294 11:-0.53391556 12:-0.57417418 13:-0.39914199 14:0.5157934 15:-0.82542617 16:-0.12095058 17:-0.11118067 18:-1.1008635 19:0.38264318 
-0 0 0 0 1.82585569366802 0 0 1:-0.32337582 2:-0.30335168 3:0.31017725 4:0.31017725 5:-0.3552902 6:-0.37603599 7:-0.36364555 8:-0.69441605 9:-0.29976255 10:0.41981163 11:-0.91722838 12:-0.45725305 13:-0.41571442 14:0.49779175 15:-0.76915152 16:-0.091536624 17:0.13065308 18:-1.0947036 19:0.27132529 
-0.1575186768929065 0 0.2892845586112221 0.1916958676363031 0.4440774821558482 0.4443059910706607 0.09777163419665771 1:-0.39815046 2:-0.20249143 3:0.31031805 4:0.31031805 5:-0.37034995 6:-0.42872917 7:-0.47985115 8:-0.54786477 9:-0.30105204 10:0.31546225 11:-0.59141248 12:-0.16495022 13:-0.4185157 14:0.31333327 15:-0.60592008 16:-0.20919246 17:-0.16717772 18:-1.0856104 19:0.43490511 
-0.6381601510754014 0 1.468944686477258 0.9628043300673637 3.344918816147193 0.4801036836068311 0.7164408171132602 1:-0.46107022 2:0.13370943 3:0.31001877 4:0.31001877 5:-0.37725579 6:-0.4426035 7:-0.51858635 8:0.62454547 9:-0.30246989 10:0.30708839 11:0.59685726 12:1.0822085 13:-0.42370024 14:0.32058069 15:-0.63178545 16:0.084947133 17:-0.37515599 18:-1.0727038 19:0.4239301 
-0 233.588080906198 0 0 0 0 0 1:-0.22122927 2:0.11689938 3:0.30778611 4:0.30778611 5:-0.30326533 6:-0.011958671 7:-0.16996955 8:-1.1523888 9:-0.29550101 10:0.38644714 11:-0.99389094 12:-0.86647701 13:-0.34523409 14:0.40357531 15:-0.63143592 16:0.055533174 17:-0.059146115 18:-1.091477 19:0.31104435 
-0.1263230631045226 0 0.2625386744824088 0 0.6927367615762191 7.834484389522567 0.1963209848768353 1:-0.058880499 2:0.40267011 3:0.30682083 4:0.30682083 5:-0.24230005 6:0.33796037 7:0.29485284 8:-1.0791132 9:-0.29363889 10:0.091389833 11:-0.99389094 12:-1.0613456 13:-0.22810705 14:0.034190784 15:-0.14034348 16:1.1144357 17:1.5780119 18:-0.78465392 19:0.55719801 
-0.04202977965661723 0 0.7387673047041994 0.8411715054912775 0.3368026846008355 2.603981946179151 0.8403009086341801 1:0.12715479 2:0.53715045 3:0.28816932 4:0.28816932 5:-0.20335449 6:0.75007463 7:0.31422044 8:-0.65777823 9:-0.27539253 10:-0.58559099 11:-0.76390325 12:-1.0613456 13:-0.24605272 14:-0.70434449 15:0.82576294 16:0.93795196 17:1.2236723 18:0.16280152 19:0.7552707 
-0.4800767500218184 0 1.128577950997634 0.6771354882896636 0.6637088824270822 0 0.5635855867606681 1:-0.22621421 2:0.43629019 3:0.31144713 4:0.31144713 5:-0.29169077 6:-0.20488548 7:0.25611764 8:-0.95088079 9:-0.29876003 10:0.48536371 11:-0.78306889 12:-0.43776619 13:-0.38165102 14:0.6011259 15:-0.78627859 16:2.5557197 17:0.57963954 18:-1.11289 19:0.2363098 
-0 0 0 0 0 3.172374073854216 0 1:-0.32549406 2:0.33542994 3:0.31065283 4:0.31065283 5:-0.26688483 6:0.18499689 7:-0.32491035 8:-1.0607942 9:-0.30031772 10:0.46394195 11:-0.9747253 12:-0.74955588 13:-0.26341939 14:0.50363644 15:-0.73979083 16:0.11436109 17:-0.030979396 18:-1.0941169 19:0.21749551 
-0 1.230189178491564 0 0 0 0 0 1:-0.38599573 2:-0.28654164 3:0.31051923 4:0.31051923 5:-0.33454412 6:-0.20156327 7:-0.40238075 8:-1.1340699 9:-0.30101617 10:0.41469723 11:-0.99389094 12:-0.28187135 13:-0.3414549 14:0.41573227 15:-0.67023397 16:-0.12095058 17:0.05199114 18:-1.1316631 19:0.37898485 
-0 494.4377026336978 0 0 0 0 0 1:-0.20633503 2:0.23456968 3:0.30772351 4:0.30772351 5:-0.28053255 6:0.076731296 7:-0.16996955 8:-1.115751 9:-0.29265748 10:0.21162455 11:-1.0705535 12:-0.98339814 13:-0.32808386 14:0.12980994 15:-0.35880097 16:-0.0032947455 17:0.043509806 18:-1.0055313 19:0.36644199 
-0 10.10223514819606 0.08383395731000137 0.05520937962096294 0 0 0.7764316697551201 1:-0.25733557 2:0.70525088 3:0.30801225 4:0.30801225 5:-0.2370408 6:0.28825289 7:-0.28617515 8:-1.0974321 9:-0.29069135 10:0.17303519 11:-1.0897191 12:-1.0808324 13:-0.27592424 14:0.017124283 15:-0.33817858 16:0.026119214 17:0.15869495 18:-0.94569201 19:0.55092658 
-0.404098993757763 35.31749386488855 0 0.2098839059905763 2.959566970004321 4.899986742138033 0.8256118272641285 1:-0.32376686 2:0.68844084 3:0.30996478 4:0.30996478 5:-0.2792775 6:0.9514614 7:-0.28617515 8:-0.016616381 9:-0.299281 10:-0.49581311 11:-0.054774531 12:0.010431478 13:-0.26623992 14:-1.0110739 15:0.076715888 16:-0.091536624 17:0.54078239 18:-0.075968981 19:0.64499804 
-0 113.4917949010693 0 0 0 0 0 1:-0.27846886 2:0.2009496 3:0.30981456 4:0.30981456 5:-0.29880383 6:0.032020072 7:-0.18933715 8:-1.1340699 9:-0.29884633 10:0.19928053 11:-1.0322222 12:-0.88596387 13:-0.21870493 14:0.077675292 15:-0.29693381 16:-0.15036454 17:-0.069454403 18:-1.029291 19:0.4129551 
-0 0 0.02377624958452481 0.0251160264802918 0 0 0.4150234394168773 1:-0.35566328 2:-0.10163117 3:0.31048026 4:0.31048026 5:-0.35438368 6:-0.28741181 7:-0.40238075 8:-1.0424753 9:-0.30074959 10:0.19071436 11:-0.82140017 12:-0.2623845 13:-0.40316178 14:0.053595161 15:-0.31336181 16:-0.15036454 17:-0.18041121 18:-1.0627306 19:0.60527898 
-0 78.45509110189109 0 0 0 0 0 1:-0.34688633 2:0.15051947 3:0.31043701 4:0.31043701 5:-0.30326643 6:0.0072556774 7:-0.38301315 8:-1.0424753 9:-0.30010444 10:0.2137306 11:-1.0513879 12:-0.69109531 13:-0.21782155 14:0.079545593 15:-0.31161415 16:-0.091536624 17:-0.014424138 18:-1.0463042 19:0.47775989 
-0 28.34978166179716 0 0 0 0 0 1:-0.33362192 2:0.3186199 3:0.31014714 4:0.31014714 5:-0.32178235 6:-0.049801217 7:-0.38301315 8:-0.95088079 9:-0.30019567 10:0.23552274 11:-0.82140017 12:-0.71058217 13:-0.35866948 14:0.10502845 15:-0.35425705 16:-0.3268483 17:-0.25836868 18:-1.0697705 19:0.56294682 
-0 43.55867725207799 0 0 0 0 0 1:-0.19166477 2:0.45310024 3:0.30765401 4:0.30765401 5:-0.25489484 6:0.15375581 7:0.0043388454 8:-1.0974321 9:-0.2968244 10:0.27906078 11:-1.0705535 12:-0.80801645 13:-0.29721118 14:0.15061705 15:-0.3843168 16:0.43791465 17:0.16442241 18:-1.0545174 19:0.57078611 
-0 0 0 0 1.517871535733274 0 0 1:-0.069030963 2:-0.1520613 3:0.29905845 4:0.29905845 5:-0.28324142 6:-0.23509652 7:0.19801484 8:-1.0058375 9:-0.27654755 10:0.22005937 11:-1.0130566 12:-1.1003193 13:-0.39492801 14:0.31894417 15:-0.39480276 16:0.73205425 17:0.5067803 18:-0.96827841 19:-0.032316492 
-0 3.1916651779585 0 0 0 0 0 1:-0.25222392 2:-0.034391 3:0.3099343 4:0.3099343 5:-0.3164928 6:-0.120285 7:-0.034396354 8:-1.115751 9:-0.29892951 10:0.27525526 11:-1.1088848 12:-0.74955588 13:-0.34819362 14:0.17493097 15:-0.42626064 16:0.14377505 17:0.054780573 18:-1.0812104 19:0.6465659 
-0 20.3529777752854 0 0 0 0 0.0180797570429322 1:-0.29708302 2:0.16732951 3:0.3100729 4:0.3100729 5:-0.25175439 6:0.33924117 7:-0.24743995 8:-0.89592406 9:-0.29911847 10:0.12320428 11:-0.72557197 12:-0.8275033 13:-0.16755085 14:-0.043660513 15:-0.38676353 16:0.026119214 17:0.25897185 18:-0.86825293 19:0.67269686 
-0 148.6322823110791 0 0 0 0 0 1:-0.26603189 2:0.13370943 3:0.30879319 4:0.30879319 5:-0.30652565 6:-0.041941382 7:-0.26680755 8:-1.1340699 9:-0.29402821 10:0.25630306 11:-1.0705535 12:-1.0808324 13:-0.23439201 14:0.17025521 15:-0.36089816 16:-0.062122665 17:0.03028673 18:-1.0709439 19:0.42497534 
-0 163.8088928922344 0 0 0 0 0 1:-0.15567161 2:0.23456968 3:0.30499717 4:0.30499717 5:-0.28721837 6:-0.0060875902 7:-0.015028754 8:-1.115751 9:-0.28728059 10:0.23028089 11:-1.1088848 12:-0.57417418 13:-0.20180316 14:0.17189173 15:-0.33258607 16:0.26143089 17:0.093935108 18:-1.030171 19:0.25407885 
-0 5.639920382348319 0 0 0 0 5.423064813790279 1:-0.21453596 2:0.85654126 3:0.30924971 4:0.30924971 5:-0.22837367 6:1.0372735 7:-0.16996955 8:-0.21812439 9:-0.29787187 10:-0.31287742 11:-0.26559658 12:-0.20392393 13:-0.24518068 14:-0.78453366 15:0.028130941 16:0.026119214 17:0.55640314 18:-0.23847372 19:0.43176939 
-0 0 0 0 0 0.8946921522494954 0.03442957972893176 1:0.52724165 2:0.75568101 3:0.27731182 4:0.27731182 5:-0.22940203 6:0.71002002 7:0.60473444 8:-1.0607942 9:-0.25260536 10:-0.041049472 11:-1.1472161 12:-1.1003193 13:-0.26173634 14:-0.080598966 15:-0.053310012 16:0.49674257 17:0.75426416 18:-0.36665887 19:-0.42584878 
-0.4162557859491334 0.0716556053069501 0.9720123865298783 0.9547118278662926 0.443989189185647 0.7081062031852798 0.4365885230008849 1:1.0678847 2:1.0918819 3:0.0233626 4:0.0233626 5:0.16485402 6:0.56741097 7:2.17351 8:-1.0607942 9:-0.034027184 10:-0.31367471 11:-1.1472161 12:-1.1003193 13:-0.16851127 14:-0.33075178 15:0.46050201 16:1.673301 17:1.5274219 18:0.78407417 19:-0.44518569 
-0.5211285487835621 0 1.176909932982356 0.8131789802426049 0.5384255930426325 0.2660239348874568 0.5753265712591598 1:0.93939593 2:0.18413955 3:0.17059422 4:0.17059422 5:-0.021201991 6:0.083343841 7:2.17351 8:-1.0607942 9:-0.23035412 10:-0.2579915 11:-1.1088848 12:-1.2172404 13:-0.3541464 14:-0.22180672 15:0.41716004 16:1.673301 17:1.712506 18:1.6344374 19:0.034056152 
-0.5064983210503429 0 1.191793018798805 2.14445298832395 0.5073844720058862 0.3903576557348741 0.4525774837897647 1:0.38087238 2:1.2095522 3:0.29903887 4:0.29903887 5:-0.11030554 6:1.7847414 7:0.48852884 8:-1.0607942 9:-0.27956683 10:-0.033745964 11:-1.1088848 12:-1.0613456 13:-0.13136113 14:0.043542291 15:-0.0099680451 16:1.4968172 17:1.3631169 18:0.79874066 19:-0.25442967 
-0 0.6821260458601528 0 0 0 3.925582068454539 0 1:0.21008583 2:1.2599823 3:0.28517491 4:0.28517491 5:-0.094891743 6:0.84403116 7:0.54663164 8:-0.9691997 9:-0.2377546 10:0.15841117 11:-0.99389094 12:-0.57417418 13:-0.075551542 14:0.15576038 15:-0.25953388 16:1.4968172 17:1.0484395 18:-0.637109 19:-0.075171269 
-0 109.0904940532432 0 0 0 14.7892108153083 0 1:-0.026216985 2:0.26818977 3:0.29477945 4:0.29477945 5:-0.17572683 6:0.38219709 7:0.50789644 8:-1.1340699 9:-0.2888751 10:0.74478993 11:-1.1855474 12:-1.1003193 13:-0.1745795 14:0.79376695 15:-1.140704 16:0.40850069 17:0.25048013 18:-1.1366498 19:0.41347772 
-0.08939576558494906 0 0.1902939868503105 0.1180012356494749 0.5602652321506331 0 0 1:-0.18261724 2:0.18413955 3:0.3065935 4:0.3065935 5:-0.3095922 6:-0.10145721 7:-0.11186675 8:-1.0424753 9:-0.2929231 10:0.66999508 11:-0.9747253 12:-1.0418587 13:-0.37376407 14:0.73602139 15:-1.123577 16:0.17318901 17:0.0055631403 18:-1.1609961 19:0.65126947 
-0.05092680715054893 0 0.1082665310701836 0.07565631781957131 0.476282511537117 0 0 1:-0.021037631 2:0.18413955 3:0.29425384 4:0.29425384 5:-0.28648427 6:-0.03216588 7:0.23675004 8:-1.0791132 9:-0.28830461 10:0.62818049 11:-1.0897191 12:-1.002885 13:-0.30142841 14:0.74256745 15:-1.1061004 16:-0.091536624 17:-0.16434279 18:-1.1026235 19:0.40407057 
-0 0 0 0 0.03320318524662748 0 0 1:-0.025148564 2:-0.1520613 3:0.29666346 4:0.29666346 5:-0.30551353 6:-0.18849455 7:0.37232324 8:-0.85928624 9:-0.28412258 10:0.53198819 11:-1.0705535 12:-0.63263475 13:-0.39288343 14:0.61375044 15:-0.90302227 16:0.55557049 17:0.37433218 18:-1.1114234 19:0.47514679 
-0.05317134789618706 0 0.1832697738605118 0.1487959257105238 0.4540266253343109 0.02631294751351626 0 1:-0.015674971 2:-0.16887134 3:0.29386935 4:0.29386935 5:-0.31826009 6:-0.34234053 7:0.37232324 8:-0.62114041 9:-0.2807921 10:0.37085411 11:-0.85973145 12:-0.90545072 13:-0.40129064 14:0.40451046 15:-0.64017422 16:0.55557049 17:0.19755013 18:-1.0891303 19:0.5624242 
-0 9.144933005172478 0 0 3.341009216538436 0 3.655929537006071 1:-0.25945153 2:0.13370943 3:0.30854027 4:0.30854027 5:-0.29360607 6:0.87067724 7:-0.16996955 8:-0.36467567 9:-0.29648622 10:-0.22884057 11:-0.41892171 12:-0.39879248 13:-0.29462474 14:-0.603582 15:-0.16446118 16:0.026119214 17:0.7618959 18:-0.35727232 19:0.64186233 
-0 5.939006114293025 0 0 0 3.902413652657383 0 1:-0.091329229 2:0.26818977 3:0.30564619 4:0.30564619 5:-0.23758626 6:0.14833626 7:0.21738244 8:-1.1340699 9:-0.28914681 10:0.65662185 11:-0.95555966 12:-1.1587798 13:-0.30168003 14:0.73859306 15:-1.0833808 16:1.2026776 17:0.35257267 18:-1.1073168 19:0.3288134 
-0.1666871374723937 0 0.3763592897564917 0.2364439910228303 0 0 0.1097018401679 1:-0.051769144 2:0.15051947 3:0.30689183 4:0.30689183 5:-0.27532382 6:-0.049527597 7:0.25611764 8:-1.1340699 9:-0.29139009 10:0.68029559 11:-0.99389094 12:-1.1977536 13:-0.30440192 14:0.77693424 15:-1.140005 16:1.4379893 17:0.36282652 18:-1.1266765 19:0.41138724 
-0.1231885941772879 6.451110710573908 0.2198683706280458 0.0974219625706205 0 0 0 1:-0.26716017 2:0.58758058 3:0.31029997 4:0.31029997 5:-0.20650809 6:0.91978351 7:-0.13123435 8:-0.54786477 9:-0.29911172 10:0.17118582 11:-0.61057812 12:-0.43776619 13:-0.087746675 14:-0.16032056 15:-0.61186213 16:0.7614682 17:1.5503966 18:-0.53532354 19:0.67269686 
-0 0 0.1588168464430448 0.6431807873191058 4.52862692403221 24.89309765407474 0 1:-0.43283615 2:0.33542994 3:0.31019972 4:0.31019972 5:-0.23352381 6:0.46178533 7:-0.38301315 8:0.62454547 9:-0.30200182 10:-1.0044218 11:0.6160229 12:0.80939255 13:-0.12255592 14:-1.5279785 15:0.18891566 16:0.23201693 17:0.87250812 18:0.43119835 19:0.6873302 
-0.3184777517312615 0 1.285879012067814 0.4780116677729895 2.64548479640079 28.82213324428597 0 1:-0.3200662 2:0.2009496 3:0.30996981 4:0.30996981 5:-0.25399841 6:0.92147182 7:-0.38301315 8:-0.32803785 9:-0.29853519 10:-0.016000546 11:-0.38059043 12:-0.067515943 13:-0.30051693 14:-0.40603141 15:-0.46470916 16:0.43791465 17:1.6540777 18:-0.35052573 19:0.52949919 
-0.1548925320051343 0 0.3803617676005202 0.2438582608547121 0.04744984542029074 3.132836418212831 0.1536145054856389 1:0.7296602 2:0.97421156 3:0.083279372 4:0.083279372 5:0.16746469 6:0.70749652 7:1.0308216 8:-1.1523888 9:-0.12764197 10:0.60867069 11:-1.1280504 12:-1.1977536 13:-0.020350659 14:0.69393961 15:-0.38781212 16:1.1732636 17:1.4201617 18:-1.0304643 19:0.077433549 
-0 0 0 0 0 2.620296763361881 0 1:0.36458942 2:0.50353037 3:0.21614801 4:0.21614801 5:-0.090033628 6:0.33837235 7:0.95335124 8:-0.98751861 9:-0.21019328 10:0.59262011 11:-1.1280504 12:-1.1977536 13:-0.16224276 14:0.67780826 15:-0.57271454 16:0.58498445 17:0.60974102 18:-1.1460363 19:-0.047995069 
-0 32.21183568157372 0 0 0 2.770975377386252 0 1:0.034487875 2:0.46991028 3:0.28565782 4:0.28565782 5:-0.23883977 6:0.065002476 7:0.50789644 8:-0.98751861 9:-0.26697912 10:0.48194095 11:-1.0897191 12:-1.0808324 13:-0.3179748 14:0.60206105 15:-0.59473506 16:0.26143089 17:0.27743325 18:-1.11377 19:-0.13736296 
-0 6.398567967254884 0 0 0 0 0 1:0.07583655 2:-0.11844121 3:0.27953794 4:0.27953794 5:-0.25444287 6:-0.078637891 7:0.74030764 8:-1.0791132 9:-0.26755949 10:0.49847077 11:-1.1088848 12:-1.1782667 13:-0.35729631 14:0.629648 15:-0.64366954 16:0.40850069 17:0.31983853 18:-1.1272632 19:-0.10077961 
-0 50.20880237535089 0 0 0 23.11157942015107 0 1:0.18156237 2:0.80611113 3:0.2596125 4:0.2596125 5:-0.12481918 6:0.38054125 7:0.39169084 8:-1.1340699 9:-0.26293858 10:0.67026278 11:-1.1280504 12:-1.1587798 13:-0.089035876 14:0.79493589 15:-0.82962056 16:0.73205425 17:0.64088189 18:-1.1208099 19:-0.1765594 
-0 2.162998360188145 0 0 0.4748022255969562 0 0 1:-0.013069586 2:-0.034391 3:0.28401467 4:0.28401467 5:-0.19933566 6:0.042124152 7:0.043074045 8:-1.1340699 9:-0.2395883 10:0.68192191 11:-1.1855474 12:-1.1587798 13:-0.22363483 14:0.81153481 15:-0.7219647 16:0.58498445 17:0.89556456 18:-1.2278753 19:-0.25704276 
-0 0 0 0 0.3044164623893074 0 0 1:0.16582904 2:0.066469256 3:0.26994846 4:0.26994846 5:-0.11757977 6:0.13175583 7:0.52726404 8:-1.0974321 9:-0.26603475 10:0.71430311 11:-1.1855474 12:-1.1977536 13:-0.28806721 14:0.83210813 15:-0.76950105 16:0.96736592 17:1.2421762 18:-1.1920891 19:-0.21627846 
-0.1596301185935869 0 0.3770157070086343 0.2448272353505449 0 0 0.1266555739080827 1:0.45119406 2:0.26818977 3:0.13341219 4:0.13341219 5:-0.11563839 6:0.17955418 7:0.39169084 8:-1.0974321 9:0.027090836 10:1.0173897 11:-1.1088848 12:-1.1977536 13:-0.23316802 14:1.2080387 15:-0.84604856 16:0.23201693 17:0.43034198 18:-1.4226464 19:-0.59831313 
-0.3001853068412333 0 0.695813437605014 0.4656615517543496 0.304589566328565 0.7601881476584456 0.3397721034733179 1:0.57153922 2:0.43629019 3:0.13841366 4:0.13841366 5:-0.022122794 6:0.33023927 7:1.398806 8:-1.115751 9:-0.12619801 10:0.93244597 11:-1.1280504 12:-1.1977536 13:-0.23997589 14:1.1250441 15:-0.80969723 16:0.55557049 17:0.82279108 18:-1.2806747 19:-0.60615242 
-0 0 0 0 0.05031789992321487 0 0 1:0.56149424 2:0.23456968 3:0.10441886 4:0.10441886 5:-0.025952549 6:0.29919178 7:0.44979364 8:-1.0424753 9:0.041601243 10:1.1199574 11:-1.1663817 12:-1.1587798 13:-0.20694022 14:1.2727979 15:-0.94391752 16:0.58498445 17:0.79656982 18:-1.4513927 19:-0.53194048 
-0 0 0 0 0.1652837412615999 0 0 1:0.11470209 2:0.066469256 3:0.26758007 4:0.26758007 5:-0.14990985 6:0.096921899 7:0.19801484 8:-1.115751 9:-0.22271654 10:0.75387585 11:-1.1472161 12:-1.139293 13:-0.27021939 14:0.8667087 15:-0.71602266 16:0.70264029 17:1.0789675 18:-1.2683549 19:-0.29310349 
-0.1807167159517373 0 0.4165007383055505 0.2593633009996049 0 0 0.2270340056124272 1:0.57270926 2:0.38586007 3:0.096635971 4:0.096635971 5:0.023837783 6:0.3842868 7:0.44979364 8:-1.115751 9:0.046714561 10:1.1049697 11:-1.204713 12:-1.1977536 13:0.0031690238 14:1.247315 15:-0.83101868 16:0.93795196 17:1.061179 18:-1.4367262 19:-0.61974052 
-0.0147747602661444 0 0.05282117911282398 0.07795964019629087 0.04303946197816596 0 0.02170930684743404 1:0.30934142 2:0.16732951 3:0.24357283 4:0.24357283 5:-0.033408989 6:0.21996155 7:0.58536684 8:-1.1707077 9:-0.2268125 10:0.81151471 11:-1.1472161 12:-1.1587798 13:-0.18876257 14:0.91299866 15:-0.77754029 16:1.614473 17:1.5409659 18:-1.2416618 19:-0.18387607 
-0 10.73006433069949 0 0 0 1.388505565201374 0 1:0.13728509 2:0.26818977 3:0.27766932 4:0.27766932 5:-0.091965021 6:0.26953909 7:0.44979364 8:-1.115751 9:-0.27767514 10:0.64431155 11:-1.1663817 12:-1.139293 13:-0.12424471 14:0.7491135 15:-0.76950105 16:1.614473 17:1.2026634 18:-1.1234499 19:-0.056879596 
-0 12.97655853056712 0 0 0 0 0 1:-0.017360957 2:0.30180985 3:0.29021326 4:0.29021326 5:-0.17604241 6:0.3433619 7:-0.034396354 8:-1.0791132 9:-0.26889489 10:0.61767928 11:-1.1663817 12:-1.1198061 13:0.13644424 14:0.68178265 15:-0.70938155 16:0.26143089 17:0.38690635 18:-1.174196 19:-0.078306985 
-0 0 0 0 0 18.92496135171672 0 1:0.12141832 2:0.58758058 3:0.27349091 4:0.27349091 5:0.00096986211 6:0.85187522 7:0.12054444 8:-0.98751861 9:-0.25123474 10:0.55176027 11:-1.0705535 12:-1.0613456 13:0.030112021 14:0.42812302 15:-0.56362671 16:0.52615653 17:1.0175295 18:-1.0028913 19:-0.011411722 
-0.1591552033257994 16.25745913081844 2.688709961955478 0.1701861557274089 3.883237004978977 3.474109064440012 0 1:0.085294706 2:0.55396049 3:0.29110642 4:0.29110642 5:-0.16716699 6:1.1007416 7:0.12054444 8:0.18489163 9:-0.27017706 10:-0.32795396 11:0.15604752 12:0.18581318 13:-0.074476251 14:-0.92316976 15:-0.015211025 16:0.52615653 17:1.270585 18:0.013496626 19:0.37114556 
-0.08932259832663805 0 0.2339349853186362 0.1533719821167619 0 0 0 1:-0.36506665 2:0.049659213 3:0.31026714 4:0.31026714 5:-0.29356356 6:0.12407545 7:-0.34427795 8:-1.1707077 9:-0.29966987 10:0.34010975 11:-0.68724068 12:-0.30135821 13:-0.17760102 14:0.40731592 15:-0.54615011 16:-0.35626226 17:-0.32225383 18:-1.0524641 19:0.066981164 
-0 0 0 0 0 3.064706252433875 0 1:-0.32700167 2:0.16732951 3:0.31036572 4:0.31036572 5:-0.25885311 6:0.26023182 7:-0.32491035 8:-1.1707077 9:-0.29988355 10:0.42946166 11:-0.74473761 12:-0.90545072 13:-0.040773814 14:0.47815358 15:-0.54719871 16:-0.15036454 17:-0.2763451 18:-1.1131834 19:0.018377575 
-0 72.02515518783945 0 0 0 0 0 1:-0.30694155 2:0.26818977 3:0.30929326 4:0.30929326 5:-0.27760363 6:0.15814567 7:-0.28617515 8:-1.1890266 9:-0.29831702 10:0.32654207 11:-1.0130566 12:-1.0613456 13:-0.22972994 14:0.37879382 15:-0.45666993 16:-0.12095058 17:-0.18875052 18:-1.0533441 19:-0.0035724334 
-0 0 0 0 0 0.09983836347640444 0 1:-0.27117545 2:0.33542994 3:0.30823667 4:0.30823667 5:-0.22864509 6:0.36469349 7:-0.20870475 8:-1.1707077 9:-0.29505845 10:0.44737937 11:-1.0705535 12:-0.8275033 13:-0.032423924 14:0.50176614 15:-0.52203241 16:-0.15036454 17:-0.22759652 18:-1.1058501 19:-0.087191512 
-0 0 0 0 0 28.65123344216542 0 1:-0.25070217 2:0.73887096 3:0.30772508 4:0.30772508 5:-0.1640203 6:0.5686489 7:-0.24743995 8:-1.1340699 9:-0.29076971 10:0.55891864 11:-1.0322222 12:-1.002885 13:0.21193017 14:0.53987353 15:-0.51504177 16:-0.12095058 17:-0.1235489 18:-1.1847558 19:-0.042246257 
-0.07174492604350427 0 0.1115791079014269 0.07021844426407337 0 0 0 1:-0.27181422 2:0.72206092 3:0.30969772 4:0.30969772 5:-0.15219367 6:0.6158317 7:-0.30554275 8:-1.1707077 9:-0.29596562 10:0.52775196 11:-1.0322222 12:-0.94442443 13:0.15594699 14:0.48610236 15:-0.5328679 16:-0.38567622 17:-0.22720337 18:-1.1492629 19:0.041372821 
-0 0 0 0 0 4.644837187459911 0 1:-0.21997124 2:0.52034041 3:0.30589833 4:0.30589833 5:-0.15215139 6:0.58298127 7:-0.24743995 8:-1.1523888 9:-0.28390582 10:0.53264277 11:-1.1280504 12:-1.0613456 13:0.35062354 14:0.48797267 15:-0.4814867 16:-0.0032947455 17:0.0024231065 18:-1.1653961 19:-0.0056629103 
-0.3525497682671204 0 0.8354815815111295 0.5479729638761074 0 0 0.1641138921117896 1:-0.19629464 2:0.70525088 3:0.30543522 4:0.30543522 5:-0.10187233 6:0.72081493 7:-0.20870475 8:-1.1523888 9:-0.28859873 10:0.71516948 11:-1.1663817 12:-1.0418587 13:0.57166441 14:0.62146543 15:-0.51329411 16:-0.12095058 17:0.033884985 18:-1.3100077 19:-0.0020045757 
-0 10.80760479616423 0 0 0 0 0 1:-0.27605615 2:0.53715045 3:0.31020356 4:0.31020356 5:-0.22299612 6:0.35245812 7:-0.22807235 8:-1.1707077 9:-0.29882869 10:0.43885713 11:-1.1088848 12:-0.98339814 13:0.12193701 14:0.39726305 15:-0.44478584 16:-0.12095058 17:-0.023623238 18:-1.143103 19:0.10147403 
-0 249.6472827677727 0 0 0 0 0 1:-0.27451122 2:0.13370943 3:0.30995327 4:0.30995327 5:-0.27514367 6:0.15544251 7:-0.15060195 8:-1.1890266 9:-0.29897506 10:0.30364487 11:-1.0513879 12:-0.88596387 13:-0.1597773 14:0.30935888 15:-0.39620089 16:-0.23860642 17:-0.14120676 18:-1.0580373 19:0.077956168 
-0 6.179801464696873 0 0 0 0 0 1:-0.37058475 2:0.15051947 3:0.31066601 4:0.31066601 5:-0.28234165 6:0.15382302 7:-0.38301315 8:-1.115751 9:-0.3000159 10:0.3757645 11:-1.0513879 12:-0.32084506 13:-0.20669398 14:0.40076986 15:-0.49826423 16:-0.15036454 17:-0.10292159 18:-1.0993969 19:0.091544268 
-0 136.2252051054632 0 0 0 0 0 1:-0.26883502 2:0.18413955 3:0.30804805 4:0.30804805 5:-0.25865924 6:0.22683216 7:-0.22807235 8:-1.1340699 9:-0.29364907 10:0.42703801 11:-0.93639402 12:-0.84699016 13:-0.15407253 14:0.37715731 15:-0.41192983 16:-0.12095058 17:-0.095115181 18:-1.1686227 19:0.14380619 
-0 512 0 0 0 0 0 1:-0.28275264 2:0.26818977 3:0.30926258 4:0.30926258 5:-0.23363519 6:0.31127207 7:-0.32491035 8:-1.1523888 9:-0.29811814 10:0.39593828 11:-1.0897191 12:-0.94442443 13:-0.13917154 14:0.34045264 15:-0.39480276 16:-0.091536624 17:-0.017064552 18:-1.1260899 19:0.12446928 
-0.02366285845396809 0.08750930651169632 0.243935164870324 0.2631153861146529 0 0.7799217189565189 0 1:-0.22404864 2:0.8733513 3:0.30953193 4:0.30953193 5:-0.16453336 6:1.3050133 7:-0.26680755 8:-0.38299458 9:-0.29522588 10:0.0063989945 11:-0.43808735 12:-0.20392393 13:-0.16331968 14:-0.50445603 15:-0.13370237 16:0.026119214 17:0.73412675 18:-0.4455646 19:0.40720629 
-0.2443096812224684 2.609210584310088 0.8290840028751564 0 4.037003020965461 31.34868638725358 0 1:-0.46138015 2:0.50353037 3:0.3100456 4:0.3100456 5:-0.24487889 6:0.41689793 7:-0.51858635 8:0.78941566 9:-0.30244038 10:-1.1931954 11:0.78851367 12:1.0432348 13:-0.24102621 14:-1.7150086 15:0.33991347 16:-0.091536624 17:0.11131948 18:0.52858386 19:0.66747067 
-0.5338849754324812 -21.94369062054323 1.035736775965792 0.7942946410885557 0.2033925611582303 1.501724118954324 0.9015686996248172 1:-0.08782334 2:-0.034391 3:0.29688066 4:0.29688066 5:-0.3073483 6:-0.12091968 7:0.062441645 8:-1.1340699 9:-0.27267797 10:0.047015316 11:-0.9747253 12:-1.1587798 13:-0.29746489 14:0.21303836 15:-0.19172468 16:-0.091536624 17:0.076233472 18:-0.77233407 19:-0.52985001 
-0 -17.51046919280868 0 0 0 0 0 1:0.004772874 2:0.15051947 3:0.30357876 4:0.30357876 5:-0.2794333 6:0.062609057 7:0.081809245 8:-1.0424753 9:-0.28543453 10:0.20439146 11:-0.95555966 12:-0.84699016 13:-0.28281259 14:0.27569345 15:-0.3493636 16:0.11436109 17:0.047199788 18:-0.93923876 19:-0.0814427 
-0 -19.26049550053723 0 0 0 0 1.91509577874399 1:-0.18871647 2:0.55396049 3:0.30803502 4:0.30803502 5:-0.25374647 6:0.96597144 7:-0.053763954 8:-0.12652984 9:-0.29588623 10:-0.39261416 11:-0.16976838 12:-0.14546336 13:-0.18359413 14:-0.85116315 15:0.0089066822 16:0.17318901 17:0.68828443 18:-0.1507681 19:0.4970968 
-0 -16.07843019519919 0 0 0 0 0 1:-0.066038376 2:0.23456968 3:0.29633485 4:0.29633485 5:-0.22469948 6:0.28211956 7:0.15927964 8:-1.1890266 9:-0.27177203 10:0.32610013 11:-0.95555966 12:-1.0808324 13:-0.20012448 14:0.39141836 15:-0.55698561 16:-0.1797785 17:-0.10477399 18:-0.97649165 19:0.011583525 
-0 -41.83086613857171 0 0 0 0 0 1:-0.20138916 2:0.28499981 3:0.30698105 4:0.30698105 5:-0.23687352 6:0.3151959 7:-0.18933715 8:-1.1340699 9:-0.29091043 10:0.37910756 11:-0.95555966 12:-1.0613456 13:-0.13898679 14:0.34442703 15:-0.55488841 16:-0.1797785 17:-0.17702077 18:-1.0662506 19:0.29641101 
-0.333028608176733 -304.4206229860369 0.6977479379247128 0.506028847124619 0.2687642902568238 0 0 1:-0.22131585 2:0.03284917 3:0.30643201 4:0.30643201 5:-0.29841521 6:-0.0012810841 7:-0.13123435 8:-1.0974321 9:-0.29005115 10:0.27819929 11:-1.0130566 12:-0.76904273 13:-0.30868001 14:0.18919201 15:-0.43534847 16:-0.062122665 17:-0.034577252 18:-1.0683039 19:0.64290757 
-0 -56.80547074324872 0 0 0.9047851518941634 0 0 1:-0.1291063 2:0.066469256 3:0.30310565 4:0.30310565 5:-0.30824482 6:-0.11154457 7:-0.034396354 8:-1.0241564 9:-0.28974552 10:0.24543614 11:-0.82140017 12:-0.57417418 13:-0.28674809 14:0.33133492 15:-0.44967929 16:-0.091536624 17:-0.016033171 18:-0.99731807 19:0.02151329 
-0 -0 0 0 0.2195423569037705 0 0 1:-0.081070869 2:0.03284917 3:0.30319708 4:0.30319708 5:-0.2968304 6:-0.037065229 7:0.062441645 8:-1.0241564 9:-0.28310682 10:0.30331015 11:-0.82140017 12:-0.76904273 13:-0.28037022 14:0.31356706 15:-0.46121384 16:-0.15036454 17:-0.11785379 18:-1.0677172 19:0.30843125 
-0 -40.77683478553585 0 0 0 0 2.576905938041787 1:-0.22770363 2:0.52034041 3:0.3083998 4:0.3083998 5:-0.17751187 6:0.72581332 7:0.023706445 8:-0.82264842 9:-0.29434301 10:0.021434224 11:-0.89806274 12:-0.80801645 13:-0.12318242 14:-0.24845852 15:-0.2455526 16:-0.0032947455 17:0.45841208 18:-0.69401499 19:0.57548968 
-0.5461478834309974 -22.64767933296272 0.2904753496653624 0.3192069869286967 14.51477457869378 10.7254967844624 0 1:-0.4029233 2:0.30180985 3:0.31054216 4:0.31054216 5:-0.26070048 6:0.75100713 7:-0.34427795 8:0.34976182 9:-0.30184598 10:-0.82657779 11:0.32853829 12:0.4391423 13:-0.10890256 14:-1.3596514 15:0.21408196 16:-0.0032947455 17:0.33791334 18:0.2156009 19:0.64499804 
-0.1451017119466123 -0.2060219164990853 0.2975447164737956 0.1831018002537372 0.1709296826461643 0 0.1876182171171992 1:0.44625796 2:0.30180985 3:0.23483643 4:0.23483643 5:-0.093422479 6:0.26400761 7:1.882996 8:-1.1707077 9:-0.23000038 10:0.50431993 11:-0.95555966 12:-1.0418587 13:-0.072714724 14:0.64975374 15:-0.78033655 16:1.8203708 17:0.62854472 18:-0.90550582 19:-0.34379756 
-0.2427224309854147 -0 0.492596516692062 0.4889487729240609 0.2885602264121343 0 0.3124252286333204 1:0.45898175 2:0.25137973 3:0.20808794 4:0.20808794 5:-0.024834993 6:0.37042034 7:1.011454 8:-1.1340699 9:-0.1506052 10:0.51531893 11:-0.99389094 12:-1.1977536 13:0.075882831 14:0.68762734 15:-0.75831603 16:2.5263058 17:0.99941063 18:-0.84742651 19:-0.48856309 
-0.2001679903872113 -3.107597992702841 0.404949053553438 0.2541979110229031 0.2130955027090289 0.9701439192386783 0.2545236940264882 1:0.55373197 2:0.26818977 3:0.17230073 4:0.17230073 5:0.024233591 6:0.40913258 7:1.0308216 8:-1.1340699 9:-0.10326829 10:0.49571571 11:-1.1855474 12:-1.2172404 13:-0.049264374 14:0.62660876 15:-0.6027743 16:2.5263058 17:1.0056002 18:-0.85387977 19:-0.55650359 
-0.2640816375645566 -0.5530657498405946 0.5267612001479649 0.6699068452499073 0.2908103597567452 0.3887396670620597 0.3353959007493621 1:0.61157426 2:0.97421156 3:0.19264154 4:0.19264154 5:0.044489025 6:0.92144314 7:1.9217312 8:-1.0974321 9:-0.21416551 10:0.10076119 11:-1.1855474 12:-1.1977536 13:-0.080621953 14:0.059439853 15:-0.044921244 16:2.0262685 17:1.674311 18:-0.25812682 19:-0.60510718 
-0.4952435311959032 -2.35802799531665 1.016939992809105 0.6735438662044742 0.5689370355445453 2.139571305124136 0.636869509887857 1:0.50779845 2:1.1086919 3:0.21874999 4:0.21874999 5:0.0047137611 6:0.93826922 7:2.2897156 8:-1.0974321 9:-0.24689457 10:0.084578585 11:-1.1855474 12:-1.1977536 13:-0.10791617 14:0.076272566 15:-0.019055877 16:1.2909195 17:1.5805404 18:-0.28071322 19:-0.62339885 
-0 -0.1113846700458174 0 0 0 2.78666919848412 0 1:0.37371013 2:0.53715045 3:0.22924837 4:0.22924837 5:-0.017446863 6:0.52376692 7:1.3407032 8:-1.1707077 9:-0.21252648 10:0.49944848 11:-1.1088848 12:-1.1977536 13:0.24647729 14:0.61655589 15:-0.61081353 16:1.4674032 17:0.77317254 18:-0.90345251 19:-0.47863332 
-0 -0 0 0 0.9528338320518468 0 0 1:-0.045972017 2:0.33542994 3:0.29650296 4:0.29650296 5:-0.19373106 6:0.21681927 7:0.13991204 8:-1.0974321 9:-0.28573159 10:0.48408145 11:-1.0130566 12:-1.139293 13:-0.29298285 14:0.62871285 15:-0.71707126 16:0.93795196 17:0.71632268 18:-1.0105179 19:-0.23666061 
-0 -33.5238387657453 0 0 0 0 0 1:-0.10168713 2:0.28499981 3:0.29983841 4:0.29983841 5:-0.17855024 6:0.35869784 7:-0.13123435 8:-1.1340699 9:-0.28745421 10:0.61693383 11:-1.1855474 12:-1.0223719 13:-0.11496424 14:0.74887971 15:-0.92224653 16:0.58498445 17:0.41763944 18:-1.0750505 19:-0.083533177 
-0 -3.231890075355747 0 0 0.1806091035292689 0 0 1:0.043658502 2:0.63801071 3:0.29224447 4:0.29224447 5:-0.11325501 6:0.93575537 7:0.41105844 8:-0.62114041 9:-0.27235882 10:0.16984463 11:-0.68724068 12:-0.67160846 13:-0.028636825 14:-0.047167328 15:-0.52203241 16:0.84971008 17:1.3320643 18:-0.54412344 19:0.23840027 
-0.4977091910711439 -11.28962680804182 0.9194283193619737 1.01030180646316 0 4.264322652064643 0.04944537587542298 1:-0.23134417 2:0.36905002 3:0.30942172 4:0.30942172 5:-0.20864468 6:0.58971661 7:-0.015028754 8:0.55126983 9:-0.29643549 10:-0.88020516 11:0.53936034 12:0.57555028 13:-0.063043778 14:-1.4152928 15:0.17353625 16:0.7614682 17:0.95406148 18:0.36343915 19:0.58228373 
-0 -19.80734352284712 0 0 0 0 0 1:0.06856904 2:0.41948015 3:0.29101049 4:0.29101049 5:-0.20651327 6:0.22261289 7:0.62410204 8:-1.0607942 9:-0.27998513 10:0.60674684 11:-1.0705535 12:-1.1782667 13:-0.23689854 14:0.76594621 15:-0.94985956 16:0.7614682 17:0.22075956 18:-1.0850237 19:0.087885934 
-0.01024474021534134 -0 0.02790060411858432 0 0 0 0 1:0.067393527 2:0.26818977 3:0.29199034 4:0.29199034 5:-0.19366025 6:0.24608143 7:0.81777804 8:-1.1340699 9:-0.28399469 10:0.58677562 11:-1.1088848 12:-1.1977536 13:-0.098028985 14:0.73719033 15:-0.92504279 16:1.0261938 17:0.29113011 18:-1.0656639 19:0.052347825 
-0 -0 0 0 0 18.8689722383301 0 1:0.037416139 2:0.75568101 3:0.28872498 4:0.28872498 5:-0.075020144 6:0.62417169 7:0.21738244 8:-1.1340699 9:-0.27617028 10:0.74252551 11:-1.1663817 12:-1.1782667 13:0.064361651 14:0.81130102 15:-0.89638117 16:1.0261938 17:0.59685164 18:-1.1565962 19:-0.044336734 
-0 -0 0 0 0 9.416863993346569 0 1:0.0025744774 2:0.75568101 3:0.29489236 4:0.29489236 5:-0.13643867 6:0.52480002 7:0.37232324 8:-1.1523888 9:-0.28113535 10:0.63024639 11:-1.1472161 12:-1.1587798 13:0.034263894 14:0.71077232 15:-0.85164107 16:0.26143089 17:0.21390369 18:-1.1043835 19:0.013151382 
-0 -0.4776950601886655 0.2765668144500987 0 0 21.86676243091646 0 1:-0.5188447 2:-0.18568138 3:0.30944598 4:0.30944598 5:-0.37491938 6:-0.44722412 7:-0.61542435 8:1.0092426 9:-0.30273775 10:-1.7671685 11:1.0185014 12:1.0822085 13:-0.42441406 14:-1.9233134 15:0.41646098 16:0.11436109 17:-0.24179745 18:0.71543498 19:0.68576234 
-0 -1.081345758328471 0 0 0 2.543802327766226 0 1:0.21032152 2:0.43629019 3:0.26465417 4:0.26465417 5:-0.026006479 6:0.59603997 7:0.83714564 8:-1.1523888 9:-0.26445614 10:0.65152393 11:-1.204713 12:-1.0808324 13:0.085266132 14:0.71077232 15:-0.82822243 16:1.1438497 17:1.0792198 18:-1.0181445 19:-0.19746417 
-0.5030748208725085 -1.292672907404813 1.035662294017548 0.7528982585674822 0.5898960380135777 0.9214395145825297 0.636469885709939 1:1.0005699 2:0.82292118 3:-0.0071887564 4:-0.0071887564 5:0.26488548 6:0.58704348 7:2.270348 8:-1.1890266 9:-0.16512596 10:0.85223106 11:-1.2238786 12:-1.2562141 13:0.23611968 14:1.0055786 15:-0.96698663 16:1.9380266 17:1.3414426 18:-0.94833198 19:-0.41069282 
-0 -9.960546524961421 0 0 0 0 0 1:0.043746767 2:0.53715045 3:0.28501031 4:0.28501031 5:-0.15260422 6:0.38585047 7:0.37232324 8:-1.1523888 9:-0.25675664 10:0.74346381 11:-1.1280504 12:-1.1977536 13:0.10909568 14:0.89265914 15:-0.89638117 16:0.55557049 17:0.44901141 18:-1.1879825 19:-0.22254989 
-0 -110.0667179941344 0 0 0.04764846705509506 0 0 1:0.014330453 2:0.30180985 3:0.29173684 4:0.29173684 5:-0.18078461 6:0.32586744 7:0.39169084 8:-1.1523888 9:-0.26446562 10:0.68932926 11:-1.2238786 12:-1.1198061 13:-0.22013025 14:0.75472441 15:-0.95020909 16:0.23201693 17:0.34007746 18:-1.1747826 19:0.27550624 
-0 -0 0 0 0 5.218902030127661 0 1:0.061594145 2:0.40267011 3:0.29068041 4:0.29068041 5:-0.14183962 6:0.42321271 7:0.77904284 8:-1.1523888 9:-0.27819179 10:0.66960687 11:-1.1472161 12:-1.139293 13:-0.065241912 14:0.73485245 15:-0.92224653 16:0.34967277 17:0.40005901 18:-1.1304898 19:0.13126333 
-0 -0 0 0 0 14.20336000575665 0 1:0.07346155 2:0.38586007 3:0.28901979 4:0.28901979 5:-0.14291264 6:0.43232811 7:0.77904284 8:-1.1340699 9:-0.28078367 10:0.64614618 11:-1.0897191 12:-1.1003193 13:0.17437521 14:0.74654184 15:-0.94601471 16:0.34967277 17:0.28226193 18:-1.0923569 19:0.1114038 
-0 -22.29862672950834 0 0 0 4.412097073273168 0 1:-0.018145292 2:0.48672032 3:0.29696822 4:0.29696822 5:-0.18185502 6:0.39325998 7:0.35295564 8:-1.1523888 9:-0.28587452 10:0.63434083 11:-1.0130566 12:-1.1003193 13:-0.11701266 14:0.75191895 15:-0.94321845 16:0.23201693 17:0.07768087 18:-1.0970502 19:0.026216863 
-0 -4.941254281038308 0 0 0 0 0 1:0.19893212 2:0.70525088 3:0.27327882 4:0.27327882 5:-0.075539282 6:0.46233611 7:0.72094004 8:-1.1707077 9:-0.27828335 10:0.72149955 11:-1.204713 12:-1.2562141 13:-0.19215077 14:0.80078058 15:-0.91735308 16:1.2026776 17:0.78696236 18:-1.1477963 19:0.16627882 
-0 -0 0 0 0 1.768003141273035 0 1:0.10107514 2:0.30180985 3:0.28928637 4:0.28928637 5:-0.13858705 6:0.35360755 7:0.62410204 8:-1.1707077 9:-0.279406 10:0.49613645 11:-1.1472161 12:-1.1977536 13:-0.049950383 14:0.54221141 15:-0.72266377 16:0.87912404 17:0.66842998 18:-1.0304643 19:0.11558475 
-0 -0 0 0 0 20.14443566577617 0 1:0.070189227 2:0.73887096 3:0.28944409 4:0.28944409 5:-0.1087651 6:0.55925778 7:0.52726404 8:-1.0974321 9:-0.28043737 10:0.6803756 11:-1.0897191 12:-1.1977536 13:-0.13326952 14:0.73999578 15:-0.91840168 16:0.55557049 17:0.27490818 18:-1.1228632 19:0.14641929 
-0 -0 0 0 0 14.2654900284412 0 1:-0.080327671 2:0.36905002 3:0.30093661 4:0.30093661 5:-0.16381809 6:0.44352703 7:0.062441645 8:-1.115751 9:-0.29034972 10:0.55349856 11:-1.1663817 12:-0.98339814 13:0.047041384 14:0.64577935 15:-0.8432523 16:0.40850069 17:0.29522169 18:-1.0445442 19:0.0068799514 
-0 -8.302256972802212 0 0 0 0 0 1:0.13748653 2:0.67163079 3:0.27142278 4:0.27142278 5:-0.10806103 6:0.44208954 7:0.43042604 8:-1.115751 9:-0.26126412 10:0.64083876 11:-0.95555966 12:-0.98339814 13:-0.087373026 14:0.76594621 15:-0.96139411 16:1.3203334 17:0.86799617 18:-1.0058246 19:-0.12272962 
-0 -0 0 0 0.066990015772118 5.809557279261927 0 1:0.18940526 2:0.38586007 3:0.26954908 4:0.26954908 5:-0.068643919 6:0.39329203 7:0.77904284 8:-1.1523888 9:-0.25016173 10:0.72550254 11:-1.1855474 12:-1.2172404 13:-0.1586894 14:0.79400074 15:-1.0424855 16:1.1438497 17:1.0573183 18:-1.0891303 19:0.26818957 
-0.3544331956025314 -8.658220376950395 0.6937910544234449 0.6240449611651175 0.216730092344019 0 0.4656747229064586 1:0.088116782 2:0.58758058 3:0.28826069 4:0.28826069 5:-0.058406679 6:0.42692668 7:0.60473444 8:-1.1523888 9:-0.28185569 10:0.78151472 11:-1.1855474 12:-1.0808324 13:-0.19245726 14:0.83982312 15:-1.0522724 16:1.1144357 17:1.215867 18:-1.1343031 19:0.17202763 
-0.08414514984380037 -0 0.1975679101833975 0.1145226219806325 0 0 0.02336554962426626 1:-0.069294047 2:0.36905002 3:0.3016954 4:0.3016954 5:-0.16739792 6:0.34372319 7:-0.034396354 8:-1.1707077 9:-0.29275009 10:0.66359723 11:-1.1663817 12:-1.1587798 13:-0.11241272 14:0.77506393 15:-0.99529872 16:0.908538 17:0.60327206 18:-1.087957 19:-0.0035724334 
-0 -28.69324346752675 0 0 0.04136306656777512 0 0 1:0.032972603 2:0.36905002 3:0.29263689 4:0.29263689 5:-0.18199222 6:0.25833313 7:0.41105844 8:-1.0607942 9:-0.28621607 10:0.6726869 11:-1.1663817 12:-1.0808324 13:-0.26268403 14:0.8173795 15:-1.0417865 16:0.58498445 17:0.51265117 18:-1.0923569 19:0.091021649 
-0.541051900924563 -7.481997951412331 1.499421523581175 0.8716907441180782 0.7436435667000992 5.865762256280372 0.6524173378797551 1:-0.12059233 2:0.70525088 3:0.30781434 4:0.30781434 5:-0.17035323 6:1.0301364 7:0.062441645 8:-0.36467567 9:-0.29376433 10:0.061062018 11:-0.41892171 12:-0.39879248 13:-0.26229098 14:-0.31345149 15:-0.47379699 16:0.99677988 17:1.7316405 18:-0.36577888 19:0.46364917 
-0.04419239084898137 -13.62916561623955 0.1086128852571526 0 14.00231031447621 19.41146647441494 0.656663145576235 1:-0.44738636 2:0.049659213 3:0.31031116 4:0.31031116 5:-0.29002556 6:0.092500981 7:-0.38301315 8:0.80773457 9:-0.30249959 10:-1.3284082 11:0.80767931 12:0.84836626 13:-0.32585932 14:-1.7334778 15:0.30880513 16:0.23201693 17:0.45440166 18:0.58196989 19:0.6737421 
-0.2370837792863726 -0 0.5186749560532065 0.3636396866036796 0.1136700145227746 0 0 1:-0.28082385 2:0.75568101 3:0.30921853 4:0.30921853 5:-0.086384764 6:0.79176673 7:-0.26680755 8:-1.1523888 9:-0.29549382 10:0.55955243 11:-0.87889709 12:-1.002885 13:0.84664874 14:0.36523414 15:-0.67967133 16:-0.091536624 17:-0.083304457 18:-1.1149433 19:0.7688588 
-0.3631141289424745 -4.418929185410084 0.6351416650870826 0.5535924970392148 0.11173773252495 0 0.1245355316704629 1:-0.30895299 2:0.90697139 3:0.30983029 4:0.30983029 5:0.072834414 6:1.2420376 7:-0.32491035 8:-0.85928624 9:-0.29859232 10:0.41588002 11:-0.93639402 12:-0.84699016 13:0.71169122 14:0.02951503 15:-0.56083046 16:0.46732861 17:0.88237194 18:-0.81457357 19:0.66851591 
-0.05857754101836979 -0 0.8714858961422465 0.1686664104692898 0 0 0 1:-0.34591149 2:0.90697139 3:0.31071216 4:0.31071216 5:-0.14069938 6:1.0470377 7:-0.13123435 8:0.29480509 9:-0.30018934 10:-0.50450515 11:0.27104137 12:0.40016858 13:-0.020797162 14:-1.1712185 15:-0.0029774054 16:0.49674257 17:1.2525275 18:0.17306807 19:0.66485757 
-0 -2.030797662062755 0 0 0 0 0 1:-0.24014194 2:0.82292118 3:0.30776843 4:0.30776843 5:-0.026130657 6:0.93570212 7:-0.16996955 8:-1.2073455 9:-0.28898049 10:0.65308423 11:-1.0897191 12:-0.96391129 13:0.93273015 14:0.48236176 15:-0.81109536 16:0.026119214 17:-0.053375348 18:-1.11465 19:0.53890634 
-0 -0 0 0 0.1480788240966075 0 0.1918024131864918 1:-0.082118735 2:0.77249105 3:0.29868807 4:0.29868807 5:-0.014613575 6:0.91195707 7:0.023706445 8:-1.2073455 9:-0.28484487 10:0.70603385 11:-0.95555966 12:-1.0418587 13:1.1480512 14:0.60697059 15:-0.91630449 16:0.14377505 17:0.059687584 18:-1.1099567 19:0.44169916 
-0 -18.31631078967256 0 0 0 29.63809890450333 0 1:-0.40545859 2:0.83973122 3:0.31072584 4:0.31072584 5:-0.14061812 6:0.95920561 7:-0.32491035 8:0.44135637 9:-0.30211495 10:-0.66276566 11:0.42436649 12:0.45862915 13:-0.006119756 14:-1.3355712 15:0.11446534 16:0.23201693 17:0.93667293 18:0.26488032 19:0.65545043 
-0 -0 0 0 0 9.317602547110598 0 1:-0.28958974 2:0.9910216 3:0.31094671 4:0.31094671 5:0.072790246 6:1.1753458 7:-0.11186675 8:-0.91424297 9:-0.30022898 10:0.4596505 11:-0.99389094 12:-0.92493758 13:0.47609376 14:0.11858814 15:-0.62444528 16:0.64381237 17:0.94532502 18:-0.85475976 19:0.54831348 
-0 -0 0 0 2.455816196900455 0 0 1:-0.36805612 2:0.70525088 3:0.31070986 4:0.31070986 5:-0.19249161 6:0.97650425 7:-0.32491035 8:0.25816727 9:-0.30116715 10:-0.53644581 11:0.23271008 12:0.32222116 13:-0.065259546 14:-1.1471384 15:0.0096057462 16:0.49674257 17:1.1455267 18:0.13610851 19:0.60998255 
-0 -0 0 0 0 38.59307491633658 0 1:-0.029678672 2:1.0078316 3:0.29943309 4:0.29943309 5:0.012735641 6:0.97401894 7:0.37232324 8:-1.1890266 9:-0.28267922 10:0.68545377 11:-1.0897191 12:-1.0808324 13:0.76063766 14:0.54361413 15:-0.83521307 16:0.34967277 17:0.13533085 18:-1.1032101 19:0.45528726 
-0 -0 0 0 0 46.04248218699235 0 1:0.014963985 2:0.95740152 3:0.29080896 4:0.29080896 5:0.0066571276 6:0.93312421 7:0.31422044 8:-1.2073455 9:-0.27199086 10:0.62915656 11:-1.1088848 12:-1.1003193 13:0.29607352 14:0.52210567 15:-0.77684123 16:0.17318901 17:0.10472747 18:-1.0709439 19:0.34815032 
-0.06193328571048801 -4.626889682981337 0 0.06089445953673068 0 2.282921203798628 0 1:-0.37542711 2:0.92378143 3:0.3106649 4:0.3106649 5:-0.13532258 6:1.2798169 7:-0.36364555 8:0.038340348 9:-0.30099721 10:-0.24162062 11:0.0027223922 12:0.029918333 13:-0.12666496 14:-0.8995572 15:-0.097351042 16:0.37908673 17:1.1797255 18:-0.080955589 19:0.62304804 
-0.01537194566428972 -0 0.04190004456625322 0.005209034792325284 0 9.088517671193859 0 1:-0.023532543 2:1.3272225 3:0.29629903 4:0.29629903 5:0.054640096 6:1.0908057 7:0.25611764 8:-1.1890266 9:-0.27212404 10:0.78683077 11:-1.1088848 12:-1.0613456 13:0.44625309 14:0.63315481 15:-0.87156439 16:-0.0032947455 17:-0.022795178 18:-1.1677427 19:0.39309557 
-0.3145591981943278 -0 0.6272671532483157 0.4945518397697775 0.3920853879971379 0 0.3638283524128072 1:0.058740568 2:1.3272225 3:0.28539492 4:0.28539492 5:0.053781058 6:1.0539098 7:0.23675004 8:-1.1890266 9:-0.25754815 10:0.71545908 11:-0.9747253 12:-1.2172404 13:0.77315457 14:0.62754391 15:-0.82962056 16:-0.1797785 17:-0.11955214 18:-1.1046768 19:0.26505386 
-0 -0 0 0 0 27.81286462162158 0 1:0.0057968129 2:1.1086919 3:0.29430332 4:0.29430332 5:0.085016105 6:1.110962 7:0.27548524 8:-1.0424753 9:-0.28468708 10:0.48508777 11:-1.1280504 12:-0.98339814 13:0.50953305 14:0.29533162 15:-0.7404899 16:0.52615653 17:0.75325458 18:-0.83217336 19:0.37846223 
-0.2118559388439787 -2.333589251391602 0.4318119469592408 0.3337152473634738 0.1500651089479548 0 0.2926369963014536 1:0.64454144 2:0.80611113 3:0.11756964 4:0.11756964 5:0.075255083 6:0.71304087 7:1.108292 8:-1.1523888 9:-0.057946348 10:0.61683825 11:-1.0322222 12:-1.1587798 13:0.36505226 14:0.76360834 15:-0.80270659 16:1.4379893 17:0.41370628 18:-0.7834806 19:-0.7822751 
-0 -7.878111086612262 0 0 0 55.69623703974293 0 1:0.35001396 2:1.0750718 3:0.22921004 4:0.22921004 5:0.11678373 6:1.0418243 7:0.52726404 8:-1.1890266 9:-0.23239311 10:0.64297057 11:-1.1280504 12:-1.2367273 13:0.4657654 14:0.63829814 15:-0.67372929 16:0.37908673 17:0.2245291 18:-0.95419858 19:-0.39501424 
-0.2901070247284029 -0 0.5988762540451088 0.4437170099430102 0.2314100287651739 7.208590565748329 0.3208809871651321 1:0.26226483 2:1.0750718 3:0.23497219 4:0.23497219 5:0.06608194 6:0.96385656 7:0.46916124 8:-1.2073455 9:-0.16498966 10:0.58284157 11:-1.0705535 12:-1.1977536 13:0.95300813 14:0.61678968 15:-0.68246759 16:0.26143089 17:0.22596246 18:-0.90961244 19:-0.43421069 
-0.1104180863499298 -7.181789517794486 1.162748948699511 0.242579287583534 0.4052712512355642 2.571274085092286 0 1:0.039867621 2:0.78930109 3:0.29808426 4:0.29808426 5:-0.18474259 6:1.0678052 7:0.17864724 8:-0.18148657 9:-0.27758059 10:-0.24119152 11:-0.2272653 12:-0.16495022 13:-0.26552725 14:-0.67558861 15:-0.178792 16:0.29084485 17:1.107009 18:-0.10471531 19:0.25930504 
-7.2011147490436 -0 0.7693045759730869 4.988866807291882 1.777836359534466 0 3.308807726303193 1:-0.50858391 2:-0.35378181 3:0.30956909 4:0.30956909 5:-0.37552495 6:-0.49577626 7:-0.51858635 8:0.99092367 9:-0.30273086 10:-1.7687339 11:0.99933572 12:1.0822085 13:-0.42430273 14:-1.916066 15:0.40737315 16:0.084947133 17:-0.16054598 18:0.71484832 19:0.69151116 
-0 -0 0 0 0 0.0554779417561883 0 1:0.2030834 2:1.1255019 3:0.25068159 4:0.25068159 5:0.10745742 6:1.0922069 7:0.44979364 8:-1.2073455 9:-0.23482192 10:0.74631326 11:-1.1663817 12:-1.2172404 13:0.53772715 14:0.70890202 15:-0.94776237 16:0.23201693 17:0.10372943 18:-1.027531 19:0.10251927 
-0 -38.10332959339998 0 0 0 0 0 1:-0.18677525 2:0.46991028 3:0.3049162 4:0.3049162 5:-0.20963018 6:0.39555908 7:0.0043388454 8:-1.1890266 9:-0.28936657 10:0.39044765 11:-0.89806274 12:-1.002885 13:0.12486347 14:0.38721018 15:-0.48638014 16:-0.23860642 17:-0.1754881 18:-1.0683039 19:0.077956168 
-0.1156895325934399 -0 0.238413668985437 0.1870721369566151 0 0 0 1:0.025079795 2:0.36905002 3:0.29978973 4:0.29978973 5:-0.2094619 6:0.29111955 7:0.87588084 8:-1.1707077 9:-0.28360207 10:0.39316468 11:-1.1663817 12:-1.0223719 13:-0.055909233 14:0.35120687 15:-0.43010549 16:-0.0032947455 17:0.023815205 18:-1.0991035 19:0.22638003 
-0 -0 0 0 0 0.676669557596386 0 1:-0.18268879 2:0.43629019 3:0.30567481 4:0.30567481 5:-0.1733934 6:0.44884215 7:-0.092499154 8:-1.2073455 9:-0.28954114 10:0.32368024 11:-0.93639402 12:-1.0418587 13:0.29157844 14:0.22963728 15:-0.35460658 16:0.52615653 17:0.30994897 18:-1.0325177 19:0.24571694 
-0 -234.5385865176262 0 0 0 0 0 1:-0.24565522 2:0.11689938 3:0.30866519 4:0.30866519 5:-0.25990296 6:0.19893918 7:-0.20870475 8:-1.1890266 9:-0.2977939 10:0.32198053 11:-1.0705535 12:-1.0223719 13:-0.10838286 14:0.2976695 15:-0.43185315 16:-0.062122665 17:-0.010745455 18:-1.0609706 19:0.16680144 
-0 -0 0 0 0.9818273300597844 0 0 1:-0.20724172 2:0.43629019 3:0.30986656 4:0.30986656 5:-0.23943868 6:0.80251228 7:0.043074045 8:0.313124 9:-0.29748493 10:-0.71713652 11:0.29020701 12:0.32222116 13:-0.073478256 14:-1.2345749 15:0.14033071 16:0.11436109 17:0.67854886 18:0.18685457 19:0.55510753 
-0 -17.54761820695173 0 0 0 0 0 1:-0.062014705 2:0.35223998 3:0.30271318 4:0.30271318 5:-0.23958968 6:0.25516516 7:0.062441645 8:-1.1523888 9:-0.28720949 10:0.15857314 11:-0.99389094 12:-0.76904273 13:-0.15296152 14:0.088663313 15:-0.21304613 16:0.055533174 17:0.12264193 18:-0.93073219 19:0.10617761 
-0 -152.3033314701804 0 0 0 0 0 1:-0.24949012 2:0.15051947 3:0.3090214 4:0.3090214 5:-0.29055927 6:0.034865743 7:-0.16996955 8:-1.1707077 9:-0.29734674 10:0.39858067 11:-1.0705535 12:-0.80801645 13:-0.28340663 14:0.35845429 15:-0.39899715 16:0.026119214 17:0.044658991 18:-1.1703827 19:0.18613835 
-0 -425.0346264194968 0 0 0 0 0 1:-0.28170686 2:0.25137973 3:0.30871946 4:0.30871946 5:-0.27286972 6:0.15823874 7:-0.36364555 8:-1.1707077 9:-0.29627235 10:0.31333071 11:-1.1472161 12:-1.0223719 13:-0.24221684 14:0.23080622 15:-0.33363467 16:-0.12095058 17:-0.081387306 18:-1.1005702 19:0.24414909 
-0.05134482314265223 -29.8640339336709 0.04816595770076233 0.08066760018163623 0 0 0.1664756016848293 1:-0.22830717 2:0.45310024 3:0.30924565 4:0.30924565 5:-0.25390987 6:0.16694735 7:-0.11186675 8:-1.1523888 9:-0.29654344 10:0.29695072 11:-0.89806274 12:-0.41827934 13:-0.31535736 14:0.24693757 15:-0.39864762 16:0.55557049 17:0.195967 18:-1.0521708 19:0.26818957 
-0 -110.593367602342 0 0 0 0 0 1:-0.21284523 2:0.33542994 3:0.30738689 4:0.30738689 5:-0.26638017 6:0.17938845 7:-0.24743995 8:-1.115751 9:-0.29523802 10:0.29277611 11:-0.93639402 12:-1.002885 13:-0.28131575 14:0.24506727 15:-0.37278225 16:-0.23860642 17:-0.19431663 18:-1.0636106 19:0.23526456 
-0 -18.14250398009611 0 0 0 0 0 1:-0.20483131 2:0.35223998 3:0.30761951 4:0.30761951 5:-0.26622935 6:0.12293205 7:-0.034396354 8:-1.0791132 9:-0.29431431 10:0.26683815 11:-1.1280504 12:-0.67160846 13:-0.18347458 14:0.23571576 15:-0.41682328 16:0.29084485 17:0.079958795 18:-1.0257711 19:0.26609909 
-0 -0 0.008744178981523909 0 0 0 0 1:-0.28345895 2:0.65482075 3:0.30899378 4:0.30899378 5:-0.26180431 6:0.2203771 7:-0.30554275 8:-1.0974321 9:-0.29623668 10:0.35843691 11:-1.0897191 12:-0.84699016 13:-0.23191983 14:0.30772237 15:-0.40563825 16:-0.20919246 17:-0.14819173 18:-1.1108367 19:0.19606812 
-0 -273.2221365783117 0 0 0 0 0 1:-0.28986892 2:0.33542994 3:0.30996287 4:0.30996287 5:-0.27248676 6:0.16167732 7:-0.28617515 8:-1.1340699 9:-0.29843604 10:0.33769507 11:-0.9747253 12:-0.88596387 13:-0.20653179 14:0.30421555 15:-0.41822141 16:-0.091536624 17:-0.020252534 18:-1.091477 19:0.18822883 
-0 -0 0 0 0 2.993877192196526 0 1:-0.17024858 2:0.78930109 3:0.30618943 4:0.30618943 5:-0.19971581 6:0.34400054 7:-0.20870475 8:-1.1523888 9:-0.29346203 10:0.45877912 11:-1.204713 12:-1.1198061 13:-0.27711399 14:0.37668973 15:-0.43849426 16:0.29084485 17:0.29928477 18:-1.1612895 19:0.24885266 
-0 -49.13009046347536 0 0 0 0 0 1:-0.0017125959 2:0.53715045 3:0.29325767 4:0.29325767 5:-0.22613488 6:0.12988373 7:0.31422044 8:-1.0791132 9:-0.28078436 10:0.38196034 11:-1.2238786 12:-1.1782667 13:-0.24772664 14:0.33016598 15:-0.32070198 16:0.26143089 17:0.36523183 18:-1.1313698 19:0.16418834 
-0 -186.7058158974428 0 0 0 0 0 1:-0.18190761 2:0.2009496 3:0.30677559 4:0.30677559 5:-0.26766063 6:0.090427381 7:-0.053763954 8:-1.1340699 9:-0.29446832 10:0.27023323 11:-1.0130566 12:-1.1198061 13:-0.3226562 14:0.20134897 15:-0.3504122 16:0.29084485 17:0.1826682 18:-1.0536374 19:0.31731578 
-0 -0 0 0 0.5422924888452794 0 0 1:-0.23507662 2:-0.017580958 3:0.3087695 4:0.3087695 5:-0.30255714 6:-0.054134153 7:-0.15060195 8:-1.1523888 9:-0.29648156 10:0.35317513 11:-1.0130566 12:-1.1198061 13:-0.33954208 14:0.33063356 15:-0.41472609 16:0.20260297 17:0.11441217 18:-1.1310765 19:0.21435979 
-0 -65.60345434009606 0 0 0 0 0 1:-0.29932603 2:0.35223998 3:0.30987899 4:0.30987899 5:-0.29521155 6:0.054130068 7:-0.28617515 8:-1.1523888 9:-0.29927454 10:0.36023162 11:-1.0705535 12:-0.74955588 13:-0.34602297 14:0.34536218 15:-0.43360081 16:-0.062122665 17:-0.020788873 18:-1.1216899 19:0.15948477 
-0 -200.1568036809862 0 0 0 0 0 1:-0.34370869 2:0.049659213 3:0.31023311 4:0.31023311 5:-0.29400335 6:0.078361359 7:-0.30554275 8:-1.115751 9:-0.29948527 10:0.26267789 11:-1.0322222 12:-0.74955588 13:-0.26938685 14:0.23665091 15:-0.43744567 16:-0.032708705 17:-0.098006934 18:-1.0342776 19:0.26714433 
-0 -157.9446506652792 0 0 0 0 0 1:-0.24759311 2:0.13370943 3:0.308816 4:0.308816 5:-0.27948348 6:0.061357056 7:-0.16996955 8:-1.0974321 9:-0.29727023 10:0.26711208 11:-1.1280504 12:-0.76904273 13:-0.12745938 14:0.22472774 15:-0.3668402 16:-0.091536624 17:0.13348868 18:-1.0480641 19:0.21592765 
-0 -51.23120886649016 0 0 0 0 0 1:-0.26613006 2:0.63801071 3:0.30909514 4:0.30909514 5:-0.28248202 6:0.070086473 7:-0.16996955 8:-1.0241564 9:-0.29581861 10:0.22402906 11:-1.0705535 12:-0.84699016 13:-0.30286088 14:0.17960672 15:-0.35530565 16:-0.0032947455 17:0.071016252 18:-1.0134512 19:0.23787766 
-0.3871539171727245 -21.9602768772422 0.4482241320533603 0.579217198077455 10.55055712983558 0 4.529429623196319 1:-0.2700892 2:0.33542994 3:0.31033066 4:0.31033066 5:-0.29525362 6:0.91345347 7:-0.42174835 8:-0.089892021 9:-0.29923105 10:-0.44368928 11:-0.13143709 12:-0.10648965 13:-0.22582734 14:-0.87828252 15:0.021140302 16:-0.0032947455 17:0.6175957 18:-0.12906169 19:0.44535749 
-0 -28.31350599397536 0 0 0 14.57343703827314 0 1:0.025471163 2:0.83973122 3:0.2940208 4:0.2940208 5:-0.19364723 6:0.26633652 7:0.25611764 8:-1.1523888 9:-0.27787912 10:0.37903552 11:-1.1280504 12:-1.0418587 13:-0.25178917 14:0.3734167 15:-0.46156337 16:0.67322633 17:0.4210504 18:-1.0463042 19:0.063845449 
-1.884390430458197 -9.245121078090199 0.7754206425074517 0.2987129529355997 2.724042331303385 5.205783870523953 0.435462450446378 1:-0.2583204 2:-0.017580958 3:0.30969106 4:0.30969106 5:-0.32841542 6:-0.059305321 7:-0.18933715 8:0.91764803 9:-0.29911431 10:-1.5141947 11:0.92267316 12:0.96528739 13:-0.38749249 14:-1.8300322 15:0.40562549 16:-0.35626226 17:-0.35216387 18:0.64503581 19:0.61886708 
-0.1790562785064818 -0.3040289375918224 -0.210513013885783 0.3096599634730667 0.2228002993337839 0.2499735509088354 0.2295936011664689 1:3.0188943 2:2.8065062 3:-2.7936587 4:-2.7936587 5:4.364543 6:3.3718363 7:3.5679772 8:-1.2073455 9:2.1555184 10:2.6798339 11:-1.3197068 12:-1.275701 13:3.9021341 14:2.8793868 15:0.55697284 16:3.9675898 17:5.1402677 18:-1.1950224 19:-1.0691931 
-0.2466228597239722 -0.4186136024129917 -0.2896613673012852 0.4277158044185889 0.307334224996505 0.3441671581792984 0.3170447423413598 1:3.1215602 2:3.2267573 3:-2.823316 4:-2.823316 5:4.7874554 6:3.5842902 7:3.3936688 8:-1.1707077 9:1.7447899 10:2.8914172 11:-1.3197068 12:-1.3146747 13:2.5425831 14:3.0582344 15:0.57095412 16:6.5854322 17:5.7584391 18:-1.0724105 19:-1.5651587 
-0.2533890599314194 -0.4294555482529812 -0.2969554235926932 0.43815480053933 0.3148150560557211 0.3527176073460316 0.324952743720746 1:3.1052434 2:3.2267573 3:-2.9533511 4:-2.9533511 5:5.5533987 6:3.9146694 7:3.2193604 8:-1.1707077 9:2.3434451 10:3.0910725 11:-1.2813756 12:-1.3146747 13:5.8169608 14:3.2618635 15:0.71216504 16:6.6736741 17:6.4932964 18:-0.71102813 19:-2.2032768 
-0.2547004199677589 -0.4327504822540777 -0.2997493081872557 0.4420832923796413 0.317602876000309 0.3557496311382691 0.3276401279074186 1:2.9459147 2:3.1595171 3:-2.4651398 4:-2.4651398 5:5.3280807 6:3.803779 7:3.1806252 8:-1.2073455 9:1.4298876 10:2.8392623 11:-1.2813756 12:-1.3146747 13:8.004341 14:2.9088441 15:0.80059663 16:6.6442601 17:6.6532466 18:-0.19946085 19:-2.0825518 
-0.2020322147731946 -0.3423853973706216 -0.237343269865435 0.3499910345115848 0.2516244807721988 0.281642982185592 0.2592813135753416 1:2.7995691 2:3.0754669 3:-2.0722313 4:-2.0722313 5:4.270339 6:3.1803129 7:2.6383324 8:-1.2073455 9:0.69466905 10:2.3469979 11:-1.3197068 12:-1.2951878 13:4.6098145 14:2.3348953 15:0.62373345 16:5.3500459 17:5.8503024 18:-0.024636256 19:-1.9053838 
-0.1665395274735368 -0.2821698981657693 -0.1949267077325934 0.2874770442770374 0.2068239485568825 0.2320210418961892 0.2135046754063445 1:2.7523609 2:2.9914167 3:-2.0554616 4:-2.0554616 5:3.6078275 6:2.9242583 7:2.464024 8:-1.2073455 9:0.62235549 10:2.1182716 11:-1.3197068 12:-1.2951878 13:3.5673239 14:2.0852101 15:0.45560856 16:4.7617667 17:4.7542618 18:-0.010263093 19:-2.0632149 
-0.1628906935681352 -0.2757031113772979 -0.1913843550707895 0.2825027982247718 0.2028436848537568 0.2272610935920861 0.2092891943476519 1:2.6353525 2:2.722456 3:-1.877852 4:-1.877852 5:3.4286723 6:2.6594016 7:2.8126408 8:-1.1523888 9:1.3458957 10:2.0233602 11:-1.3197068 12:-1.2951878 13:2.6306271 14:2.0155414 15:0.4713375 16:6.2324647 17:5.2141193 18:0.031976407 19:-2.0041589 
-0.1309986873392763 -0.2229313310365179 -0.1535287053270446 0.2273425127981633 0.1630762395017885 0.1826575456306674 0.168171817134708 1:2.8310299 2:2.722456 3:-2.2164221 4:-2.2164221 5:3.6961711 6:2.6979725 7:2.9288464 8:-1.1523888 9:1.1357503 10:2.307793 11:-1.3005412 12:-1.3146747 13:2.5833044 14:2.3881989 15:0.47832814 16:6.2324647 17:5.6272475 18:-0.60396273 19:-1.7647993 
-0.1407454953223564 -0.2386717476043054 -0.1653493943135334 0.2441550037095122 0.1750061977233551 0.1964174523324778 0.1808703105685121 1:3.1653027 2:2.6552158 3:-2.9480847 4:-2.9480847 5:4.2313373 6:3.1794297 7:3.2580956 8:-1.2073455 9:2.8796173 10:2.8140356 11:-1.3005412 12:-1.3146747 13:4.7805856 14:2.8838288 15:0.31334904 16:4.7911807 17:5.35986 18:-1.2528084 19:-1.5860635 
-0.2238163243269523 -0.3794686220430169 -0.2626921399680189 0.3876269446690053 0.2786657009774561 0.3120341789010792 0.2875361724610168 1:2.9973153 2:3.3108075 3:-2.161112 4:-2.161112 5:3.7533567 6:4.0595439 7:3.5679772 8:-1.2073455 9:0.78014633 10:2.3672719 11:-1.2622099 12:-1.2951878 13:3.9074521 14:2.2182353 15:-0.030939964 16:4.7323528 17:4.4496524 18:-0.11175522 19:-0.48020118 
-0.2536647158863002 -0.4295511799524592 -0.2976851014744134 0.439300746469294 0.3154741527130829 0.3534690018578253 0.3255668154692719 1:2.8472966 2:3.3108075 3:-1.6633642 4:-1.6633642 5:3.282521 6:3.4163613 7:3.5679772 8:-1.2073455 9:0.46868863 10:1.9184339 11:-1.2622099 12:-1.2951878 13:1.9194225 14:1.8020932 15:0.029878601 16:3.7028642 17:3.8781016 18:0.55586354 19:-0.94428707 
-0.1153662192311819 -0.1948657428514345 -0.1351400079442852 0.199182288258921 0.1430265445361902 0.1605365342074956 0.1480879746175701 1:3.0462782 2:3.0250368 3:-2.926466 4:-2.926466 5:4.2336336 6:3.310606 7:2.948214 8:-1.2073455 9:2.1831764 10:2.5038949 11:-1.3197068 12:-1.2951878 13:5.1593487 14:2.5700857 15:0.15466152 16:4.0558317 17:4.7712416 18:-0.31033954 19:-2.252403 
-0.1645910242206338 -0.2797526674355162 -0.1933592533893102 0.2859637649246871 0.2053362431510942 0.229946299280466 0.211486617373701 1:3.101983 2:3.125897 3:-2.6616905 4:-2.6616905 5:4.1540323 6:3.413859 7:3.4905068 8:-1.2256644 9:0.94011011 10:2.4751152 11:-1.2813756 12:-1.3146747 13:5.1271905 14:2.4847532 15:0.040015029 16:4.1734875 17:4.3498027 18:-0.32852599 19:-2.057466 
-0.1750636600051298 -0.2965388935737278 -0.2051295558707948 0.3027586226982697 0.2175895035423587 0.2439144672208055 0.2243182818966513 1:3.4123203 2:3.125897 3:-3.6838954 4:-3.6838954 5:4.7392176 6:3.454689 7:3.4905068 8:-1.2256644 9:3.4156457 10:2.7582203 11:-1.2813756 12:-1.2951878 13:4.1654014 14:2.82959 15:-0.013812897 16:4.7029388 17:4.7672336 18:-0.70750817 19:-1.9231529 
-0.1183088015345092 -0.2004493146250392 -0.1390207571981159 0.2052222190357229 0.1476310470462453 0.165040728170935 0.1518795672120934 1:3.2778934 2:2.9577966 3:-3.4180132 4:-3.4180132 5:4.013042 6:3.1600571 7:3.4711392 8:-1.2256644 9:3.2500612 10:2.4755926 11:-1.3005412 12:-1.2951878 13:4.2999691 14:2.4688557 15:-0.034784816 16:4.2617294 17:3.8769948 18:-0.32705934 19:-2.3234792 
-0.2106021771647974 -0.3571089721782098 -0.2471451801391315 0.3647170850541805 0.2620699310800956 0.2933423576206171 0.2705651279331182 1:3.2369221 2:2.9577966 3:-3.3514302 4:-3.3514302 5:3.7034752 6:3.1762317 7:3.5873448 8:-1.2256644 9:3.2304889 10:2.2796273 11:-1.3005412 12:-1.2951878 13:4.9505496 14:2.1756859 15:-0.26547593 16:2.5557197 17:2.5465358 18:0.079495844 19:-2.3548364 
-0.1959648356483013 -0.3324171359803135 -0.2297669758395075 0.3392331892133434 0.2441086551105955 0.2730395611607702 0.2516362492849124 1:3.2528434 2:2.7560761 3:-3.0772566 4:-3.0772566 5:3.7585183 6:3.1320076 7:3.5873448 8:-1.2256644 9:1.9255225 10:2.2433483 11:-1.2238786 12:-1.2367273 13:3.8289193 14:2.0770275 15:-0.11867249 16:4.3499713 17:2.9665201 18:-0.16484793 19:-1.995797 
-0.1799429985173852 -0.3050276592538945 -0.2106208232521458 0.3115893762220753 0.2242454695701271 0.25079272246438 0.2308871904829719 1:2.179843 2:2.5543556 3:-1.0402245 4:-1.0402245 5:1.7787959 6:2.0274533 7:3.5486096 8:-1.0974321 9:0.34420291 10:1.1203656 11:-1.1855474 12:-1.1782667 13:1.0734558 14:0.6827178 15:0.1588559 16:4.1440736 17:2.256944 18:-0.024342926 19:-1.3566336 
-0.1364268406561076 -0.2322640860615572 -0.1603599492126172 0.2375847358355834 0.170760251986408 0.1909257358620044 0.1753310493855233 1:2.7249594 2:1.7979037 3:-2.4690472 4:-2.4690472 5:1.9809312 6:1.4666523 7:2.3478184 8:-1.115751 9:2.9474367 10:1.2919952 11:-1.3005412 12:-1.2951878 13:1.3190355 14:0.97588755 15:-0.18997702 16:2.8498593 17:2.6296504 18:0.56378344 19:-1.855735 
-0.1075728418977741 -0.1814400039611534 -0.1260943488297255 0.1858994919061291 0.1329524973227051 0.1496794835142079 0.1376235769965774 1:2.6958909 2:2.4366853 3:-2.0695953 4:-2.0695953 5:1.9685343 6:1.4862042 7:2.2509804 8:-1.1707077 9:1.2793752 10:1.4159265 11:-1.3005412 12:-1.2951878 13:0.75394831 14:1.0710391 15:-0.37243272 16:3.2616548 17:2.6831085 18:0.51274405 19:-2.1196577 
-0.05925208381540874 -0.09950243227566065 -0.06826082038463527 0.1023644342854438 0.07372103256359276 0.08185037066112551 0.07675051564198657 1:2.3430541 2:1.7474735 3:-1.6618407 4:-1.6618407 5:1.2845261 6:0.9720421 7:2.0960396 8:-1.1340699 9:1.8449376 10:1.152541 11:-1.2813756 12:-1.275701 13:-0.15824966 14:0.81036587 15:-0.52482866 16:2.5851337 17:2.0406887 18:0.5810899 19:-2.2147744 
-0.07151896161034106 -0.1243685106874184 -0.08558930412707083 0.1264715269419761 0.08872825385527827 0.1010059486434462 0.09202725308836006 1:2.2253169 2:1.4617028 3:-1.377561 4:-1.377561 5:1.1199466 6:0.88635458 7:1.9992016 8:-1.1707077 9:1.1179633 10:1.059721 11:-1.3005412 12:-1.275701 13:0.074053594 14:0.7016546 15:-0.59997804 16:1.7615428 17:1.5724916 18:0.81722044 19:-2.1964828 
-0.03319874809005998 -0.05646645796705755 -0.03763244116193937 0.05775737702052291 0.04096952505806591 0.04602330451811143 0.04166310442207693 1:2.3576812 2:1.915574 3:-1.5786892 4:-1.5786892 5:1.2685431 6:0.94603911 7:2.2316128 8:-1.1523888 9:1.0122204 10:1.107149 11:-1.3005412 12:-1.275701 13:0.22530856 14:0.73485245 15:-0.53251837 16:2.9381012 17:1.7263005 18:0.49602424 19:-2.1379494 
-0.01320771750205002 -0.01819107552944659 -0.01175131455773663 0.01823682033851508 0.01588412692349865 0.01502802422535765 0.01652145395795625 1:2.4028083 2:1.3440325 3:-1.6670229 4:-1.6670229 5:1.2586298 6:0.95737122 7:2.2316128 8:-1.1523888 9:1.1099228 10:1.0329511 11:-1.2813756 12:-1.275701 13:0.39790356 14:0.61842619 15:-0.2476498 16:1.5850591 17:1.3783107 18:0.51949063 19:-2.1447435 
-0.07612219507817779 -0.1318271883463965 -0.0915773561255931 0.1354618513948227 0.09546199753130946 0.1082039632366519 0.09818646676275267 1:2.4508143 2:1.0918819 3:-1.7984603 4:-1.7984603 5:1.3270122 6:0.96422735 7:2.2316128 8:-1.1890266 9:1.859072 10:1.0213041 11:-1.2622099 12:-1.275701 13:0.77036777 14:0.63385618 15:-0.22562928 16:1.3791614 17:1.5223901 18:0.56349011 19:-2.0480589 
-0.0636617230367202 -0.1070368458336228 -0.07418090797355957 0.1084935831309176 0.07824510555384265 0.08760916580287451 0.08142844968010246 1:2.4533645 2:1.0918819 3:-1.995954 4:-1.995954 5:1.353479 6:0.97289043 7:2.2316128 8:-1.1523888 9:2.4647555 10:1.0978981 11:-1.2430443 12:-1.2951878 13:0.78922122 14:0.81504163 15:-0.50280815 16:2.349822 17:1.7500301 18:0.56965004 19:-2.0203601 
-0.09797379859065895 -0.1673280024957488 -0.1216723229517494 0.1703271112087051 0.123031650121226 0.1397820119656206 0.1265766731486696 1:2.1342873 2:1.8147137 3:-1.194185 4:-1.194185 5:1.1021093 6:1.3479864 7:2.17351 8:-1.1523888 9:1.2971271 10:0.94054525 11:-1.2238786 12:-1.2562141 13:0.25238448 14:0.71568186 15:-0.58215191 16:2.349822 17:1.4449897 18:0.122322 19:-1.4324134 
-0.2177223519057809 -0.3696252596387838 -0.2554583834488425 0.377498556426856 0.2713644065653909 0.3040693322836696 0.2798936522355051 1:2.9524338 2:2.9914167 3:-2.5906642 4:-2.5906642 5:2.8751244 6:2.7709889 7:3.2774632 8:-1.2073455 9:1.7331674 10:1.8429601 11:-1.3005412 12:-1.3146747 13:4.8810774 14:1.6711721 15:-0.35390752 16:2.379236 17:1.7299644 18:0.70399511 19:-2.1395173 
-0.1532312655463207 -0.2608482973385082 -0.1801639096512212 0.2661312980415658 0.1913501027049873 0.2137430778673525 0.197228067274194 1:2.639231 2:1.9996242 3:-1.9002672 4:-1.9002672 5:2.0537462 6:1.7770843 7:2.9094788 8:-1.2073455 9:1.2108147 10:1.26603 11:-1.3005412 12:-1.3146747 13:2.2059804 14:1.0661296 15:0.014149662 16:3.2910687 17:2.6066691 18:0.8993528 19:-1.7125373 
-0.2053236091729697 -0.3534659985689447 -0.2419077890370805 0.3562307249739871 0.2556069378198789 0.2866385546807688 0.2639847980421219 1:2.1562249 2:1.6970434 3:-1.0334252 4:-1.0334252 5:1.2520524 6:1.1276386 7:2.9094788 8:-0.69441605 9:0.66657992 10:0.63617692 11:-0.76390325 12:-0.74955588 13:0.25660368 14:0.15879962 15:0.23959779 16:2.9086873 17:2.3792903 18:0.88028636 19:-1.1099574 
-0.1939723429708105 -0.3914798423690087 -0.2262874237795834 0.3536495647828268 0.2356723473671876 0.2691156066363304 0.247349234879405 1:1.203357 2:1.0078316 3:0.0054217887 4:0.0054217887 5:0.13175818 6:0.3294147 7:2.560862 8:0.47799419 9:-0.1249362 10:-0.49257164 11:0.46269778 12:0.49760286 13:-0.28241626 14:-1.2348087 15:0.32558266 16:1.614473 17:0.90061784 18:0.84127349 19:-0.0020045757 
-0.1524725049746262 -0.2586323317116523 -0.1785675372777515 0.2647014531709732 0.1897553413572643 0.2127021431879341 0.1959274915880326 1:1.9068478 2:2.6720259 3:-0.8229697 4:-0.8229697 5:1.4323246 6:1.805267 7:3.0063168 8:-1.0424753 9:0.65909101 10:1.1190169 11:-1.1663817 12:-1.1977536 13:1.636625 14:0.88658066 15:-0.29169083 16:3.6146223 17:2.8923262 18:0.31533305 19:-1.7783874 
-0.209068032839902 -0.3543178995168483 -0.2451382615262008 0.3620064862375986 0.2595062848140937 0.2911740863715654 0.2680414995826917 1:2.7051869 2:2.705646 3:-2.4023899 4:-2.4023899 5:2.3102458 6:2.170554 7:3.1031548 8:-1.2073455 9:2.9093729 10:1.7671371 11:-1.3197068 12:-1.3341615 13:4.2401686 14:1.6227781 15:-0.89008959 16:3.3204827 17:2.4089457 18:0.81106051 19:-2.2555387 
-0.1103533376297558 -0.186887246156971 -0.1296995310328528 0.1914369306742487 0.137634435972066 0.1531394182265938 0.1422761750343773 1:2.7363971 2:2.2685848 3:-2.1358716 4:-2.1358716 5:1.8393493 6:1.5926916 7:3.1031548 8:-1.2073455 9:1.2600516 10:1.5767629 11:-1.2622099 12:-1.3341615 13:2.0956766 14:1.4490738 15:-0.90476993 16:1.0850218 17:1.2509591 18:1.0659642 19:-2.3119816 
-0.1241350288533877 -0.2107355957887499 -0.1457737865734971 0.2150943547152795 0.154844154037162 0.1733449312964526 0.1596312343288967 1:2.4038537 2:1.2431722 3:-1.9404177 4:-1.9404177 5:1.2951862 6:1.0695381 7:2.9288464 8:-1.2073455 9:2.5195217 10:1.2394537 11:-1.2622099 12:-1.3341615 13:0.60279423 14:1.0953531 15:-0.73419832 16:1.5556451 17:1.3111873 18:1.0119915 19:-2.2706947 
-0.02117343892027697 -0.03558938672389127 -0.02464386022099335 0.03640377092023201 0.02622643348020902 0.03002467423158008 0.02681516026980767 1:2.1978815 2:1.2936024 3:-1.3216871 4:-1.3216871 5:1.1890467 6:1.1324835 7:2.8320084 8:-1.1890266 9:1.2502698 10:1.1721323 11:-1.2622099 12:-1.3341615 13:0.71143948 14:1.0219437 15:-0.67093303 16:1.7909568 17:1.5294925 18:0.7893541 19:-2.3250471 
-0.01558043022643811 -0.02555070549525455 -0.01691855277688787 0.02678659037743326 0.0193010192508176 0.02037689423900096 0.02018369210837761 1:2.2054717 2:1.7642836 3:-1.3644876 4:-1.3644876 5:1.2208369 6:1.21653 7:2.464024 8:-1.1890266 9:1.3837299 10:1.3112878 11:-1.2430443 12:-1.3146747 13:0.68385985 14:1.202194 15:-0.88484661 16:1.7909568 17:1.3526147 18:0.61804947 19:-2.4604055 
-0.1748507800515126 -0.2961057974277271 -0.2047709157481123 0.3022503200427121 0.2171058996716561 0.2434412790922201 0.2240837285853946 1:2.8188764 2:3.0418468 3:-2.3742923 4:-2.3742923 5:2.0514203 6:1.8770209 7:2.9288464 8:-1.2256644 9:2.3241994 10:1.5159776 11:-1.3005412 12:-1.2951878 13:3.0191092 14:1.3102039 15:-0.57935565 16:1.0261938 17:0.97810258 18:0.6743688 19:-2.1896887 
-0.1562239205311903 -0.2648855029563555 -0.183283184300883 0.2706211401641717 0.1944752495161305 0.2179105911992063 0.2007389243578274 1:2.9110043 2:3.0418468 3:-2.4519474 4:-2.4519474 5:2.248941 6:1.8448196 7:2.9869492 8:-1.2073455 9:1.9902893 10:1.5826031 11:-1.3005412 12:-1.3146747 13:2.3933777 14:1.399277 15:-0.62968826 16:3.4969665 17:2.0554985 18:0.73244811 19:-2.0522399 
-0.1944502445523193 -0.3295420580762519 -0.2283918244237405 0.3367625100127872 0.2420936889133027 0.2704134401103984 0.2498197094852576 1:2.2986801 2:1.915574 3:-1.5398746 4:-1.5398746 5:1.4507845 6:1.1683413 7:2.9869492 8:-1.1523888 9:1.7483158 10:1.4470217 11:-1.3005412 12:-1.3146747 13:0.55141296 14:1.358598 15:-1.1802011 16:4.4087992 17:2.8972697 18:0.83130027 19:-2.0856875 
-0.236798336700226 -0.4018424772591651 -0.2802410738755799 0.4112693735219074 0.2946354421016135 0.3301749308699905 0.3041525880616514 1:1.7588562 2:1.1927421 3:-0.67098925 4:-0.67098925 5:0.90970279 6:0.71556908 7:2.5221268 8:-1.1523888 9:0.42791751 10:1.5287111 11:-1.3005412 12:-1.3146747 13:0.22197838 14:1.4661403 15:-1.8159998 16:2.5557197 17:2.6336216 18:0.83423357 19:-2.2335887 
-0.1117119943718099 -0.1899045411216363 -0.1315413104749763 0.1941323674241368 0.1395087443922126 0.1566000982712453 0.1438679166396818 1:2.2834272 2:1.9828141 3:-1.5547383 4:-1.5547383 5:1.5319607 6:1.4089718 7:2.851376 8:-1.1707077 9:1.7946119 10:1.6336988 11:-1.3005412 12:-1.3146747 13:0.80968591 14:1.5437578 15:-1.430466 16:2.8792733 17:2.7468557 18:0.63740924 19:-2.2053673 
-0.1628534946783898 -0.276290431613112 -0.1905793515458124 0.2816224928555856 0.2023050006995534 0.2268497483252172 0.2089546650876721 1:2.9693864 2:2.2685848 3:-3.0180176 4:-3.0180176 5:2.2633566 6:1.9070481 7:3.5873448 8:-1.2073455 9:3.5162402 10:1.5324191 11:-1.2813756 12:-1.3341615 13:1.1166932 14:1.3071647 15:-0.26477686 16:1.8791987 17:1.606393 18:0.46375796 19:-2.0773256 
-0.1340138705293761 -0.2266062237211751 -0.1571773391341946 0.2314508901895099 0.16636569040157 0.1865541409440266 0.1720390406087683 1:2.8179377 2:2.3022049 3:-2.451452 4:-2.451452 5:2.2369816 6:1.7705522 7:3.5873448 8:-1.2256644 9:2.6843567 10:1.4185267 11:-1.3197068 12:-1.3341615 13:1.1214246 14:1.2101428 15:0.05958882 16:2.8204454 17:2.7268904 18:0.67700877 19:-1.9508517 
-0.09861339623197887 -0.1675897532222007 -0.1155261360376743 0.1704848191946591 0.1222918976249851 0.138023150174844 0.126258951882304 1:2.6736054 2:2.0836744 3:-1.909461 4:-1.909461 5:1.7070221 6:1.5325228 7:2.7739056 8:-1.2073455 9:1.0005615 10:1.4123865 11:-1.3005412 12:-1.2951878 13:1.6833752 14:1.2276769 15:-0.64087328 16:1.3791614 17:1.0613979 18:0.43589162 19:-2.2398602 
-0.0765811341844197 -0.1299765805622322 -0.09012793224118058 0.1324720638875126 0.09563790873365902 0.1073525679391362 0.09839522141530767 1:2.8166598 2:2.335825 3:-2.6637266 4:-2.6637266 5:1.9755575 6:1.7897921 7:3.0063168 8:-1.2073455 9:3.1689139 10:1.6261531 11:-1.2622099 12:-1.2951878 13:1.201555 14:1.4623997 15:-0.9316839 16:0.82029612 17:0.83890637 18:0.54559699 19:-2.2753983 
-0.1013027315722212 -0.1709717016235891 -0.1179091326315251 0.174772637409567 0.124815217520571 0.1398560482737568 0.129291096562632 1:2.8294698 2:2.335825 3:-2.4880291 4:-2.4880291 5:1.8985081 6:1.6437932 7:3.4517716 8:-1.1890266 9:2.6159053 10:1.5081864 11:-1.1663817 12:-1.2951878 13:0.91665008 14:1.2533935 15:-0.8170374 16:0.82029612 17:0.84254516 18:0.58431653 19:-2.1478792 
-0.2410696731542721 -0.4156879438372972 -0.3030406996091193 0.4181555147305717 0.3001809619725792 0.3503689692620542 0.309762290030726 1:2.0921508 2:1.9996242 3:-0.78465245 4:-0.78465245 5:0.82791087 6:1.2887969 7:3.4517716 8:-1.1523888 9:0.35368818 10:0.78864414 11:-1.1663817 12:-1.2367273 13:-0.099762119 14:0.50106478 15:-0.38571493 16:0.84971008 17:1.210337 18:0.0076300287 19:-1.1580383 
