svm_type c_svc
kernel_type rbf
gamma 0.03125
nr_class 8
total_sv 637
rho 1.09952 0.930898 0.24293 -0.364131 0.00606211 1.50822 -13.7162 -24.1773 -1.86354 0.412112 -3.64043 -13.639 -1.49489 -1.30109 1.4124 -1.16498 -1.19175 -3.14073 -0.0904315 -0.472823 -0.569946 -0.261085 0.482925 -1.74527 3.79227 0.154486 2.13353 -0.849488
label 2 4 6 5 1 3 7 8
probA -1.53168 -3.42753 -4.78372 -1.61672 -2.81203 -2.39012 -1.20171 -1.47954 -2.27102 -2.22487 -1.26416 -1.43223 -1.81621 -2.56103 -2.88269 -1.42494 -1.59968 -2.34749 -4.78431 -3.30185 -3.2361 -4.50039 -3.23795 -2.14005 -1.50045 -1.15624 -2.37201 -2.49584
probB 0.101272 -0.83052 0.102057 -0.228753 0.0322159 -0.589091 -0.0312395 0.0440035 0.295277 -0.250652 -0.598259 -0.231208 0.0624617 0.403204 0.619684 0.168921 -0.0476384 0.127116 -0.218557 0.279827 -0.917108 -0.347914 -0.0627086 0.0209052 0.0641816 -0.181533 0.0505316 0.580986
nr_sv 93 129 121 23 81 29 64 97
SV
0 0 0 307.1579136730336 0 0 1024 0:-0.41219389 1:-0.52188333 2:0.31068339 3:0.38467615 4:-0.38119228 5:-0.62252225 6:-0.34427861 7:0.78941497 8:-0.71120336 9:-1.1260192 10:0.75018159 11:0.84836681 12:-0.389896 13:-1.0512859 14:1.1193695 15:0.17318921 16:-0.24396267 17:0.69549079 18:-0.20530213 
0 0 0 0 0 0 1024 0:-0.30008272 1:-0.48826322 2:0.31046327 3:0.38409895 4:-0.37096783 5:-0.51748785 6:-0.26680818 7:-0.38299529 8:-0.77740923 9:-1.1119713 10:-0.47641955 11:-0.39879298 12:-0.51933494 13:-1.0290761 14:1.1557208 15:0.17318921 16:-0.14499065 17:0.66322446 18:-0.10234586 
0 0 0 0 0 0 1024 0:-0.29165287 1:-0.52188333 2:0.30970983 3:0.38439672 4:-0.38212727 5:-0.54271265 6:-0.36364622 7:-0.12653054 8:-0.77740923 9:-1.1060471 10:0.63518774 11:-0.12597678 12:-0.45461547 13:-0.99774853 14:1.1462834 15:-0.44450327 16:-0.40047735 17:0.63565141 18:-0.16767344 
0 0 0 0 0 0 1024 0:-0.45216891 1:-0.67317384 2:0.30989358 3:0.38400047 4:-0.39156453 5:-0.65693157 6:-0.5379547 7:1.0275608 8:-0.77740923 9:-1.1092888 10:1.0376662 11:1.0822093 12:-0.77821284 13:-0.99143627 14:1.0942031 15:-0.67981469 16:-0.65724229 17:0.643278 18:-0.31400724 
0 0 0 0 0 0 1024 0:-0.50335187 1:-0.74041407 2:0.30958539 3:0.38365457 4:-0.39274746 5:-0.6975937 6:-0.61542514 7:1.0275608 8:-0.77740923 9:-1.1085464 10:1.0376662 11:1.0822093 12:-0.32517652 13:-0.98769567 14:1.0942031 15:-0.73864255 16:-0.69391835 17:0.6394647 18:-0.32184655 
0 0 0 0 0 0 1024 0:-0.50028341 1:-0.74041407 2:0.30961932 3:0.38368053 4:-0.39269951 5:-0.69724274 6:-0.61542514 7:1.0275608 8:-0.77740923 9:-1.1043245 10:1.0376662 11:1.0822093 12:-0.19573758 13:-0.97694145 14:1.0935041 15:-0.73864255 16:-0.6932974 17:0.62919814 18:-0.32864062 
0 0 0 0 0 0 1024 0:-0.50165993 1:-0.74041407 2:0.30961277 3:0.38368901 4:-0.39273847 5:-0.69699033 6:-0.63479275 7:1.0275608 8:-0.77740923 9:-1.1005131 10:1.0376662 11:1.0822093 12:-0.26045705 13:-0.97366842 14:1.0851153 15:-0.7974704 16:-0.6988225 17:0.62949147 18:-0.34902282 
0 0 0 1024 0 0 1024 0:-0.50674985 1:-0.74041407 2:0.30954745 3:0.38368885 4:-0.39286117 5:-0.69690271 6:-0.63479275 7:1.0275608 8:-0.31396812 9:-1.0961254 10:1.0376662 11:1.0822093 12:-0.32517652 13:-0.97366842 14:1.0735807 15:-0.76805647 16:-0.70935685 17:0.63506475 18:-0.3761991 
0 0 0 0 0 0 1024 0:-0.50791077 1:-0.75722412 2:0.30955483 3:0.38347984 4:-0.39303623 5:-0.70706253 6:-0.61542514 7:1.0275608 8:-0.31396812 9:-1.0977469 10:1.0376662 11:1.0822093 12:-0.71349336 13:-0.98442265 14:1.0739303 15:-0.76805647 16:-0.70862001 17:0.6491446 18:-0.37672172 
0 0 0 1024 0 0 168.9918988586459 0:-0.51255644 1:-0.77403418 2:0.30952287 3:0.38333977 4:-0.39312737 5:-0.72520575 6:-0.61542514 7:1.0275608 8:3.3273549 9:-1.101868 10:1.0376662 11:1.0822093 12:0.063140318 13:-0.99634581 14:1.0760275 15:-0.7974704 16:-0.70715455 17:0.66146447 18:-0.36888241 
0 0 0 1024 0 0 173.6589610538662 0:-0.52211705 1:-0.77403418 2:0.30942817 3:0.38338837 4:-0.39317973 5:-0.72145892 6:-0.65416036 7:1.0275608 8:1.8046198 9:-1.0994885 10:1.0376662 11:1.0822093 12:1.6811272 13:-0.99307278 14:1.0746293 15:-0.7974704 16:-0.70972386 17:0.65999782 18:-0.37567648 
0 0 0 1024 0 0 1024 0:-0.52755833 1:-0.77403418 2:0.3093848 3:0.3833721 4:-0.39321424 5:-0.72223142 6:-0.65416036 7:1.0275608 8:-0.24776224 9:-1.0985275 10:1.0376662 11:1.0822093 12:1.940005 13:-0.99190385 14:1.0746293 15:-0.7974704 16:-0.70972386 17:0.65970449 18:-0.37776696 
0 0 0 1024 0 0 400.8390115427895 0:-0.5226734 1:-0.77403418 2:0.30941655 3:0.38337042 4:-0.39321304 5:-0.72104035 6:-0.65416036 7:1.0275608 8:2.6652962 9:-1.0990821 10:1.0376662 11:1.0822093 12:1.2928103 13:-0.99681338 14:1.0686873 15:-0.76805647 16:-0.71444679 17:0.66527777 18:-0.38560627 
0 0 0 1024 0 0 0 0:-0.51479763 1:-0.79084423 2:0.30947543 3:0.38346714 4:-0.39314337 5:-0.71580256 6:-0.65416036 7:1.0275608 8:2.4666786 9:-1.0934809 10:1.0376662 11:1.0822093 12:1.0986519 13:-0.99704717 14:1.065192 15:-0.76805647 16:-0.72177084 17:0.67231769 18:-0.40285276 
0 0 0 1024 0 0 1024 0:-0.5159244 1:-0.77403418 2:0.30948742 3:0.3834937 4:-0.39314099 5:-0.71294122 6:-0.67352796 7:1.0275608 8:1.1425611 9:-1.0929297 10:1.0376662 11:1.0822093 12:-0.77821284 13:-0.99728096 14:1.0637938 15:-0.76805647 16:-0.73280512 17:0.67319768 18:-0.40598848 
0 0 0 1024 0 0 187.3805497174563 0:-0.51838513 1:-0.77403418 2:0.30946513 3:0.38345463 4:-0.39316417 5:-0.71546377 6:-0.67352796 7:1.0275608 8:0.61291412 9:-1.0956815 10:1.0376662 11:1.0822093 12:-0.71349336 13:-0.99681338 14:1.0641434 15:-0.76805647 16:-0.72686259 17:0.66909106 18:-0.39919441 
0 0 0 1024 0 0 1024 0:-0.51704334 1:-0.77403418 2:0.30948499 3:0.38343207 4:-0.39314191 5:-0.71750231 6:-0.65416036 7:1.0275608 8:0.67911999 9:-1.0945611 10:1.0376662 11:1.0822093 12:2.5871998 13:-0.99587823 14:1.0655415 15:-0.76805647 16:-0.72024565 17:0.66938439 18:-0.39971703 
0 0 0 1024 0 0 0 0:-0.51779453 1:-0.77403418 2:0.30947161 3:0.38347836 4:-0.39312591 5:-0.71300783 6:-0.65416036 7:1.0275608 8:-0.11535049 9:-1.0944523 10:1.0376662 11:1.0822093 12:0.45145716 13:-0.99961883 14:1.0676387 15:-0.76805647 16:-0.71805295 17:0.67495767 18:-0.39814917 
0 0 0 0 0 0 1024 0:-0.51864518 1:-0.77403418 2:0.30945911 3:0.38349282 4:-0.39313366 5:-0.71251143 6:-0.67352796 7:1.0275608 8:0.083267127 9:-1.0949811 10:1.0376662 11:1.0822093 12:-0.77821284 13:-1.0010216 14:1.0665901 15:-0.76805647 16:-0.72217617 17:0.67613099 18:-0.39867179 
0 0 0 0 0 0 1024 0:-0.51919967 1:-0.77403418 2:0.30945738 3:0.38347636 4:-0.39314547 5:-0.71364726 6:-0.67352796 7:1.0275608 8:-0.31396812 9:-1.0953079 10:1.0376662 11:1.0822093 12:-0.71349336 13:-0.99961883 14:1.0665901 15:-0.76805647 16:-0.72217617 17:0.67378435 18:-0.39762655 
0 0 0 0 0 0 1024 0:-0.51349856 1:-0.72360401 2:0.30948811 3:0.38378826 4:-0.39273726 5:-0.68473599 6:-0.65416036 7:1.0275608 8:-0.31396812 9:-1.096289 10:1.0376662 11:1.0822093 12:-0.32517652 13:-0.99400793 14:1.0704349 15:-0.76805647 16:-0.70447221 17:0.66469111 18:-0.38717414 
0 0 0 0 0 0 1024 0:-0.50866608 1:-0.72360401 2:0.30950765 3:0.38380372 4:-0.39251529 5:-0.67559951 6:-0.65416036 7:1.0275608 8:-0.31396812 9:-1.0959774 10:1.0376662 11:1.0822093 12:-0.32517652 13:-0.99307278 14:1.0697359 15:-0.76805647 16:-0.70389165 17:0.66322446 18:-0.38769676 
0 0 0 0 0 0 713.5265746102423 0:-0.50900477 1:-0.74041407 2:0.30950241 3:0.38370505 4:-0.39280125 5:-0.69114343 6:-0.65416036 7:1.0275608 8:-0.38017399 9:-1.0970917 10:1.0376662 11:1.0822093 12:-0.32517652 13:-0.99237142 14:1.0686873 15:-0.76805647 16:-0.71173968 17:0.66058448 18:-0.38717414 
9.761307445465725 0 0 0 0 0 0 0:-0.025385428 1:-0.55550344 2:0.29541362 3:0.38393395 4:-0.23374466 5:-0.53991404 6:-0.034396873 7:0.78941497 8:-0.77740923 9:-0.80487277 10:0.75018159 11:0.78990619 12:-0.77821284 13:-0.81352399 14:0.81492687 15:1.5556438 16:1.571015 17:0.7004774 18:-0.58211166 
16.91161495174399 0 0 0 2.690180080372008 0 29.26059665910247 0:0.24626726 1:-0.48826322 2:0.2952439 3:0.38338549 4:-0.22220053 5:-0.40247655 6:0.31422009 7:-0.38299529 8:-0.64499748 9:-0.36643363 10:-0.47641955 11:-0.4572536 12:-0.77821284 13:-0.4432046 14:0.26476312 15:1.9380249 16:2.5401784 17:0.81370289 18:-1.0796466 
0 0 2.439320125054056 0 4.71176894203452 0.5294372706670074 116.2038042069134 0:0.6165579 1:-0.47145316 2:0.25919174 3:0.38396069 4:-0.20753991 5:-0.37029238 6:0.89524835 7:-0.089892724 8:-0.71120336 9:-0.52120017 10:-1.0130576 11:-1.0223729 12:-0.77821284 13:-0.58113922 14:0.49510487 15:1.879197 16:2.0819567 17:0.74447694 18:-0.68506793 
63.72757957441498 0 0 158.1254476122191 0 0 463.7345555069016 0:0.30390703 1:-0.50507328 2:0.25289383 3:0.3840974 4:-0.31990231 5:-0.53337132 6:0.21738204 7:-0.47458984 8:-0.77740923 9:-0.96760452 10:-0.054775407 11:-0.067516164 12:-0.19573758 13:-0.89160901 14:0.9778089 15:-0.091536142 16:-0.19260974 17:0.59429184 18:-0.34275138 
0 0 0 48.59754658739951 0 0 445.3926735997049 0:-0.32955142 1:-0.50507328 2:0.30949142 3:0.3829118 4:-0.38075006 5:-0.53488885 6:-0.40238144 7:-0.18148728 8:-0.77740923 9:-0.99215397 10:0.76934724 11:-0.3208455 12:-0.26045705 13:-0.91171474 14:0.94075848 15:-0.56215898 16:-0.47656164 17:0.61893158 18:-0.66886669 
0 0 0 127.9964093046233 0 0 62.98058879996065 0:-0.16574231 1:-0.63955373 2:0.30970046 3:0.38414143 4:-0.3879817 5:-0.66084313 6:-0.40238144 7:0.99092298 8:-0.77740923 9:-1.0878053 10:0.11771538 11:-0.0090555493 12:-0.26045705 13:-1.0234652 14:1.0718331 15:-0.56215898 16:-0.32298935 17:0.65530454 18:-0.30146434 
0 0 0 1024 0 0 1024 0:-0.49352214 1:-0.77403418 2:0.30948611 3:0.38343063 4:-0.39309297 5:-0.71568017 6:-0.63479275 7:1.0275608 8:-0.71120336 9:-1.1716958 10:1.0376662 11:1.0822093 12:-0.26045705 13:-1.0886919 14:1.1885768 15:-0.76805647 16:-0.69815721 17:0.66205113 18:0.0047913865 
0 0 0 1024 0 0 1024 0:-0.49218081 1:-0.77403418 2:0.30960872 3:0.38335132 4:-0.39292456 5:-0.72368912 6:-0.61542514 7:1.0275608 8:-0.77740923 9:-1.1631551 10:1.0376662 11:1.0822093 12:-0.58405442 13:-1.0727943 14:1.1704012 15:-0.73864255 16:-0.6908045 17:0.66469111 18:-0.062626683 
0 0 0 0 0 0 1024 0:-0.4767722 1:-0.75722412 2:0.30973496 3:0.38346679 4:-0.39258306 5:-0.71006464 6:-0.59605753 7:1.0275608 8:-0.71120336 9:-1.1525144 10:1.0376662 11:1.0822093 12:-0.77821284 13:-1.0482466 14:1.146633 15:-0.73864255 16:-0.68366392 17:0.65413122 18:-0.13422572 
0 0 0 0 0 0 1024 0:-0.4147515 1:-0.50507328 2:0.31028258 3:0.38452539 4:-0.38702397 5:-0.57307501 6:-0.49921949 7:0.40471785 8:-0.77740923 9:-1.1152182 10:0.42436567 11:0.36119501 12:-0.64877389 13:-1.0021905 14:1.1060872 15:-0.41508934 16:-0.51541393 17:0.66674442 18:-0.26697138 
120.7463659288108 0 0 0 0 0 1024 0:-0.19459438 1:-0.10163192 2:0.30868459 3:0.35657194 4:-0.32968717 5:-0.18528612 6:-0.26680818 7:-0.38299529 8:-0.77740923 9:-1.0237407 10:-0.61057905 11:-0.69109606 12:-0.71349336 13:-0.95379648 14:1.082319 15:0.29084492 16:0.071853951 17:0.59282519 18:-0.21105096 
159.2741481117205 20.47236828042336 1.300065415788401 0 25.94714325292174 32.22397053801254 83.57403147972825 0:-0.065399978 1:0.90697147 2:0.30713235 3:0.26426032 4:-0.21706583 5:0.65702794 6:-0.13123492 7:-0.74937349 8:-0.18155637 9:-0.51701282 10:-0.99389191 11:-0.96391226 12:-0.77821284 13:-0.65197683 14:0.67511398 15:1.0261931 16:1.0217755 17:-0.086821069 18:0.15635139 
0 0 0 745.9902016006751 0 0 1024 0:-0.46069774 1:-0.72360401 2:0.30981482 3:0.38367527 4:-0.3925575 5:-0.70042396 6:-0.57668992 7:1.0275608 8:-0.77740923 9:-1.1791245 10:1.0376662 11:0.77041932 12:-0.0015791552 13:-1.2074559 14:1.2867954 15:-0.76805647 16:-0.69664288 17:0.56906544 18:0.78767719 
0 0 0 1024 0 0 155.3576540813068 0:-0.48839205 1:-0.75722412 2:0.30969353 3:0.3836165 4:-0.39273404 5:-0.70036627 6:-0.59605753 7:1.0275608 8:-0.77740923 9:-1.1723577 10:1.0376662 11:1.0822093 12:-0.0015791552 13:-1.1705175 14:1.2892421 15:-0.76805647 16:-0.69976498 17:0.57405205 18:0.8838394 
0 0 0 1024 0 0 1024 0:-0.50492089 1:-0.77403418 2:0.30957881 3:0.38347608 4:-0.39303453 5:-0.71341026 6:-0.61542514 7:1.0275608 8:0.083267127 9:-1.1710345 10:1.0376662 11:1.0822093 12:-0.0015791552 13:-1.1597633 14:1.2895917 15:-0.76805647 16:-0.72192241 17:0.58637192 18:0.9293074 
0 0 0 641.6399289161985 0 0 27.71765236615515 0:-0.51699309 1:-0.77403418 2:0.30946512 3:0.38338741 4:-0.39318243 5:-0.72075782 6:-0.65416036 7:1.0275608 8:2.2018551 9:-1.1655349 10:1.0376662 11:1.0822093 12:-0.77821284 13:-1.1487753 14:1.2934365 15:-0.76805647 16:-0.71976029 17:0.5919452 18:0.95805154 
0 0 0 873.8973316993464 0 0 0 0:-0.51767013 1:-0.77403418 2:0.30947161 3:0.38348555 4:-0.39310619 5:-0.71422999 6:-0.65416036 7:1.0275608 8:2.2018551 9:-1.1634995 10:1.0376662 11:1.0822093 12:0.71033505 13:-1.1450347 14:1.2944851 15:-0.76805647 16:-0.71362875 17:0.59517183 18:0.97059443 
0 0 0 1024 0 0 159.3430616382359 0:-0.51208954 1:-0.77403418 2:0.30949302 3:0.38352014 4:-0.39304817 5:-0.71069885 6:-0.63479275 7:1.0275608 8:-0.11535049 9:-1.1605642 10:1.0376662 11:1.0822093 12:-0.51933494 13:-1.1389562 14:1.2955337 15:-0.76805647 16:-0.70830844 17:0.59839846 18:0.98836354 
0 0 0 0 0 0 195.5092374157515 0:-0.51479763 1:-0.77403418 2:0.30949706 3:0.38346987 4:-0.39306524 5:-0.71452093 6:-0.63479275 7:1.0275608 8:0.67911999 9:-1.1522573 10:1.0376662 11:1.0822093 12:2.1988829 13:-1.127033 14:1.3000776 15:-0.76805647 16:-0.70420848 17:0.61365164 18:1.0353994 
0 0 0 0 0 0 119.5588306297938 0:-0.52832988 1:-0.77403418 2:0.30937793 3:0.3833986 4:-0.39320473 5:-0.72050506 6:-0.65416036 7:1.0275608 8:-0.18155637 9:-1.1572385 10:1.0376662 11:1.0822093 12:2.8460777 13:-1.1370859 14:1.2976309 15:-0.76805647 16:-0.70862001 17:0.61922491 18:1.0265148 
0 0 0 1024 0 0 0 0:-0.51964127 1:-0.77403418 2:0.30945336 3:0.38333703 4:-0.39318279 5:-0.72552068 6:-0.65416036 7:1.0275608 8:0.74532587 9:-1.1557969 10:1.0376662 11:1.0822093 12:0.64561558 13:-1.1359169 14:1.2986795 15:-0.7974704 16:-0.70904132 17:0.62157156 18:1.0317411 
0 0 0 487.860206017074 0 0 0 0:-0.51913201 1:-0.77403418 2:0.30946026 3:0.38335514 4:-0.39316909 5:-0.72364655 6:-0.65416036 7:1.0275608 8:0.74532587 9:-1.155439 10:1.0376662 11:1.0822093 12:0.64561558 13:-1.134748 14:1.29833 15:-0.7974704 16:-0.70972386 17:0.62274488 18:1.0369673 
0 0.4676292206139511 0 0 0 0 0 0:-0.51638428 1:-0.77403418 2:0.30948514 3:0.38331346 4:-0.39315035 5:-0.72786338 6:-0.65416036 7:1.0275608 8:3.2611491 9:-1.1533774 10:1.0376662 11:1.0822093 12:-0.77821284 13:-1.131475 14:1.2993786 15:-0.76805647 16:-0.70534408 17:0.62362487 18:1.044284 
72.69891678508972 21.58442915760698 0 0 0 1.519266044215569 0 0:-0.36747709 1:0.15051893 2:0.31038836 3:0.31595742 4:-0.2890972 5:0.8089609 6:-0.38301383 7:-0.12653054 8:-0.77740923 9:-0.31333613 10:-0.16976926 11:0.63401122 12:-0.71349336 13:-0.47897409 14:0.45106381 15:0.49674241 16:1.8423317 17:-0.2343662 18:0.95805154 
0 0 0 0 0.9816276797029639 0 0 0:-0.50022168 1:-0.74041407 2:0.30962529 3:0.38357298 4:-0.39281133 5:-0.70375129 6:-0.59605753 7:1.0275608 8:-0.11535049 9:-0.56674889 10:1.0376662 11:1.0822093 12:-0.77821284 13:-0.61784386 14:0.36368075 15:-0.70922862 16:-0.67297812 17:0.31797472 18:-1.445481 
0 0 0 0 7.938575702554473 0 0 0:-0.51765729 1:-0.75722412 2:0.30946189 3:0.38353907 4:-0.39301324 5:-0.71053149 6:-0.65416036 7:1.0275608 8:-0.77740923 9:-0.56637742 10:1.0376662 11:1.0822093 12:-0.19573758 13:-0.6152722 14:0.36647701 15:-0.73864255 16:-0.69182809 17:0.31064146 18:-1.4423453 
12.88035263245932 36.60648256388902 1.393042655134575 53.05328738841781 13.58848356750447 11.03334527304548 156.0567988158049 0:0.2989882 1:0.52034017 2:0.30143238 3:0.30986934 4:-0.2752448 5:0.58632103 6:0.0043383444 7:-0.12653054 8:-0.71120336 9:-0.13418912 10:-0.16976926 11:-0.14546365 12:-0.71349336 13:-0.22367815 14:0.013099909 15:-0.12095007 16:0.40857646 17:-0.34553838 18:-0.60981055 
0 0 0 0 0 0 517.6734261988549 0:-0.34556771 1:-0.65636378 2:0.3101652 3:0.38421855 4:-0.38912219 5:-0.62803087 6:-0.46048427 7:0.80773388 8:-0.71120336 9:-0.86719182 10:0.46269695 11:-0.16495052 12:-0.71349336 13:-0.63187111 14:0.83624834 15:-0.50333113 16:-0.47438592 17:0.088003777 18:-0.52044241 
0 0 0 2.725136693186816 0 0 339.0133922217432 0:-0.33912403 1:-0.60593361 2:0.31000676 3:0.38429011 4:-0.38632592 5:-0.58321322 6:-0.44111666 7:0.33144221 8:-0.77740923 9:-0.84163922 10:-0.36142569 11:-0.37930611 12:-0.77821284 13:-0.62485748 14:0.79640166 15:-0.4739172 16:-0.47010913 17:0.10325695 18:-0.62287607 
0 0 0 0 0 0 594.5856292196636 0:-0.3670391 1:-0.65636378 2:0.30993657 3:0.38394661 4:-0.38666745 5:-0.56089409 6:-0.44111666 7:0.056658557 8:-0.77740923 9:-0.8985481 10:0.21354359 11:0.22478691 12:-0.71349336 13:-0.67348528 14:0.85267635 15:-0.4739172 16:-0.49043105 17:0.20357591 18:-0.60876531 
0 0 0 1024 0 0 0 0:-0.51980238 1:-0.77403418 2:0.30944944 3:0.38347402 4:-0.39311223 5:-0.71489385 6:-0.67352796 7:1.0275608 8:-0.71120336 9:-0.9664426 10:1.0376662 11:1.0822093 12:2.2636024 13:-0.73590654 14:0.89671742 15:-0.7974704 16:-0.70775753 17:0.31240144 18:-0.59726766 
0 0 0 640.9971978061215 0 0 0 0:-0.5156389 1:-0.79084423 2:0.30949566 3:0.38349045 4:-0.39305333 5:-0.71424296 6:-0.65416036 7:1.0275608 8:-0.71120336 9:-0.96072002 10:1.0376662 11:1.0822093 12:2.3283219 13:-0.72936049 14:0.89881461 15:-0.7974704 16:-0.70449956 17:0.30976147 18:-0.60406172 
0 0 0 1024 0 0 0 0:-0.52234011 1:-0.79084423 2:0.30942977 3:0.383486 4:-0.39309163 5:-0.71357937 6:-0.65416036 7:1.0275608 8:1.8046198 9:-0.96475667 10:1.0376662 11:1.0822093 12:-0.77821284 13:-0.73146458 14:0.9019604 15:-0.7974704 16:-0.70106565 17:0.30829482 18:-0.59204145 
0 0 0 1024 0 0 0 0:-0.52147922 1:-0.77403418 2:0.30944002 3:0.38347133 4:-0.39309887 5:-0.71489385 6:-0.65416036 7:1.0275608 8:2.5990903 9:-0.96683888 10:1.0376662 11:1.0822093 12:0.839774 13:-0.73497139 14:0.9009118 15:-0.7974704 16:-0.70203196 17:0.31240144 18:-0.59308669 
0 0 0 269.5782439421333 0 0 0 0:-0.52068464 1:-0.79084423 2:0.30944695 3:0.38346879 4:-0.393104 5:-0.71457332 6:-0.65416036 7:1.0275608 8:0.81153174 9:-0.96536384 10:1.0376662 11:1.0822093 12:0.19257927 13:-0.73310109 14:0.90056227 15:-0.7974704 16:-0.70239255 17:0.31034813 18:-0.59413193 
0 0 0 383.7428617695494 0 0 0 0:-0.52277169 1:-0.77403418 2:0.3094272 3:0.38347215 4:-0.39310339 5:-0.71443816 6:-0.67352796 7:1.0275608 8:3.1287373 9:-0.96639478 10:1.0376662 11:1.0822093 12:0.25729874 13:-0.73427003 14:0.90126134 15:-0.7974704 16:-0.70169081 17:0.31181478 18:-0.59308669 
0 0 0.1825752993656966 599.0376087044854 0 0 0 0:-0.52116623 1:-0.77403418 2:0.30944176 3:0.38349106 4:-0.3930831 5:-0.71364726 6:-0.67352796 7:1.0275608 8:3.3273549 9:-0.9641294 10:1.0376662 11:1.0822093 12:3.0402361 13:-0.73146458 14:0.90265946 15:-0.7974704 16:-0.70051489 17:0.31064146 18:-0.59517717 
0 0 0 430.0694963855906 0 0 0 0:-0.5141073 1:-0.77403418 2:0.30951249 3:0.38337146 4:-0.39309846 5:-0.72247892 6:-0.65416036 7:1.0275608 8:-0.71120336 9:-0.95883291 10:1.0376662 11:1.0822093 12:1.7458466 13:-0.73123079 14:0.89741648 15:-0.76805647 16:-0.70420848 17:0.31914804 18:-0.6186951 
0 0 0 280.1413240350422 0 0 1024 0:-0.35617767 1:-0.63955373 2:0.31110175 3:0.3844001 4:-0.38414462 5:-0.61790013 6:-0.18933774 7:1.0092419 8:-0.24776224 9:-0.96947312 10:0.67351902 11:0.73144558 12:-0.77821284 13:-0.76045423 14:0.92642766 15:-0.17977792 16:-0.39342662 17:0.35669431 18:-0.57688545 
520.0561230528831 20.87979447734023 0.1724453539295259 0 17.98173179801032 31.16243237458708 136.3897182146867 0:0.098314055 1:0.36904966 2:0.30629498 3:0.32801173 4:-0.26986694 5:0.63619174 6:0.15927922 7:-0.16316837 8:-0.71120336 9:-0.28022928 10:-0.55308212 11:-0.51571421 12:-0.71349336 13:-0.36535337 14:0.30845465 15:0.64381205 16:1.303713 17:-0.33175185 18:0.089455939 
142.4943809949339 0 0 0 151.9186754974424 0 178.1806463006509 0:-0.22073228 1:-0.21930232 2:0.30969269 3:0.37586517 4:-0.35724289 5:-0.10329206 6:-0.24744057 7:-0.38299529 8:-0.71120336 9:-1.1815238 10:-0.26559748 11:-0.087003036 12:-0.77821284 13:-1.2551486 14:0.82506331 15:-0.26801971 16:0.24047344 17:0.31357476 18:0.47096905 
0 2.592103508409327 0 214.3073574497562 122.3967590337237 0 1024 0:-0.28394299 1:-0.20249226 2:0.31097233 3:0.37732338 4:-0.35679365 5:-0.25464451 6:-0.034396873 7:-0.36467638 8:-0.04914462 9:-1.267585 10:-0.41892262 11:-0.14546365 12:-0.77821284 13:-1.3540407 14:0.90895105 15:-0.150364 16:0.40534797 17:0.4631732 18:0.76206878 
0 0 0 0 0 0 720.4425819981939 0:-0.27979019 1:-0.58912356 2:0.31006566 3:0.38382331 4:-0.37667316 5:-0.55855453 6:-0.28617579 7:0.51463131 8:-0.77740923 9:-1.0908131 10:0.30937181 11:0.24427378 12:-0.77821284 13:-1.1564902 14:1.3532065 15:0.43791455 16:-0.2153378 17:0.63741139 18:0.79656174 
46.49550858662966 0 0 0 11.80598230001042 0 1024 0:-0.31762076 1:-0.58912356 2:0.30980108 3:0.38377852 4:-0.37579748 5:-0.57558317 6:-0.28617579 7:0.1299342 8:-0.71120336 9:-1.0799415 10:0.079384093 11:0.010431322 12:-0.77821284 13:-1.1550875 14:1.3654402 15:0.43791455 16:-0.21563995 17:0.72394382 18:0.94916698 
0 0 0 0 0 0 169.9446611424881 0:-0.3897522 1:-0.77403418 2:0.31020625 3:0.38350697 4:-0.39071492 5:-0.70828288 6:-0.46048427 7:1.0275608 8:-0.77740923 9:-1.1415846 10:1.0376662 11:-0.067516164 12:-0.1310181 13:-1.2525769 14:1.3388757 15:-0.76805647 16:-0.68092081 17:0.75210353 18:0.51068822 
0 0 0 0 0 0 1024 0:-0.36654103 1:-0.77403418 2:0.31023083 3:0.38350914 4:-0.39162745 5:-0.70988107 6:-0.42174905 7:1.0275608 8:-0.77740923 9:-1.1434378 10:1.0376662 11:0.28324753 12:0.12785979 13:-1.2016112 14:1.3151075 15:-0.73864255 16:-0.64946786 17:0.76325008 18:0.36226394 
0 0 0 158.248873122366 0 0 39.91982879995476 0:-0.35739027 1:-0.77403418 2:0.3102492 3:0.3835024 4:-0.39181117 5:-0.71160349 6:-0.42174905 7:1.0275608 8:1.3411787 9:-1.1446617 10:1.0376662 11:-0.28187175 12:1.2928103 13:-1.1882853 14:1.3056701 15:-0.73864255 16:-0.65467373 17:0.76530339 18:0.32202215 
0 0 0 613.4909041523637 0 0 0 0:-0.384928 1:-0.77403418 2:0.31022663 3:0.38348396 4:-0.39009617 5:-0.7128706 6:-0.42174905 7:1.0275608 8:-0.77740923 9:-1.1467275 10:1.0376662 11:0.55606373 12:0.25729874 13:-1.2460308 14:1.3318851 15:-0.73864255 16:-0.68076217 17:0.75973012 18:0.50023581 
0 0 0 0 0 0 978.6386145981098 0:-0.13882033 1:-0.74041407 2:0.31014634 3:0.38365518 4:-0.38668069 5:-0.69846038 6:-0.24744057 7:1.0275608 8:-0.71120336 9:-1.0819262 10:1.0376662 11:-0.24289801 12:-0.45461547 13:-1.1333453 14:1.3518084 15:-0.67981469 16:-0.65163347 17:0.76794337 18:0.97843374 
0 0 0 0 0 0 558.5516990502484 0:-0.39812367 1:-0.6899839 2:0.31056117 3:0.38385536 4:-0.39081019 5:-0.68602333 6:-0.42174905 7:1.0092419 8:-0.24776224 9:-1.027903 10:1.0376662 11:-0.20392427 12:-0.45461547 13:-1.0129447 14:1.3643916 15:-0.62098684 16:-0.64106495 17:0.76413007 18:1.3536754 
0 0 0 0 0 0 1024 0:-0.45464613 1:-0.60593361 2:0.31001138 3:0.38408861 4:-0.38975629 5:-0.50406228 6:-0.51858709 7:0.16657202 8:-0.77740923 9:-1.1251825 10:1.0376662 11:0.61452434 12:-0.77821284 13:-1.2219507 14:1.3462159 15:-0.70922862 16:-0.67131525 17:0.63095812 18:0.67844946 
0 0 0 0 0 0 1024 0:-0.45526599 1:-0.62274367 2:0.30999171 3:0.38415124 4:-0.39099183 5:-0.53003537 6:-0.51858709 7:0.34976112 8:-0.77740923 9:-1.0882686 10:1.0376662 11:0.26376065 12:-0.77821284 13:-1.0847175 14:1.3189524 15:-0.70922862 16:-0.6634285 17:0.41917366 18:0.67270064 
0 0 0 49.29313952221688 0 0 1024 0:-0.24328346 1:-0.5723135 2:0.30707477 3:0.38434205 4:-0.3777745 5:-0.56623393 6:-0.15060253 7:0.71613933 8:-0.71120336 9:-1.0986446 10:0.90350674 11:0.45862937 12:-0.77821284 13:-1.0875229 14:1.3329337 15:-0.50333113 16:-0.51901937 17:0.5406124 18:0.7678176 
0 0 0 0 0 0 1024 0:-0.12420139 1:-0.5723135 2:0.30261765 3:0.38399764 4:-0.37673404 5:-0.52046475 6:-0.15060253 7:-0.12653054 8:-0.77740923 9:-1.1000906 10:-0.24643184 11:-0.76904355 12:-0.77821284 13:-1.120487 14:1.3297879 15:-0.50333113 16:-0.46830586 17:0.67671765 18:0.74900326 
0 0 0 145.2162549934463 0 0 811.3130445129816 0:-0.20067912 1:-0.70679395 2:0.30905492 3:0.383775 4:-0.38319411 5:-0.66932452 6:-0.16997014 7:1.0275608 8:-0.77740923 9:-1.0881065 10:0.98016931 11:0.47811624 12:-0.77821284 13:-1.1326439 14:1.3570514 15:-0.56215898 16:-0.58159611 17:0.74037032 18:0.97111705 
0 10.54600758258417 0 0 70.8573284600662 0 956.8246765009728 0:-0.34192342 1:-0.75722412 2:0.31003575 3:0.38345009 4:-0.37862502 5:-0.71457332 6:-0.5379547 7:1.0275608 8:-0.77740923 9:-1.3081864 10:0.021887164 11:0.049405066 12:-0.389896 13:-1.4784156 14:0.97745936 15:-0.17977792 16:0.6401584 17:0.73039709 18:0.93505623 
0 1.10775702413547 0 0 16.99238459138254 0 0 0:0.76953325 1:-0.65636378 2:0.26427408 3:0.383832 4:-0.19879815 5:-0.61881033 6:0.43042574 7:0.75277715 8:-0.77740923 9:-0.55051724 10:-0.34226005 11:-0.12597678 12:-0.77821284 13:-0.93743136 14:0.099434373 15:1.1438488 16:2.0820062 17:0.79287644 18:-0.37201814 
0 0 0 0 0 0 1024 0:-0.3848785 1:-0.55550344 2:0.31032686 3:0.38404621 4:-0.38744751 5:-0.54486026 6:-0.47985188 7:0.11161529 8:-0.77740923 9:-1.0498192 10:0.098549736 11:0.26376065 12:-0.71349336 13:-1.0152826 14:1.3629934 15:-0.53274505 16:-0.60400161 17:0.75327685 18:1.2381762 
0 0 0 0 0 0 71.52032985536891 0:-0.4933091 1:-0.74041407 2:0.30972488 3:0.38359567 4:-0.39256663 5:-0.69917689 6:-0.61542514 7:1.0275608 8:-0.44637986 9:-1.0911461 10:1.0376662 11:1.0822093 12:-0.45461547 13:-1.0777039 14:1.3650906 15:-0.65040076 16:-0.6735065 17:0.87647557 18:1.0171077 
0 0 0 0 0 0 645.5497274931461 0:-0.49295514 1:-0.77403418 2:0.30967193 3:0.38354644 4:-0.39277947 5:-0.70863554 6:-0.61542514 7:1.0275608 8:1.3411787 9:-1.0864169 10:1.0376662 11:1.0822093 12:-0.51933494 13:-1.0585333 14:1.3643916 15:-0.76805647 16:-0.69375484 17:0.89055542 18:1.035922 
0 0.4901315014361293 0 0 0 0 0 0:-0.49992225 1:-0.77403418 2:0.30956766 3:0.38348846 4:-0.39298162 5:-0.71300783 6:-0.61542514 7:1.0275608 8:-0.77740923 9:-1.0793829 10:1.0376662 11:1.0822093 12:3.169675 13:-1.0473115 14:1.3668383 15:-0.76805647 16:-0.70360337 17:0.87266228 18:1.0892293 
0 0 0 104.3341374282069 0 0 94.55184694800988 0:-0.49532838 1:-0.75722412 2:0.30973406 3:0.38356311 4:-0.39283689 5:-0.70939596 6:-0.55732231 7:1.0275608 8:2.0694433 9:-1.0805158 10:1.0376662 11:1.0822093 12:2.1988829 13:-1.0622739 14:1.3720813 15:-0.76805647 16:-0.71860357 17:0.8641557 18:1.0630983 
0 0 0 0 0 0 41.82866888497033 0:-0.46114206 1:-0.75722412 2:0.31002197 3:0.38358575 4:-0.39214128 5:-0.70230934 6:-0.5379547 7:1.0275608 8:-0.51258574 9:-1.0885313 10:1.0376662 11:1.0822093 12:-0.51933494 13:-1.0688199 14:1.3629934 15:-0.65040076 16:-0.66721384 17:0.87647557 18:1.040103 
0 0 0 358.3606704894685 0 0 0 0:-0.43370511 1:-0.75722412 2:0.31040516 3:0.38356312 4:-0.39175768 5:-0.70751528 6:-0.42174905 7:1.0275608 8:-0.77740923 9:-1.0638205 10:1.0376662 11:0.98477491 12:-0.26045705 13:-1.014815 14:1.3664888 15:-0.73864255 16:-0.70078109 17:0.87119562 18:1.1608284 
0 0 0 0 0 0 464.3243811143323 0:-0.42561548 1:-0.74041407 2:0.31055832 3:0.38359747 4:-0.39113951 5:-0.70160559 6:-0.32491101 7:1.0275608 8:1.4073846 9:-1.0880061 10:1.0376662 11:-0.028542421 12:-0.77821284 13:-1.0814445 14:1.3664888 15:-0.67981469 16:-0.68503522 17:0.85652911 18:1.035922 
0 0 0 42.17217864438605 0 0 99.14435130485349 0:-0.49613834 1:-0.77403418 2:0.3096697 3:0.38336141 4:-0.39295997 5:-0.72320715 6:-0.61542514 7:1.0275608 8:1.2749729 9:-1.0878594 10:1.0376662 11:1.0822093 12:3.0402361 13:-1.0868216 14:1.3720813 15:-0.76805647 16:-0.70775753 17:0.85124916 18:1.0312184 
0 0.1187532400895144 0 0 0 0 0 0:-0.41963183 1:-0.74041407 2:0.31023448 3:0.38374104 4:-0.37322309 5:-0.67742655 6:-0.51858709 7:1.0275608 8:-0.77740923 9:-1.1360237 10:0.78851288 11:0.82887993 12:-0.77821284 13:-1.1728554 14:1.2703674 15:-0.17977792 16:0.12435847 17:0.83716931 18:1.0160624 
175.5382658633072 0 0 0 49.96090920979674 43.99624805313954 0 0:-0.1868974 1:0.10008876 2:0.31033944 3:0.30510256 4:-0.28368764 5:0.97798619 6:-0.36364622 7:-0.12653054 8:-0.71120336 9:-0.25050101 10:-0.16976926 11:-0.14546365 12:-0.71349336 13:-0.41655283 14:0.23575195 15:0.61439812 16:2.1979442 17:-0.12964729 18:0.63611719 
0 1.042444676469451 0.6065258258935785 0 0 1.219695368428557 0 0:-0.52575491 1:-0.77403418 2:0.30939817 3:0.38341556 4:-0.39320949 5:-0.7194144 6:-0.67352796 7:1.0275608 8:3.2611491 9:-0.98757101 10:1.0376662 11:1.0822093 12:3.2343945 13:-0.88412781 14:1.3385262 15:-0.76805647 16:-0.71860357 17:0.84215593 18:1.5507034 
0 0 0 8.555454089278772 0 0 701.560024476159 0:1.0291138 1:-0.72360401 2:0.24550598 3:0.38380512 4:-0.24079982 5:-0.64033855 6:0.43042574 7:1.0275608 8:-0.71120336 9:-0.26392206 10:-0.16976926 11:-0.14546365 12:-0.71349336 13:-0.5442008 14:-0.16900639 15:0.84970954 16:2.3585433 17:0.73069042 18:-0.57688545 
-0 0 0 0 0 65.91982379273733 76.0250767825745 0:-0.088999088 1:0.60439045 2:0.30255249 3:0.28852247 4:-0.22332526 5:0.3686714 6:-0.015029264 7:-1.0058382 8:-0.64499748 9:0.21708966 10:-1.1472171 11:-0.96391226 12:-0.26045705 13:0.080245593 14:-0.1539765 15:0.73205383 16:1.0412114 17:-0.94657212 18:0.2854387 
-0 0 9.506140735665893 0 39.22761538077452 0 0 0:0.16147055 1:0.53715022 2:0.28029042 3:0.30981575 4:-0.10526347 5:0.190483 6:0.33358769 7:-1.0241571 8:-0.77740923 9:0.43601884 10:-1.0705545 11:-1.158781 12:-0.77821284 13:0.51999987 14:-0.55034606 15:2.1439223 16:1.8036795 17:-0.89230602 18:-0.34066089 
-0 0 0 0 0 481.9120302427252 0 0:0.067414049 1:0.50353011 2:0.28607593 3:0.31411965 4:-0.19843122 5:0.1308693 6:0.10117639 7:-1.1340706 8:-0.64499748 9:0.3711548 10:-1.0705545 11:-1.158781 12:0.45145716 13:0.41035353 14:-0.44094247 15:0.84970954 16:0.78773114 17:-1.0243046 18:-0.073079097 
-0 0 0 0 0 439.9777716246331 0 0:0.4668696 1:1.0078318 2:0.19420798 3:-0.0009509015 4:0.043546695 5:0.87015841 6:0.66283704 7:-1.1340706 8:-0.64499748 9:0.64664286 10:-1.1280514 11:-1.2367285 12:-0.45461547 13:0.57283584 14:-0.41018364 15:0.55557026 16:0.59954576 17:-1.086784 18:-0.3155751 
-0 530.9946496625058 0 0 0 0 0 0:0.3517828 1:0.3522396 2:0.22192759 3:0.27658533 4:-0.14159275 5:0.21361885 6:0.60473422 7:-1.0974328 8:-0.64499748 9:0.35108042 10:-1.1855483 11:-1.1003204 12:-0.64877389 13:0.48329523 14:-0.42696118 15:0.55557026 16:0.51113026 17:-0.8843861 18:-0.52619124 
-0 74.11146117831184 0 0 0 736.6984970729742 74.04034002747123 0:0.071128456 1:0.15051893 2:0.27716121 3:0.32042173 4:-0.23496036 5:0.0056334409 6:0.120544 7:-1.0974328 8:-0.71120336 9:0.35261359 10:-1.1855483 11:-1.1003204 12:-0.45461547 13:0.56769251 14:-0.54510308 15:0.58498419 16:0.50715903 17:-0.91313247 18:-0.54343772 
-0 0 0 0 246.7011500530545 0 0 0:0.074880332 1:0.10008876 2:0.27787732 3:0.34338553 4:-0.25044515 5:-0.033247907 6:0.13991161 7:-1.0974328 8:-0.64499748 9:0.37426062 10:-1.0897201 11:-1.1977547 12:-0.45461547 13:0.61187835 14:-0.56223016 15:0.43791455 16:0.40158805 17:-0.93014562 18:-0.58629262 
-0 550.3097419767594 0 0 0 0 0 0:-0.040625511 1:0.50353011 2:0.29284761 3:0.35420145 4:-0.25530736 5:-0.093005504 6:0.08180878 7:-1.0424761 8:-0.44637986 9:0.38289482 10:-1.0705545 11:-1.0418597 12:-0.71349336 13:0.39539113 14:-0.41402849 15:0.29084492 16:0.57562949 17:-1.1228636 18:0.14067277 
-0 1024 0 0 0 0 0 0:0.11766341 1:0.3522396 2:0.28711816 3:0.34658791 4:-0.25997 5:0.0069667627 6:0.31422009 7:-1.0424761 8:-0.44637986 9:0.27155799 10:-1.0705545 11:-1.0418597 12:-0.77821284 13:0.35097151 14:-0.33293701 15:0.26143099 16:0.42364766 17:-0.97267851 18:-0.19484972 
-0 1024 0 0 0 0 13.10875620995522 0:0.042248742 1:0.3522396 2:0.29435788 3:0.36033239 4:-0.30386874 5:-0.056617951 6:0.15927922 7:-1.0791139 8:-0.71120336 9:0.064880525 10:-1.0705545 11:-1.1392941 12:-0.71349336 13:0.17376059 14:-0.14034475 15:0.026119568 16:0.070784846 17:-0.80254695 18:-0.44413979 
-0 271.4495417215303 0 0 0 0 0 0:-0.017874215 1:0.26818932 2:0.28817059 3:0.3550225 4:-0.28579024 5:-0.035546808 6:-0.053764482 7:-1.0791139 8:-0.64499748 9:0.16864429 10:-1.0897201 11:-1.1198072 12:-0.45461547 13:0.17609846 14:-0.17949236 15:-0.0032943599 16:0.23110511 17:-0.95947865 18:-0.09764227 
-0 585.4459826896207 0 0 0 893.1065545635885 0 0:-0.14594349 1:0.65482062 2:0.3058865 3:0.15476665 4:-0.17150321 5:0.90418761 6:-0.13123492 7:-0.60282221 8:-0.71120336 9:0.0020875232 10:-0.66807598 11:-0.65212232 12:-0.77821284 13:-0.31579042 14:-0.18019142 15:0.23201706 16:0.83393956 17:-0.58049593 18:0.31000187 
-0 1024 0 0 849.8397517465112 1024 0 0:-0.15005484 1:0.43628989 2:0.30582853 3:0.12072433 4:-0.17290021 5:0.86709724 6:-0.16997014 7:-0.5845033 8:-0.77740923 9:-0.051032494 10:-0.51475084 11:-0.63263544 12:-0.77821284 13:-0.32747979 14:-0.1983671 15:0.23201706 16:0.83737131 17:-0.52006989 18:0.25355884 
-0 0 0 0 141.7143312857579 0 0 0:0.046676904 1:-0.13525203 2:0.30222561 3:0.38080889 4:-0.33072801 5:-0.34035571 6:0.023705953 7:-0.80433022 8:-0.71120336 9:0.34354287 10:-0.97472627 11:-1.0418597 12:-0.51933494 13:0.42812138 14:-0.59788245 15:-0.091536142 16:0.16164937 17:-1.0624376 18:0.30686615 
-0 1024 0 0 0 0 0 0:0.073920267 1:0.16732898 2:0.27129932 3:0.31973531 4:-0.21630455 5:0.096778511 6:0.23674965 7:-1.1157517 8:-0.64499748 9:0.30336057 10:-0.87889805 11:-1.0613466 12:-0.64877389 13:0.30491537 14:-0.29239127 15:0.40850063 16:0.57109507 17:-1.0295846 18:-0.0030479239 
-0 0 0 0 0 1024 0 0:0.39565778 1:0.43628989 2:0.22537972 3:0.19024776 4:-0.080067888 5:0.41129727 6:0.70157226 7:-1.0791139 8:-0.57879161 9:0.084118406 10:-0.87889805 11:-1.0613466 12:-0.64877389 13:0.070426518 14:-0.069739232 15:1.2320906 16:0.89182937 17:-0.63476203 18:-0.44309455 
-0 0 5.141627661197629 2.574023761776621 0 0 0 0:2.0557636 1:2.8065078 2:-1.0915007 3:-2.0477652 4:2.102797 5:2.3520136 6:3.141891 7:-1.060795 8:-0.57879161 9:1.5254351 10:-1.1472171 11:-1.1198072 12:-0.19573758 13:1.3525171 14:0.36368075 15:3.3204794 16:3.5140041 17:-0.73625431 18:-0.90613649 
-0 642.4543407554099 0 0 0 1024 0 0:0.2789927 1:1.2431726 2:0.26568528 3:0.029036114 4:-0.023106241 5:0.71824726 6:1.2244977 7:-1.1523895 8:-0.64499748 9:0.36497028 10:-1.1280514 11:-1.1392941 12:-0.45461547 13:0.26096332 14:-0.20361008 15:1.1732627 16:0.92595311 17:-0.93659889 18:-0.018203924 
-0 1024 0 0 0 0 0 0:0.17983043 1:0.50353011 2:0.27843654 3:0.33024278 4:-0.22394539 5:0.040804471 6:0.50789617 7:-1.1523895 8:-0.71120336 9:0.31502498 10:-1.0897201 11:-1.158781 12:-0.51933494 13:0.55950995 14:-0.54824887 15:0.90853739 16:0.50537482 17:-0.83129332 18:-0.61503676 
-35.14567075511802 271.3855112096917 3.211991519503976 47.8906262183552 35.19886833937584 33.77316283341583 0 0:0.22876703 1:0.90697147 2:0.27712025 3:0.13840836 4:-0.074148432 5:1.6394214 6:0.64346944 7:-0.41963311 8:-0.44637986 9:-0.09536604 10:-0.62974469 11:-0.63263544 12:-0.71349336 13:0.021097357 14:0.011002716 15:2.3498198 16:1.4278667 17:0.62127823 18:-0.41696352 
-0 1024 0 0 0 0 0 0:-0.0057445074 1:-0.034391694 2:0.3006389 3:0.36929637 4:-0.31716687 5:-0.15208065 6:0.120544 7:-1.0791139 8:-0.64499748 9:0.29096127 10:-0.99389191 11:-1.0223729 12:-0.45461547 13:0.41432792 14:-0.45107891 15:-0.062122215 16:0.081115593 17:-1.0084648 18:-0.15042696 
-0 1024 0 0 0 1024 0 0:0.32565613 1:0.94059158 2:0.26264992 3:-0.081543634 4:0.014230358 5:0.93046058 6:0.48852857 7:-1.1340706 8:-0.77740923 9:0.45224067 10:-1.0897201 11:-1.0808335 12:-0.45461547 13:0.31076006 14:-0.38711451 15:0.46732848 16:0.55331984 17:-0.92017239 18:-0.11018517 
-0.5706741545040411 0 0 0 0 302.2974438350304 0 0:0.36578255 1:1.0246419 2:0.27225317 3:0.20708947 4:-0.12913148 5:0.83818033 6:0.60473422 7:-1.1340706 8:-0.57879161 9:0.017270932 10:-1.1472171 11:-1.1782679 12:-0.77821284 13:-0.083873227 14:0.10502689 15:1.1144349 16:1.0386595 17:-0.24345944 18:-0.94271994 
-44.02909676859876 0 0 0 0 345.2533515285235 151.9016102765792 0:0.39328824 1:0.016038475 2:0.2394825 3:0.30306134 4:-0.20089197 5:0.024387855 6:0.79841031 7:-1.1340706 8:-0.71120336 9:-0.53246757 10:-1.1472171 11:-1.1782679 12:-0.77821284 13:-0.52245856 14:0.66847286 15:0.67322597 16:0.46032587 17:0.025231097 18:-0.63437372 
-165.2762429260433 0 0 0 0 0 0 0:0.052807868 1:-0.00077158159 2:0.30316761 3:0.34375353 4:-0.29793131 5:0.19810564 6:0.21738204 7:-0.52954657 8:-0.77740923 9:-0.94050963 10:-0.61057905 11:-0.4572536 12:-0.77821284 13:-1.1003812 14:0.67266725 15:0.49674241 16:0.3055843 17:0.15136312 18:0.38682712 
-0 0 0 0 92.63076932981736 237.9230993946314 0 0:0.29309082 1:0.26818932 2:0.28856241 3:0.24209096 4:-0.12795681 5:0.44160232 6:0.62410183 7:-0.51122766 8:-0.71120336 9:-0.61265046 10:-0.51475084 11:-0.41827985 12:-0.77821284 13:-0.8469556 14:0.5713029 15:1.085021 16:1.1036507 17:0.068057318 18:0.073254698 
-0 0 0 0 0 21.27961905452434 0 0:0.20094554 1:0.99102175 2:0.29305348 3:0.26723241 4:-0.21131508 5:0.70499566 6:0.37232291 7:-0.95088151 8:-0.57879161 9:-0.29973068 10:-1.0322232 11:-1.0223729 12:-0.71349336 13:-0.43642476 14:0.28258927 15:1.2909184 16:1.5300842 17:-0.157807 18:-0.13579358 
-279.3212830733689 0 0 46.27783238001827 93.82011301333712 0 856.3239748281361 0:-0.11403916 1:-0.13525203 2:0.30608341 3:0.37779714 4:-0.33812812 5:-0.32926645 6:-0.073132091 7:-0.2181251 8:-0.77740923 9:-1.1655181 10:-0.18893491 11:-0.14546365 12:-0.64877389 13:-1.1628025 14:1.0221995 15:0.34967277 16:0.20093065 17:0.64357133 18:0.066460629 
-0 0 0 0 202.3280003949637 0 0 0:-0.25018506 1:-0.40421294 2:0.30866076 3:0.37895485 4:-0.35338593 5:-0.36845076 6:-0.26680818 7:-0.87760586 8:-0.77740923 9:0.44154233 10:-0.53391648 11:-0.57417483 12:-0.51933494 13:0.51579169 14:-0.82542794 15:-0.12095007 16:-0.11118692 17:-1.1008638 18:0.38264615 
-0 0 0 0 336.2402167120166 0 0 0:-0.3233758 1:-0.3033526 2:0.31019412 3:0.38137228 4:-0.35529021 5:-0.37603907 6:-0.36364622 7:-0.69441676 8:-0.77740923 9:0.41980136 10:-0.91722934 11:-0.4572536 12:-0.19573758 13:0.49779005 14:-0.76915325 15:-0.091536142 16:0.13064796 17:-1.0947039 18:0.27132794 
-0 0 0 0 0 0 94.86520969459049 0:-0.32245002 1:-0.20249226 2:0.3097862 3:0.38157786 4:-0.36314852 5:-0.38626642 6:-0.38301383 7:-0.84096804 8:-0.71120336 9:0.31939377 10:-1.0705545 11:-0.88596478 12:-0.51933494 13:0.33974971 14:-0.58984321 15:-0.17977792 16:-0.1368371 17:-1.085904 18:0.35337939 
-0 0 0 11.8332021078359 163.4380473467966 175.8334599771471 0 0:-0.29660391 1:0.25137927 2:0.30914284 3:0.35817725 4:-0.34256933 5:-0.17344685 6:-0.22807296 7:-0.053254904 8:-0.64499748 9:0.37780692 10:-0.34226005 11:0.18581317 12:-0.51933494 13:0.40474263 14:-0.66499264 15:-0.44450327 16:-0.38823561 17:-1.0999839 18:0.34554008 
-0 576.8987479641523 0 0 0 0 0 0:-0.22369811 1:0.016038475 2:0.30924273 3:0.34708566 4:-0.30163557 5:-0.071289329 6:-0.034396873 7:-1.1707084 8:-0.71120336 9:0.55159675 10:-1.1663827 11:-0.67160919 12:-0.71349336 13:0.6202947 14:-0.76041494 15:0.084947423 16:0.23657342 17:-1.1944362 18:0.22272422 
-0 73.51815144327554 0 0 0 0 0 0:-0.21141177 1:0.15051893 2:0.3071405 3:0.29823552 4:-0.27844473 5:0.09317424 6:-0.073132091 7:-1.1707084 8:-0.44637986 9:0.438788 10:-1.0897201 11:-0.43776673 12:-0.45461547 13:0.45009741 14:-0.65520574 15:0.14377528 16:0.096046913 17:-1.1140637 18:0.29327801 
-0 110.5414138483621 0 0 0 0 0 0:-0.221229 1:0.11689881 2:0.30780294 3:0.32967057 4:-0.30326534 5:-0.011961105 6:-0.16997014 7:-1.1523895 8:-0.44637986 9:0.38643738 10:-0.99389191 11:-0.8664779 12:-0.389896 13:0.40357369 14:-0.63143755 15:0.055533495 16:-0.059152121 17:-1.0914773 18:0.31104711 
-0 0 0 0 0 320.3653241564971 0 0:-0.058879857 1:0.40266977 2:0.30683764 3:0.2839015 4:-0.24230007 5:0.33795856 6:0.29485248 7:-1.0791139 8:-0.77740923 9:0.091384637 10:-0.99389191 11:-1.0613466 12:-0.77821284 13:0.034189457 14:-0.14034475 15:1.1144349 16:1.5780135 17:-0.7846538 18:0.55720146 
-46.56552604392591 0 0 0 0 0 0 0:-0.12360417 1:0.36904966 2:0.30787539 3:0.29683705 4:-0.25284444 5:0.71869483 6:0.29485248 7:-0.089892724 8:-0.77740923 9:-0.63054416 10:-0.15060362 11:-0.39879298 12:-0.77821284 13:-0.7908466 14:0.86421092 15:0.58498419 16:1.1887545 17:0.15517641 18:0.83471305 
-0 0 0.5680070683651499 0 0 0 0 0:-0.22621396 1:0.43628989 2:0.31146402 3:0.37491616 4:-0.29169078 5:-0.20488826 6:0.25611726 7:-0.95088151 8:-0.77740923 9:0.48535243 10:-0.78306984 11:-0.43776673 12:-0.51933494 13:0.60112413 14:-0.78628033 15:2.5557173 16:0.57963652 17:-1.1128904 18:0.23631235 
-0 0 0 0 0 48.27380139003367 32.79227012542538 0:-0.20785548 1:0.43628989 2:0.31093994 3:0.36292256 4:-0.27246027 5:-0.12640397 6:0.25611726 7:-1.060795 8:-0.71120336 9:0.48176854 10:-0.95556062 11:-0.63263544 12:-0.51933494 13:0.584759 14:-0.76565793 15:2.5557173 16:0.65488838 17:-1.1052638 18:0.22951829 
-0 1024 0 0 0 0 0 0:-0.32549405 1:0.33542955 2:0.31066971 3:0.25844826 4:-0.26688484 5:0.18499481 6:-0.32491101 7:-1.060795 8:-0.11535049 9:0.463931 10:-0.97472627 11:-0.74955667 12:-0.51933494 13:0.50363474 14:-0.73979254 15:0.11436135 16:-0.030985269 17:-1.0941172 18:0.21749801 
-0 1024 0 0 0 1024 0 0:-0.08235007 1:1.058262 2:0.30418757 3:0.047820097 4:-0.1333225 5:0.61756553 6:0.10117639 7:-1.1523895 8:-0.38017399 9:0.49284593 10:-1.0130576 11:-0.96391226 12:-0.45461547 13:0.48306144 14:-0.72685985 15:0.17318921 16:-0.059365061 17:-1.0225447 18:0.12081318 
-211.5621710735534 0 0 73.09736884602089 0 212.3222185441725 0 0:-0.3861992 1:0.48672006 2:0.31060854 3:0.24389452 4:-0.21487439 5:1.2436328 6:-0.47985188 7:-0.14484946 8:-0.71120336 9:-0.17960112 10:-0.16976926 11:-0.12597678 12:-0.71349336 13:-0.36792503 14:0.29692009 15:0.79088168 16:2.2178824 17:-0.086234409 18:0.50702988 
-0 1024 0 0 0 0 0 0:-0.20633474 1:0.23456921 2:0.30774034 3:0.31471335 4:-0.28053256 5:0.07672902 6:-0.16997014 7:-1.1157517 8:-0.64499748 9:0.2116175 10:-1.0705545 11:-0.98339913 12:-0.389896 13:0.12980854 14:-0.3588024 15:-0.0032943599 16:0.04350428 17:-1.0055315 18:0.36644491 
-0 1024 0 0 0 0 0 0:-0.2573354 1:0.70525079 2:0.30802908 3:0.25788911 4:-0.23704081 5:0.288251 6:-0.28617579 7:-1.0974328 8:-0.64499748 9:0.17302873 10:-1.0897201 11:-1.0808335 12:-0.389896 13:0.01712297 14:-0.33817999 15:0.026119568 16:0.15868996 17:-0.94569213 18:0.55093001 
-332.2292182833024 0 0 0 12.16364513734732 160.5317148670909 0 0:-0.015401372 1:0.68844073 2:0.30613115 3:0.32775268 4:-0.28047948 5:0.48755826 6:-0.11186731 7:-0.14484946 8:-0.71120336 9:-0.3068771 10:-0.39975698 11:-0.28187175 12:-0.71349336 13:-0.36161277 14:0.30845465 15:0.34967277 16:1.1812877 17:-0.39452453 18:0.10722504 
-0 0 0 0 0 0 596.1153333496199 0:-0.30677289 1:0.083278701 2:0.31015645 3:0.33163687 4:-0.30632003 5:-0.031563691 6:-0.34427861 7:-1.0974328 8:-0.64499748 9:0.20355241 10:-1.1088858 11:-1.0418597 12:-0.45461547 13:0.037930057 14:-0.24380629 15:-0.12095007 16:0.0216543 17:-1.0592109 18:0.5227085 
-0 1024 0 0 0 0 0 0:-0.33238478 1:0.032848531 2:0.31067287 3:0.33721538 4:-0.31587045 5:-0.055160748 6:-0.36364622 7:-1.0974328 8:-0.18155637 9:0.17592935 10:-1.0322232 11:-1.002886 12:-0.45461547 13:0.030682645 14:-0.27701185 15:-0.150364 16:-0.071906581 17:-1.0301712 18:0.50441677 
-0 1024 0 0 0 0 0 0:-0.27846873 1:0.2009491 2:0.30983142 3:0.30475611 4:-0.29880384 5:0.032017716 6:-0.18933774 7:-1.1340706 8:-0.24776224 9:0.19927367 10:-1.0322232 11:-0.88596478 12:-0.45461547 13:0.07767393 14:-0.29693519 15:-0.150364 16:-0.069460457 17:-1.0292913 18:0.41295815 
-0 1024 0 0 0 0 0 0:-0.2699732 1:0.2009491 2:0.3097067 3:0.3380347 4:-0.31125305 5:-0.05209221 6:-0.20870535 7:-1.0791139 8:-0.51258574 9:0.20100237 10:-0.95556062 11:-0.88596478 12:-0.45461547 13:0.075102268 14:-0.28714829 15:-0.150364 16:-0.04788535 17:-1.0448378 18:0.44536063 
-0 0 0 0 0 0 17.45433925952305 0:-0.34958564 1:0.10008876 2:0.31028898 3:0.35043124 4:-0.32470923 5:-0.1008628 6:-0.34427861 7:-1.0791139 8:-0.64499748 9:0.19270011 10:-1.1088858 11:-0.43776673 12:-0.45461547 13:0.10642979 14:-0.35355941 15:-0.12095007 16:-0.082337204 17:-1.025478 18:0.40877718 
-0 1024 0 0 0 0 0 0:-0.34688636 1:0.15051893 2:0.31045388 3:0.30988973 4:-0.30326644 5:0.0072532771 6:-0.38301383 7:-1.0424761 8:-0.24776224 9:0.21372351 10:-1.0513888 11:-0.69109606 12:-0.45461547 13:0.07954423 14:-0.31161554 15:-0.091536142 16:-0.014429935 17:-1.0463044 18:0.47776312 
-0 1024 0 0 0 0 0 0:-0.28985322 1:0.40266977 2:0.30874036 3:0.26759054 4:-0.26350131 5:0.20725734 6:-0.24744057 7:-1.1340706 8:-0.64499748 9:0.27555465 10:-0.82140112 11:-0.80801729 12:-0.45461547 13:0.11695023 14:-0.3696379 15:-0.17977792 16:-0.12975086 17:-1.0633176 18:0.59692064 
-0 1024 0 0 0 0 0 0:-0.19166444 1:0.45309994 2:0.30767084 3:0.2920232 4:-0.25489486 5:0.15375367 6:0.0043383444 7:-1.0974328 8:-0.71120336 9:0.27905269 10:-1.0705545 11:-0.80801729 12:-0.45461547 13:0.15061563 14:-0.38431825 15:0.43791455 16:0.16441745 17:-1.0545177 18:0.5707896 
-0 781.1707908763835 0 0 0 0 0 0:-0.18543015 1:0.16732898 2:0.30700126 3:0.34015399 4:-0.29205881 5:-0.082034969 6:0.0043383444 7:-1.0974328 8:-0.71120336 9:0.26627913 10:-1.1280514 11:-1.002886 12:-0.51933494 13:0.17703361 14:-0.40563972 15:0.43791455 16:0.25512676 17:-1.0618509 18:0.55249788 
-0 1024 0 0 0 0 0 0:-0.19418772 1:0.10008876 2:0.30735779 3:0.33725346 4:-0.29153545 5:-0.038290125 6:0.0043383444 7:-1.0058382 8:-0.31396812 9:0.27776505 10:-1.0897201 11:-1.0613466 12:-0.51933494 13:0.16955241 14:-0.35635567 15:0.20260313 16:0.16059978 17:-1.0864907 18:0.4976227 
-0 0 0 0 0 149.5754446755874 0 0:-0.069030344 1:-0.15206209 2:0.29907512 3:0.36825594 4:-0.28324143 5:-0.23509936 6:0.19801443 7:-1.0058382 8:-0.51258574 9:0.22005219 10:-1.0130576 11:-1.1003204 12:0.32201821 13:0.31894262 14:-0.39480422 15:0.73205383 16:0.50677694 17:-0.96827856 18:-0.032314683 
-0 1024 0 0 0 0 0 0:-0.15061255 1:-0.00077158159 2:0.30963435 3:0.36602021 4:-0.32313401 5:-0.21671505 6:0.062441171 7:-1.0058382 8:-0.71120336 9:0.2341581 10:-1.0705545 11:-1.0223729 12:-0.51933494 13:0.2539497 14:-0.42521352 15:0.32025884 16:0.18087716 17:-1.0196114 18:0.21122656 
-0 43.24426065075132 0 0 0 0 0 0:-0.29921868 1:-0.00077158159 2:0.31011003 3:0.35858287 4:-0.3266573 5:-0.16260906 6:-0.24744057 7:-1.0974328 8:-0.71120336 9:0.24037543 10:-1.0322232 11:-0.74955667 12:-0.51933494 13:0.15412244 14:-0.40703785 15:0.026119568 16:0.014326389 17:-1.0595043 18:0.51173346 
-0 0 0 0 0 204.0950588685715 0 0:-0.099915519 1:0.21775915 2:0.30080842 3:0.34475898 4:-0.27740606 5:-0.056265825 6:0.17864682 7:-1.1157517 8:-0.71120336 9:0.27529428 10:-1.0705545 11:-0.80801729 12:-0.51933494 13:0.23033716 14:-0.40948457 15:0.82029561 16:0.28621243 17:-1.055691 18:0.46574284 
-0 1024 0 0 0 0 0 0:-0.26308717 1:0.13370887 2:0.30917938 3:0.33554854 4:-0.29999659 5:-0.025921229 6:-0.24744057 7:-1.0791139 8:-0.71120336 9:0.25298087 10:-1.0705545 11:-0.84699103 12:-0.51933494 13:0.14149792 14:-0.35286035 15:0.084947423 16:0.072824191 17:-1.0688908 18:0.47776312 
-0 1024 0 0 0 0 0 0:-0.3008352 1:0.13370887 2:0.31025272 3:0.32186941 4:-0.30663265 5:-0.052099521 6:-0.28617579 7:-1.0791139 8:-0.51258574 9:0.21012628 10:-1.1088858 11:-0.92493852 12:-0.45461547 13:0.072296818 14:-0.32000432 15:-0.062122215 16:0.073062514 17:-1.0442511 18:0.52166325 
-24.86649662152536 0 0 16.28206705179173 0 49.43662410755795 0 0:0.21432393 1:0.41947983 2:0.2807718 3:0.30475701 4:-0.20229622 5:0.72752883 6:0.33358769 7:-0.56618439 8:-0.71120336 9:-0.13259387 10:-0.72557291 11:-0.8664779 12:-0.71349336 13:-0.1610231 14:0.091045599 15:1.3791602 16:1.9026434 17:-0.31591202 18:0.039284352 
-0 1024 0 0 0 0 0 0:-0.26603174 1:0.13370887 2:0.30881004 3:0.32300447 4:-0.30652566 5:-0.04194387 6:-0.26680818 7:-1.1340706 8:-0.71120336 9:0.25629532 10:-1.0705545 11:-1.0808335 12:-0.45461547 13:0.17025378 14:-0.36089959 15:-0.062122215 16:0.030281143 17:-1.0709442 18:0.42497843 
-0 1024 0 0 0 0 0 0:-0.14426844 1:0.21775915 2:0.30594809 3:0.32970127 4:-0.28720703 5:-0.048270241 6:-0.015029264 7:-1.060795 8:-0.44637986 9:0.23073109 10:-1.1472171 11:-1.002886 12:-0.45461547 13:0.16090228 14:-0.35845286 15:0.29084492 16:0.2363422 17:-1.0275313 18:0.34501746 
-0 1024 0 0 0 0 0 0:-0.15567119 1:0.23456921 2:0.30501395 3:0.3089891 4:-0.28721838 5:-0.0060900144 6:-0.015029264 7:-1.1157517 8:-0.44637986 9:0.23027354 10:-1.1088858 11:-0.57417483 12:-0.45461547 13:0.17189029 14:-0.33258748 15:0.26143099 16:0.093929819 17:-1.0301712 18:0.25408146 
-0 1024 0 0 0 0 0 0:-0.23848006 1:0.31861949 2:0.30821337 3:0.29992354 4:-0.27231903 5:0.129449 6:-0.16997014 7:-1.0241571 8:-0.77740923 9:0.2379403 10:-1.0705545 11:-0.84699103 12:-0.45461547 13:0.15692789 14:-0.32280058 15:0.026119568 16:0.024924169 17:-1.0307579 18:0.26662436 
-0 987.432062407187 0 0 0 0 0 0:-0.21453569 1:0.8565413 2:0.30926657 3:0.23337927 4:-0.22837368 5:1.0372729 6:-0.16997014 7:-0.2181251 8:-0.77740923 9:-0.31287637 10:-0.26559748 11:-0.20392427 12:-0.71349336 13:-0.78453434 14:0.028129796 15:0.026119568 16:0.55640001 17:-0.23847282 18:0.4317725 
-0 243.3269637955611 0 0 46.71755693459986 204.9336402586968 0 0:-0.34759924 1:0.55396028 2:0.31073933 3:0.27005343 4:-0.26768843 5:0.94547328 6:-0.28617579 7:-0.19980619 8:-0.77740923 9:-0.36894776 10:-0.24643184 11:0.088378809 12:-0.58405442 13:-0.8394744 14:-0.0040271707 15:-0.032708287 16:0.61682382 17:-0.21940636 18:0.58228726 
-0 788.3133133035612 0 0 0 0 0 0:-0.13219208 1:-0.10163192 2:0.30784323 3:0.37304105 4:-0.32510894 5:-0.25235397 6:0.120544 7:-0.91424369 8:-0.31396812 9:0.1911473 10:-0.91722934 11:-0.90545165 12:-0.51933494 13:0.1510832 14:-0.33957812 15:-0.062122215 16:0.13906415 17:-1.0143314 18:0.27341842 
-8.918393108355424 0 0 0 93.63167366922261 401.0110406830356 0 0:0.52724367 1:0.75568096 2:0.27732812 3:0.31069635 4:-0.22940204 5:0.71001888 6:0.60473422 7:-1.060795 8:-0.71120336 9:-0.041052623 10:-1.1472171 11:-1.1003204 12:-0.77821284 13:-0.080600202 14:-0.053311217 15:0.49674241 16:0.75426196 17:-0.36665816 18:-0.42584807 
-0 0 19.44445040432574 0 0 0 0 0:1.067888 1:1.0918821 2:0.023374469 3:0.24036784 4:0.16485397 5:0.56740958 6:2.1735105 7:-1.060795 8:-0.77740923 9:-0.31367365 10:-1.1472171 11:-1.1003204 12:-0.77821284 13:-0.33075282 14:0.46050118 15:1.6732995 16:1.5274233 17:0.78407653 18:-0.44518503 
-0 0 0 13.11255824575285 23.1390682704928 0 4.735500697679954 0:0.93939892 1:0.18413904 2:0.17060866 3:0.35599627 4:-0.021202023 5:0.083341577 6:2.1735105 7:-1.060795 8:-0.71120336 9:-0.2579913 10:-1.1088858 11:-1.2172416 12:-0.77821284 13:-0.22180785 14:0.41715918 15:1.6732995 16:1.7125083 17:1.634441 18:0.034058146 
-0 0 0 70.30098172157631 0 112.2669242816552 0 0:0.38087406 1:1.2095525 2:0.29905555 3:0.21627973 4:-0.11030557 5:1.7847422 6:0.48852857 7:-1.060795 8:-0.77740923 9:-0.033749227 10:-1.1088858 11:-1.0613466 12:-0.77821284 13:0.043540957 14:-0.0099692188 15:1.4968159 16:1.3631175 17:0.79874304 18:-0.25442848 
-0 0 35.97448155555249 0 0 15.67218512136135 0 0:2.254411 1:2.9914185 2:-1.0161077 3:-1.8290811 4:1.6492043 5:2.490087 6:3.2774642 7:-1.0791139 8:-0.11535049 9:1.3150168 10:-1.1663827 11:-1.0613466 12:-0.51933494 13:1.0967536 14:-0.30252771 15:1.8497831 16:1.5505157 17:0.02845773 18:-1.3613391 
-0 662.3581817489541 0 0 0 0 0 0:-0.11032301 1:0.48672006 2:0.30267304 3:0.22011328 4:-0.19775589 5:0.34994611 6:-0.034396873 7:-1.1707084 8:-0.24776224 9:0.69862298 10:-1.0513888 11:-1.0613466 12:-0.389896 13:0.73695466 14:-1.0673043 15:0.3790867 16:0.15711594 17:-1.1457434 18:0.44379277 
-0 1024 0 0 0 0 0 0:-0.026216266 1:0.26818932 2:0.29479605 3:0.19201101 4:-0.17572685 5:0.38219536 6:0.50789617 7:-1.1340706 8:-0.24776224 9:0.74477464 10:-1.1855483 11:-1.1003204 12:-0.45461547 13:0.79376502 14:-1.140706 15:0.40850063 16:0.25047558 17:-1.1366501 18:0.41348077 
-0 1024 0 0 0 721.1270708883798 0 0:-0.056341331 1:0.30180943 2:0.29898752 3:0.23287607 4:-0.21594833 5:0.24441033 6:0.43042574 7:-1.1707084 8:-0.51258574 9:0.77058884 10:-1.1280514 11:-1.1003204 12:-0.45461547 13:0.82859935 14:-1.1581826 15:0.40850063 16:0.19393033 17:-1.1865163 18:0.48403456 
-0 0 0 0 0 79.78280026170312 0 0:-0.29334123 1:-0.33697271 2:0.30999957 3:0.38322207 4:-0.36254999 5:-0.39495488 6:-0.34427861 7:-0.74937349 8:-0.44637986 9:0.60417188 10:-0.91722934 11:-0.18443739 12:0.38673769 13:0.66681841 14:-1.113093 15:-0.062122215 16:-0.18772336 17:-1.1313702 18:0.70301264 
-179.5520807623273 0 0 0 260.8848425598639 0 218.9823407215071 0:-0.18963528 1:-0.10163192 2:0.30789839 3:0.37145965 4:-0.31667393 5:0.27685128 6:-0.073132091 7:-0.52954657 8:-0.64499748 9:-0.21632311 10:-0.59141341 11:-0.90545165 12:-0.71349336 13:-0.25313537 14:0.24798558 15:0.58498419 16:1.7341397 17:-0.53033645 18:0.41766174 
-0 0 0 0 158.949550875654 0 0 0:-0.13732917 1:0.18413904 2:0.3064717 3:0.29624928 4:-0.26003722 5:0.068597645 6:-0.053764482 7:-1.0791139 8:-0.51258574 9:0.62987962 10:-0.99389191 11:-1.002886 12:-0.45461547 13:0.70188653 14:-1.0302538 15:0.49674241 16:0.38423024 17:-1.1199303 18:0.30268518 
-0 1024 0 0 0 1024 0 0:-0.14842131 1:0.26818932 2:0.3069859 3:0.25438187 4:-0.24118416 5:0.20572001 6:0.120544 7:-1.1523895 8:-0.44637986 9:0.6471235 10:-0.99389191 11:-1.002886 12:-0.45461547 13:0.67663749 14:-1.0113791 15:0.64381205 16:0.2069329 17:-1.1439834 18:0.41452601 
-0 541.4004899045317 0 0 0 0 0 0:-0.091328663 1:0.26818932 2:0.30566298 3:0.29465445 4:-0.23758627 5:0.14833411 6:0.21738204 7:-1.1340706 8:-0.18155637 9:0.65660792 10:-0.95556062 11:-1.158781 12:-0.45461547 13:0.73859117 14:-1.0833827 15:1.2026767 16:0.35256859 17:-1.1073171 18:0.32881622 
-0 0 0 0 68.50991867210519 0 0 0:-0.051768485 1:0.15051893 2:0.30690864 3:0.33469338 4:-0.27532383 5:-0.049530099 6:0.25611726 7:-1.1340706 8:-0.18155637 9:0.6802813 10:-0.99389191 11:-1.1977547 12:-0.45461547 13:0.77693232 14:-1.140007 15:1.4379881 16:0.36282248 17:-1.1266769 18:0.41139029 
-0 873.8776834761187 0 0 405.9205620958966 1024 0 0:-0.26716001 1:0.58758039 2:0.31031685 3:0.20850449 4:-0.2065081 5:0.91978274 6:-0.13123492 7:-0.54786548 8:-0.51258574 9:0.1711794 10:-0.61057905 11:-0.43776673 12:-0.77821284 13:-0.16032174 14:-0.61186374 15:0.76146775 16:1.5503981 17:-0.53532307 18:0.67270064 
-0 1024 0 20.92888855532327 0 612.1375620623292 0 0:0.017309956 1:0.65482062 2:0.29262581 3:0.097604857 4:-0.11508248 5:1.028781 6:0.58536661 7:-0.52954657 8:-0.31396812 9:0.17601461 10:-0.59141341 11:-0.41827985 12:-0.77821284 13:-0.13577405 14:-0.58914414 15:0.58498419 16:1.4772873 17:-0.48487026 18:0.58071939 
-0 701.9608070000214 0 0 34.90341630335655 1024 0 0:-0.23931283 1:0.8565413 2:0.3087298 3:0.26069201 4:-0.24034224 5:0.23791947 6:-0.20870535 7:-0.87760586 8:-0.38017399 9:0.44623605 10:-0.80223548 11:-0.82750416 12:-0.389896 13:0.46248814 14:-0.72685985 15:0.58498419 16:0.60210003 17:-1.0407311 18:0.21906587 
-0 0 0 0 0 710.8643876878861 0 0:0.72966269 1:0.97421169 2:0.083292286 3:-0.035027311 4:0.16746465 5:0.70749537 6:1.0308216 7:-1.1523895 8:-0.64499748 9:0.60865751 10:-1.1280514 11:-1.1977547 12:-0.58405442 13:0.69393776 14:-0.38781357 15:1.1732627 16:1.4201626 17:-1.0304646 18:0.077435663 
-0 0 0 0 0 158.4872561642187 0 0:0.36459106 1:0.50353011 2:0.21616325 3:0.17546589 4:-0.090033655 5:0.33837054 6:0.95335118 7:-0.98751933 8:-0.71120336 9:0.59260717 10:-1.1280514 11:-1.1977547 12:-0.51933494 13:0.67780642 14:-0.57271613 15:0.58498419 16:0.60973814 17:-1.1460367 18:-0.047993304 
-0 798.5977133821758 0 0 0 0 0 0:0.034488737 1:0.46991 2:0.28567426 3:0.30080082 4:-0.23883978 5:0.065000179 6:0.50789617 7:-0.98751933 8:-0.57879161 9:0.48192972 10:-1.0897201 11:-1.0808335 12:-0.51933494 13:0.60205928 14:-0.59473666 15:0.26143099 16:0.27742882 17:-1.1137704 18:-0.13736144 
-0 376.6272835895097 0 0 0 0 0 0:0.075837508 1:-0.11844198 2:0.27955428 3:0.33777186 4:-0.25444288 5:-0.078640445 6:0.74030748 7:-1.0791139 8:-0.64499748 9:0.49845928 10:-1.1088858 11:-1.1782679 12:-0.51933494 13:0.6296462 14:-0.64367117 15:0.40850063 16:0.3198343 17:-1.1272636 18:-0.10077799 
-0 1024 0 0 0 0 0 0:0.18156358 1:0.80611113 2:0.25962849 3:0.17594051 4:-0.1248192 5:0.38053952 6:0.39169052 7:-1.1340706 8:-0.71120336 9:0.67024864 10:-1.1280514 11:-1.158781 12:-0.45461547 13:0.79493396 14:-0.82962233 15:0.73205383 16:0.64087916 17:-1.1208103 18:-0.176558 
-0 0 0 0 0 418.3462028705897 0 0:0.0981336 1:0.80611113 2:0.27921117 3:0.21885191 4:-0.15612409 5:0.27749103 6:0.39169052 7:-1.060795 8:-0.77740923 9:0.6471613 10:-1.204714 11:-1.0613466 12:-0.45461547 13:0.78932306 14:-0.847798 15:0.73205383 16:0.76430159 17:-1.1079038 18:-0.176558 
-0 0 4.953088392242948 0 0 0 0 0:0.57154134 1:0.43628989 2:0.13842753 3:0.22107392 4:-0.022122827 5:0.33023745 6:1.3988062 7:-1.1157517 8:-0.57879161 9:0.93242778 10:-1.1280514 11:-1.1977547 12:-0.389896 13:1.1250419 14:-0.80969899 15:0.55557026 16:0.8227892 17:-1.2806753 18:-0.60615221 
-0 0 19.0226134300315 0 0 0 0 0:0.55005527 1:0.43628989 2:0.13413645 3:0.20449033 4:-0.027533912 5:0.30440128 6:1.2632329 7:-1.0791139 8:-0.64499748 9:1.0185862 10:-1.1663827 11:-1.158781 12:-0.64877389 13:1.1591749 14:-0.93203527 15:0.79088168 16:0.85593581 17:-1.3724877 18:-0.35581689 
-0 1024 0.2828892201082497 0 0 0 0 0:0.26066453 1:0.60439045 2:0.25235901 3:0.12221812 4:-0.088260109 5:0.41003087 6:1.108292 7:-1.0791139 8:-0.64499748 9:0.81383727 10:-1.1855483 11:-1.0613466 12:-0.45461547 13:0.92001026 14:-0.81983542 15:1.085021 16:0.78988612 17:-1.2551556 18:-0.1969402 
-0 0 0 2.567523822750779 0 0 0 0:0.57271139 1:0.38585972 2:0.096649117 3:0.13623339 4:0.023837747 5:0.38428508 6:0.44979335 7:-1.1157517 8:-0.64499748 9:1.1049488 10:-1.204714 11:-1.1977547 12:-0.389896 13:1.2473128 14:-0.83102046 15:0.93795132 16:1.0611782 17:-1.436727 18:-0.61974035 
-0 0 0 16.04884841059868 0 0 0 0:0.30934293 1:0.16732898 2:0.24358854 3:0.25021237 4:-0.033409021 5:0.21995953 6:0.58536661 7:-1.1707084 8:-0.71120336 9:0.81149839 10:-1.1472171 11:-1.158781 12:-0.389896 13:0.91299664 14:-0.77754202 15:1.6144717 16:1.5409674 17:-1.2416624 18:-0.18387468 
-0 1024 0 0 0 0 0 0:0.13728619 1:0.26818932 2:0.27768563 3:0.1998526 4:-0.091965048 5:0.26953716 6:0.44979335 7:-1.1157517 8:-0.44637986 9:0.64429781 10:-1.1663827 11:-1.1392941 12:-0.45461547 13:0.74911161 14:-0.76950278 15:1.6144717 16:1.2026633 17:-1.1234503 18:-0.056877856 
-0 1024 0 0 0 1024 0 0:0.12141939 1:0.58758039 2:0.27350714 3:-0.04829004 4:0.000969828 5:0.85187433 6:0.120544 7:-0.98751933 8:-0.64499748 9:0.55174796 10:-1.0705545 11:-1.0613466 12:-0.45461547 13:0.42812138 14:-0.56362829 15:0.52615634 16:1.0175285 17:-1.0028915 18:-0.011409855 
-0 0 10.45287920318149 0.5236034910998183 0 0 0 0:2.4432185 1:2.9073682 2:-1.3996974 3:-3.5709372 4:2.7606604 5:2.9558339 6:3.0644205 7:-0.96920042 8:-0.11535049 9:2.071462 10:-1.0513888 11:-1.0418597 12:-0.51933494 13:1.7918038 14:-1.2693339 15:3.2616516 16:3.5921595 17:-0.41916428 18:-0.82983387 
-0 346.1002020921833 0 0 0 0 0 0:-0.39194636 1:0.066468644 2:0.31037173 3:0.3195173 4:-0.32677194 5:-0.053921602 6:-0.44111666 7:-1.1157517 8:-0.51258574 9:0.30212052 10:-0.55308212 11:-0.43776673 12:-0.51933494 13:0.38159767 14:-0.54055916 15:-0.38567542 16:-0.30177958 17:-1.0442511 18:0.099385733 
-0 0 0 0 0 21.80786939951039 0 0:-0.3459932 1:0.2009491 2:0.30984393 3:0.22355986 4:-0.27013096 5:0.21872933 6:-0.38301383 7:-1.1707084 8:-0.71120336 9:0.41052503 10:-0.36142569 11:-0.74955667 12:-0.51933494 13:0.48165872 14:-0.53496665 15:-0.26801971 16:-0.28942462 17:-1.1002772 18:-0.032837304 
-0 1024 0 0 0 0 0 0:-0.31581357 1:0.23456921 2:0.3093051 3:0.26771414 4:-0.27907794 5:0.15550292 6:-0.32491101 7:-1.1707084 8:-0.71120336 9:0.35627401 10:-1.0130576 11:-0.71058293 12:-0.51933494 13:0.41362656 14:-0.48393494 15:-0.12095007 16:-0.19324775 17:-1.0744641 18:-0.0030479239 
-0 1024 0 0 0 0 0 0:-0.30694149 1:0.26818932 2:0.30931012 3:0.2637102 4:-0.27760364 5:0.15814354 6:-0.28617579 7:-1.1890273 8:-0.44637986 9:0.32653324 10:-1.0130576 11:-1.0613466 12:-0.51933494 13:0.37879222 14:-0.45667142 15:-0.12095007 16:-0.18875713 17:-1.0533443 18:-0.0035705446 
-0 0 0 0 0 52.86314840629511 0 0:-0.2711753 1:0.33542955 2:0.30825351 3:0.15682186 4:-0.2286451 5:0.36469173 6:-0.20870535 7:-1.1707084 8:-0.71120336 9:0.44736868 10:-1.0705545 11:-0.82750416 12:-0.45461547 13:0.50176444 14:-0.52203395 15:-0.150364 16:-0.22760331 17:-1.1058505 18:-0.087189856 
-0 0 0 0 0 1024 0 0:-0.28773662 1:0.62120051 2:0.30841957 3:0.010976298 4:-0.16658777 5:0.56976338 6:-0.34427861 7:-1.1523895 8:-0.64499748 9:0.57540909 10:-1.0513888 11:-0.90545165 12:-0.45461547 13:0.54852194 14:-0.5821535 15:-0.12095007 16:-0.013402918 17:-1.185343 18:0.039806973 
-0 0 0 0 0 323.532615799909 0 0:-0.21997097 1:0.52034017 2:0.30591512 3:0.0024384815 4:-0.15215141 5:0.5829799 6:-0.24744057 7:-1.1523895 8:-0.71120336 9:0.53263076 10:-1.1280514 11:-1.0613466 12:-0.45461547 13:0.48797098 14:-0.48148821 15:-0.0032943599 16:0.0024173889 17:-1.1653965 18:-0.0056610274 
-0 1024 0 0 0 0 0 0:-0.18373861 1:0.26818932 2:0.30786903 3:0.15854453 4:-0.22308822 5:0.32604554 6:-0.034396873 7:-1.1890273 8:-0.44637986 9:0.48489826 10:-1.1663827 11:-0.98339913 12:-0.45461547 13:0.47768433 14:-0.46995365 15:-0.0032943599 16:-0.051394955 17:-1.1759564 18:0.05234987 
-0 1024 0 0 0 0 0 0:-0.17376177 1:0.52034017 2:0.30678814 3:0.018168682 4:-0.1577687 5:0.54041481 6:-0.034396873 7:-1.1707084 8:-0.71120336 9:0.52415071 10:-1.1663827 11:-0.98339913 12:-0.45461547 13:0.41573064 14:-0.41332943 15:-0.062122215 16:0.021874203 17:-1.2003028 18:0.15269304 
-0 1024 0 0 0 0 0 0:-0.22039285 1:0.43628989 2:0.30684412 3:0.074337476 4:-0.17853894 5:0.49435362 6:-0.20870535 7:-1.1707084 8:-0.64499748 9:0.44120882 10:-1.0513888 11:-0.98339913 12:-0.45461547 13:0.37318132 14:-0.43674809 15:0.026119568 16:0.098751524 17:-1.1123037 18:0.085274974 
-0 958.3691508509029 0 0 0 0 0 0:-0.27605602 1:0.53715022 2:0.31022043 3:0.13698321 4:-0.22299613 5:0.35245634 6:-0.22807296 7:-1.1707084 8:-0.64499748 9:0.43884657 10:-1.1088858 11:-0.98339913 12:-0.45461547 13:0.39726143 14:-0.44478733 15:-0.12095007 16:-0.023629078 17:-1.1431034 18:0.10147622 
-0 1024 0 0 0 0 0 0:-0.30813341 1:0.33542955 2:0.31069018 3:0.1232432 4:-0.22311019 5:0.36896279 6:-0.22807296 7:-1.1890273 8:-0.44637986 9:0.4620285 10:-1.1088858 11:-0.98339913 12:-0.45461547 13:0.44004454 14:-0.49826576 15:-0.12095007 16:-0.087325934 17:-1.1477967 18:0.094159526 
-0 1024 0 0 0 0 0 0:-0.3137494 1:0.33542955 2:0.30997461 3:0.20557537 4:-0.24983815 5:0.26865927 6:-0.34427861 7:-1.1890273 8:-0.71120336 9:0.33040583 10:-1.1472171 11:-0.90545165 12:-0.45461547 13:0.27195134 14:-0.40214439 15:-0.17977792 16:-0.079709946 17:-1.0756374 18:0.19345746 
-0 1024 0 0 0 0 0 0:-0.27451108 1:0.13370887 2:0.30997013 3:0.25534069 4:-0.27514369 5:0.15544037 6:-0.15060253 7:-1.1890273 8:-0.44637986 9:0.30363639 10:-1.0513888 11:-0.88596478 12:-0.45461547 13:0.30935734 14:-0.39620235 15:-0.23860578 16:-0.14121315 17:-1.0580376 18:0.077958284 
-0 1024 0 0 0 0 0 0:-0.30018377 1:0.016038475 2:0.31017761 3:0.2609904 4:-0.28026989 5:0.12574166 6:-0.15060253 7:-1.1157517 8:-0.44637986 9:0.36138975 10:-1.0513888 11:-0.88596478 12:-0.45461547 13:0.40754808 14:-0.50071249 15:-0.12095007 16:-0.051878306 17:-1.0800374 18:0.053917732 
-11.34246009857706 1024 0 0 0 0 0 0:-0.32223966 1:0.25137927 2:0.31049899 3:0.2110377 4:-0.24720276 5:0.29122966 6:-0.26680818 7:-1.1707084 8:0.083267127 9:0.42210536 10:-1.1280514 11:-0.41827985 12:-0.51933494 13:0.40123582 14:-0.43010697 15:-0.12095007 16:-0.16520678 17:-1.1448634 18:0.072732077 
-0 1024 0 0 0 0 0 0:-0.24385393 1:0.36904966 2:0.30854483 3:0.084904272 4:-0.1841537 5:0.4871523 6:-0.18933774 7:-1.1890273 8:-0.71120336 9:0.47442943 10:-1.1280514 11:-0.90545165 12:-0.51933494 13:0.40006688 14:-0.43325276 15:-0.12095007 16:-0.077377971 17:-1.1574766 18:0.10565718 
-0 1024 0 0 0 0 0 0:-0.23780436 1:0.43628989 2:0.30798894 3:0.020792173 4:-0.15695959 5:0.57382266 6:-0.18933774 7:-1.1890273 8:-0.71120336 9:0.48867288 10:-1.1855483 11:-1.0418597 12:-0.45461547 13:0.41876988 14:-0.47659476 15:-0.062122215 16:-0.029463899 17:-1.1366501 18:0.093636905 
-0 1024 0 0 0 0 0 0:-0.24536399 1:0.36904966 2:0.30744904 3:0.14421111 4:-0.21096774 5:0.39804648 6:-0.32491101 7:-1.1707084 8:-0.44637986 9:0.39547827 10:-1.1088858 11:-1.1198072 12:-0.45461547 13:0.35097151 14:-0.44024341 15:-0.032708287 16:-0.054757357 17:-1.0920639 18:0.10304408 
-0 1024 0 0 0 0 0 0:-0.22199673 1:0.31861949 2:0.30758256 3:0.18910581 4:-0.22680985 5:0.32528776 6:-0.20870535 7:-1.1707084 8:-0.71120336 9:0.40238469 10:-1.0705545 11:-1.0223729 12:-0.51933494 13:0.37060966 14:-0.3902603 15:-0.12095007 16:-0.041569778 17:-1.119637 18:0.034580766 
-0 1024 0 0 0 0 0 0:-0.20049097 1:0.31861949 2:0.30704368 3:0.2570565 4:-0.2582682 5:0.17502403 6:-0.16997014 7:-1.1890273 8:-0.51258574 9:0.40394186 10:-1.0705545 11:-1.0223729 12:-0.51933494 13:0.44775953 14:-0.43569949 15:-0.062122215 16:0.029587523 17:-1.114357 18:-0.07516958 
-0 552.2547084713755 0 0 0 0 0 0:-0.19579718 1:0.30180943 2:0.30681694 3:0.22886305 4:-0.24466457 5:0.24732804 6:-0.16997014 7:-1.1890273 8:-0.77740923 9:0.42427462 10:-1.0513888 11:-0.92493852 12:-0.45461547 13:0.46529359 14:-0.50246015 15:-0.062122215 16:-0.013131295 17:-1.1073171 18:-0.028133717 
-0 1024 0 0 0 0 0 0:-0.27827462 1:0.57077034 2:0.30809125 3:0.096739299 4:-0.19124561 5:0.46376849 6:-0.3055434 7:-1.1890273 8:-0.44637986 9:0.45468034 10:-1.1088858 11:-0.98339913 12:-0.45461547 13:0.38136388 14:-0.43919481 15:-0.062122215 16:0.032560411 17:-1.1401701 18:0.12029056 
-0 207.6651548490238 0 0 0 0 0 0:-0.27457595 1:0.31861949 2:0.30822212 3:0.14562979 4:-0.21644955 5:0.37681676 6:-0.15060253 7:-1.1157517 8:-0.71120336 9:0.41735043 10:-1.1663827 11:-1.0418597 12:-0.45461547 13:0.37668813 14:-0.42032007 15:-0.12095007 16:-0.041215518 17:-1.1237436 18:0.08266187 
-0 1024 0 0 0 0 0 0:-0.29488226 1:0.53715022 2:0.30900341 3:0.15077475 4:-0.21697928 5:0.39104231 6:-0.36364622 7:-1.1707084 8:-0.44637986 9:0.45630352 10:-1.1663827 11:-1.0418597 12:-0.51933494 13:0.39632628 14:-0.45632189 15:-0.150364 16:-0.07494784 17:-1.1557166 18:0.13910491 
-0 661.051130289824 0 0 0 0 0 0:-0.26883487 1:0.18413904 2:0.30806488 3:0.23439654 4:-0.25865925 5:0.22683016 6:-0.22807296 7:-1.1340706 8:-0.44637986 9:0.42702763 10:-0.93639498 11:-0.84699103 12:-0.45461547 13:0.37715571 14:-0.4119313 15:-0.12095007 16:-0.095121354 17:-1.1686231 18:0.14380849 
-0 1024 0 0 0 0 0 0:-0.28275253 1:0.26818932 2:0.30927943 3:0.18399978 4:-0.23363521 5:0.31127022 6:-0.32491101 7:-1.1523895 8:-0.71120336 9:0.39592838 10:-1.0897201 11:-0.94442539 12:-0.51933494 13:0.34045107 14:-0.39480422 15:-0.091536142 16:-0.017070361 17:-1.1260902 18:0.12447153 
-0 0 0 0 0 918.237242650799 0 0:-0.22404839 1:0.87335135 2:0.30954879 3:0.08669335 4:-0.16453338 5:1.3050133 6:-0.26680818 7:-0.38299529 8:-0.71120336 9:0.0063951114 10:-0.43808827 11:-0.20392427 12:-0.45461547 13:-0.50445692 14:-0.13370363 15:0.026119568 16:0.73412445 17:-0.445564 18:0.40720932 
-1.205250258259082 0 47.93423059076962 3.19441430145827 16.85995457434924 0 0 0:2.4038111 1:2.1677257 2:-1.4386927 3:-1.4244054 4:1.7724998 5:2.2202515 6:2.8320092 7:-0.36467638 8:-0.24776224 9:1.1068149 10:-0.41892262 11:-0.18443739 12:-0.51933494 13:0.28036769 14:-0.31511087 15:1.7909552 16:1.8790946 17:-0.083887767 18:-0.11384351 
-0 -1024 0 0 0 0 14.0043944199963 0:-0.053383015 1:0.15051893 2:0.29521 3:0.33023391 4:-0.29298181 5:-0.049353679 6:0.10117639 7:-1.1523895 8:-0.77740923 9:0.015665722 10:-1.0897201 11:-1.1198072 12:-0.51933494 13:0.14290064 14:-0.15467557 15:-0.062122215 16:0.12462958 17:-0.75004083 18:-0.46818034 
-23.95298783518539 -1024 0 12.27733669570169 318.8095658067181 385.1538068911846 31.18057365553431 0:-0.087822765 1:-0.034391694 2:0.2968973 3:0.33903074 4:-0.30734831 5:-0.12092231 6:0.062441171 7:-1.1340706 8:-0.71120336 9:0.047010806 10:-0.97472627 11:-1.158781 12:-0.51933494 13:0.21303689 14:-0.19172598 15:-0.091536142 16:0.0762281 17:-0.77233393 18:-0.52984959 
-0 -1024 0 0 197.5674409582394 0 11.16287938574278 0:-0.10129722 1:0.10008876 2:0.30470792 3:0.35017548 4:-0.29817786 5:-0.08090175 6:-0.034396873 7:-0.89592478 8:-0.51258574 9:0.31611949 10:-0.95556062 11:-0.84699103 12:-0.51933494 13:0.28901782 14:-0.50001342 15:-0.062122215 16:0.22097189 17:-1.0724108 18:0.5404776 
-0 -1024 0 0 0 0 0 0:-0.090695366 1:0.30180943 2:0.29956553 3:0.2330619 4:-0.25063251 5:0.21658764 6:0.10117639 7:-1.0241571 8:-0.64499748 9:0.37310544 10:-0.87889805 11:-0.7300698 12:-0.45461547 13:0.41923746 14:-0.63388427 15:-0.29743363 16:-0.20035441 17:-1.024598 18:0.14694422 
-0 -1024 0 0 0 0 0 0:-0.20138885 1:0.28499938 2:0.30699786 3:0.1858526 4:-0.23687353 5:0.31519405 6:-0.18933774 7:-1.1340706 8:-0.71120336 9:0.37909792 10:-0.95556062 11:-1.0613466 12:-0.51933494 13:0.34442546 14:-0.55488998 15:-0.17977792 16:-0.17702733 17:-1.0662509 18:0.29641373 
-0 -316.3992754615974 0 0 198.5858206468988 416.4729043520695 0 0:-0.33607342 1:0.28499938 2:0.31031245 3:0.307795 4:-0.31309289 5:0.018651912 6:-0.22807296 7:-0.12653054 8:-0.71120336 9:0.3644962 10:0.041052807 11:0.068891938 12:-0.58405442 13:0.36453118 14:-0.63598146 15:-0.32684756 16:-0.35754801 17:-1.0794507 18:0.36069608 
-0 -1024 0 0 0 0 40.08717087341152 0:-0.22131559 1:0.032848531 2:0.30644882 3:0.31385478 4:-0.29841522 5:-0.0012834997 6:-0.13123492 7:-1.0974328 8:-0.77740923 9:0.27819121 10:-1.0130576 11:-0.76904355 12:-0.58405442 13:0.18919056 14:-0.43534996 15:-0.062122215 16:-0.034583143 17:-1.0683042 18:0.64291126 
-0 -1024 0 0 0 0 0 0:-0.12910582 1:0.066468644 2:0.30312239 3:0.33869262 4:-0.30824483 5:-0.11154718 6:-0.034396873 7:-1.0241571 8:-0.77740923 9:0.24542856 10:-0.82140112 11:-0.57417483 12:-0.58405442 13:0.33133336 14:-0.44968078 15:-0.091536142 16:-0.016038975 17:-0.99731826 18:0.021515249 
-0 -1024 0 0 0 0 0 0:-0.081070279 1:0.032848531 2:0.30321383 3:0.32127986 4:-0.29683041 5:-0.037067709 6:0.062441171 7:-1.0241571 8:-0.71120336 9:0.30330168 10:-0.82140112 11:-0.76904355 12:-0.58405442 13:0.31356551 14:-0.46121534 15:-0.150364 16:-0.11786007 17:-1.0677175 18:0.30843401 
-0 -876.9410124256867 0 0 0 0 0 0:-0.22770339 1:0.52034017 2:0.30841664 3:0.11857027 4:-0.17751189 5:0.72581221 6:0.023705953 7:-0.82264913 8:-0.71120336 9:0.021430108 10:-0.8980637 11:-0.80801729 12:-0.77821284 13:-0.24845962 14:-0.24555395 15:-0.0032943599 16:0.4584085 17:-0.69401475 18:0.57549319 
-4.353659243121295 -1024 0 0 427.1516163202363 0 34.20735174808649 0:-0.27071262 1:0.30180943 2:0.30937594 3:0.16442392 4:-0.21449073 5:0.61441388 6:-0.32491101 7:-0.80433022 8:-0.77740923 9:-0.052012775 10:-0.87889805 11:-0.78853042 12:-0.71349336 13:-0.29147652 14:-0.19032786 15:-0.0032943599 16:0.38756705 17:-0.66849501 18:0.4369987 
-0 -121.336187593474 21.69338426517036 0 0 0 0 0:0.44625979 1:0.30180943 2:0.23485199 3:0.21867898 4:-0.093422506 5:0.26400567 6:1.8829964 7:-1.1707084 8:-0.51258574 9:0.50430836 10:-0.95556062 11:-1.0418597 12:-0.51933494 13:0.64975192 14:-0.78033828 15:1.8203691 16:0.62854193 17:-0.90550588 18:-0.34379662 
-0 -118.5066620561428 0 0 0 0 0 0:0.55373405 1:0.26818932 2:0.17231519 3:0.17219335 4:0.024233555 5:0.4091309 6:1.0308216 7:-1.1340706 8:-0.44637986 9:0.49570426 10:-1.1855483 11:-1.2172416 12:-0.45461547 13:0.62660696 14:-0.6027759 15:2.5263034 16:1.0055992 17:-0.85387975 18:-0.55650324 
-1.756388044670517 -121.0017220334829 43.52826926435134 8.53084440615142 0 0 0 0:0.61157648 1:0.97421169 2:0.19265636 3:0.11939443 4:0.044488987 5:0.92144238 6:1.9217316 7:-1.0974328 8:-0.44637986 9:0.10075585 10:-1.1855483 11:-1.1977547 12:-0.45461547 13:0.059438506 14:-0.044922443 15:2.0262666 16:1.6743131 17:-0.25812595 18:-0.60510697 
-0 -213.2836605510919 8.434225529616862 0 0 288.8977187252617 0 0:0.50780042 1:1.1086921 2:0.21876527 3:0.10417186 4:0.0047137267 5:0.93826849 6:2.2897162 7:-1.0974328 8:-0.31396812 9:0.084573494 10:-1.1855483 11:-1.1977547 12:-0.51933494 13:0.076271205 14:-0.019057057 15:1.2909184 16:1.580542 17:-0.28071238 18:-0.62339869 
-0 -0 0 0 0 8.243266113714791 0 0:0.37371179 1:0.53715022 2:0.22926383 3:0.059231511 4:-0.017446895 5:0.52376544 6:1.3407034 7:-1.1707084 8:-0.44637986 9:0.49943698 10:-1.1088858 11:-1.1977547 12:-0.51933494 13:0.6165541 14:-0.61081514 15:1.467402 16:0.77317043 17:-0.90345257 18:-0.47863276 
-0 -0 0 0 38.7503774993559 0 0 0:0.073905733 1:0.31861949 2:0.2810191 3:0.17450486 4:-0.15125737 5:0.32556778 6:0.23674965 7:-1.1340706 8:-0.51258574 9:0.64665906 10:-1.1280514 11:-1.2172416 12:-0.45461547 13:0.78651761 14:-0.91840352 15:0.61439812 16:0.59885649 17:-1.0844374 18:-0.11697924 
-0 -1024 0 0 0 966.2398720512691 0 0:-0.10168659 1:0.28499938 2:0.2998551 3:0.17123992 4:-0.17855026 5:0.35869607 6:-0.13123492 7:-1.1340706 8:-0.71120336 9:0.61692052 10:-1.1855483 11:-1.0223729 12:-0.45461547 13:0.74887782 14:-0.92224837 15:0.58498419 16:0.41763566 17:-1.0750508 18:-0.083531511 
-0 -1024 0 0 0 0 0 0:-0.079637085 1:0.31861949 2:0.30231382 3:0.18727956 4:-0.17428267 5:0.32422347 6:0.043073562 7:-1.1707084 8:-0.51258574 9:0.62458324 10:-1.1663827 11:-1.158781 12:-0.45461547 13:0.73718845 14:-0.91071381 15:0.46732848 16:0.57000457 17:-1.0911839 18:-0.043812338 
-0 -0 25.95895822889201 0 0 0 0 0:0.45278367 1:0.28499938 2:0.22408766 3:0.19543992 4:0.010610561 5:0.33437108 6:1.8442612 7:-1.1523895 8:-0.51258574 9:0.59733273 10:-1.2430453 11:-1.2562153 12:-0.51933494 13:0.73344785 14:-0.86387649 15:2.6439591 16:1.3527633 17:-0.90902584 18:-0.28683096 
-0 -0 0 0 0 263.3355686894133 0 0:0.17075748 1:0.55396028 2:0.27394618 3:0.027189982 4:-0.094918934 5:0.52334606 6:1.011454 7:-1.1523895 8:-0.64499748 9:0.66154838 10:-1.1088858 11:-1.1003204 12:-0.45461547 13:0.78488109 14:-0.87261479 15:0.52615634 16:0.34655325 17:-1.0923573 18:-0.075692201 
-0 -0 0 0 0 214.2727867738612 0 0:0.2196993 1:0.55396028 2:0.26895348 3:0.042420418 4:-0.062694254 5:0.5533975 6:1.4181738 7:-1.1707084 8:-0.31396812 9:0.68347164 10:-1.0513888 11:-1.158781 12:-0.51933494 13:0.78417973 14:-0.86667274 15:1.5556438 16:0.58792478 17:-1.1005705 18:-0.027611097 
-2.534916557996247 -1024 20.46987375634157 38.62282474692078 482.3391148395861 882.0334434984421 0 0:0.080044078 1:0.36904966 2:0.29138817 3:0.22189659 4:-0.18719317 5:0.80809373 6:0.33358769 7:-0.60282221 8:-0.64499748 9:0.088555594 10:-0.66807598 11:-0.65212232 12:-0.77821284 13:-0.073586577 14:-0.48148821 15:0.93795132 16:1.3034295 17:-0.49103019 18:0.11610959 
-0 -951.3181267045321 0 0 0 0 0 0:0.13248657 1:0.2009491 2:0.27776669 3:0.23703711 4:-0.17103897 5:0.2514105 6:0.46916096 7:-1.0974328 8:-0.64499748 9:0.60551343 10:-1.1472171 11:-1.1782679 12:-0.51933494 13:0.78160807 14:-0.86562415 15:0.82029561 16:0.55639528 17:-1.0727041 18:-0.12534117 
-0 -0 0 0 0 1024 0 0:0.037417007 1:0.75568096 2:0.28874148 3:0.0053231663 4:-0.075020172 5:0.6241704 6:0.21738204 7:-1.1340706 8:-0.51258574 9:0.74251026 10:-1.1663827 11:-1.1782679 12:-0.51933494 13:0.81129908 14:-0.89638298 15:1.0261931 16:0.5968487 17:-1.1565966 18:-0.044334959 
-18.56334080446428 -276.8370150710439 0 0 0 490.3237216582199 0 0:-0.11768383 1:0.63801056 2:0.30833766 3:0.2370095 4:-0.21882692 5:1.0285203 6:0.120544 7:-0.16316837 8:-0.18155637 9:-0.17423362 10:-0.20810055 11:-0.087003036 12:-0.71349336 13:-0.59750435 14:-0.26897261 15:0.3790867 16:1.3812238 17:-0.19153998 18:0.43281774 
-0 -0 0 27.65962608201472 0 0 0 0:-0.10424508 1:0.65482062 2:0.30822373 3:0.086223771 4:-0.13948475 5:1.19704 6:0.0043383444 7:-0.14484946 8:-0.71120336 9:-0.051343351 10:-0.18893491 11:-0.14546365 12:-0.45461547 13:-0.55121442 14:-0.33852953 15:0.79088168 16:1.6430698 17:-0.18420672 18:0.35756036 
-0 -142.835853781288 49.00882813977122 0 0 28.14741738459718 0 0:1.0218203 1:0.94059158 2:-0.021861548 3:0.082933064 4:0.27791937 5:0.58261072 6:2.2703486 7:-1.1523895 8:-0.31396812 9:0.81048343 10:-1.204714 11:-1.2757022 12:-0.51933494 13:0.91837375 14:-0.79292144 15:1.9380249 16:1.5225954 17:-0.96270528 18:-0.42950641 
-0 -1024 0 0 0 0 0 0:0.14746996 1:0.48672006 2:0.2810113 3:0.18929084 4:-0.12302849 5:0.33543713 6:0.81777792 7:-1.0424761 8:-0.64499748 9:0.7610994 10:-1.1280514 11:-1.1392941 12:-0.45461547 13:0.89803424 14:-0.92539416 15:1.4379881 16:0.83535118 17:-1.1674498 18:-0.22986531 
-0 -1024 0 0 0 440.9669389871972 0 0:0.04374765 1:0.53715022 2:0.28502674 3:0.14433539 4:-0.15260424 5:0.38584875 6:0.37232291 7:-1.1523895 8:-0.71120336 9:0.74344854 10:-1.1280514 11:-1.1977547 12:-0.45461547 13:0.89265713 14:-0.89638298 15:0.55557026 16:0.44900779 17:-1.1879829 18:-0.22254862 
-0 -1024 0 0 0 0 0 0:0.014331267 1:0.30180943 2:0.29175339 3:0.20108737 4:-0.18078463 5:0.32586561 6:0.39169052 7:-1.1523895 8:-0.64499748 9:0.68931483 10:-1.2238796 11:-1.1198072 12:-0.45461547 13:0.75472251 14:-0.95021095 15:0.23201706 16:0.34007333 17:-1.1747831 18:0.27550891 
-0 -0 0 0 0 519.6375498415123 0 0:-0.018144554 1:0.48672006 2:0.29698486 3:0.16535408 4:-0.18185504 5:0.39325827 6:0.3529553 7:-1.1523895 8:-0.11535049 9:0.63432724 10:-1.0130576 11:-1.1003204 12:-0.45461547 13:0.75191706 14:-0.9432203 15:0.23201706 16:0.077675504 17:-1.0970506 18:0.026218835 
-0 -0 0 0 0 1024 0 0:0.1075725 1:0.78930107 2:0.27902074 3:-0.033442785 4:-0.051391763 5:0.63121968 6:0.46916096 7:-1.0974328 8:-0.64499748 9:0.72884813 10:-1.1663827 11:-1.1977547 12:-0.45461547 13:0.81083151 14:-0.95859972 15:0.87912346 16:0.66757818 17:-1.0973439 18:-0.028656338 
-0 -0 0 0 0 752.7912465670738 0 0:0.070190172 1:0.7388709 2:0.2894606 3:0.079128352 4:-0.10876512 5:0.55925637 6:0.52726378 7:-1.0974328 8:-0.64499748 9:0.6803613 10:-1.0897201 11:-1.1977547 12:-0.51933494 13:0.7399939 14:-0.91840352 15:0.55557026 16:0.27490374 17:-1.1228636 18:0.1464216 
-0 -0 0 0 42.43325086150816 0 0 0:-0.10213039 1:0.23456921 2:0.30326928 3:0.16924615 4:-0.19087628 5:0.33944721 6:0.0043383444 7:-1.1707084 8:-0.11535049 9:0.60267039 10:-1.0705545 11:-1.1782679 12:-0.51933494 13:0.71427727 14:-0.96733803 15:0.40850063 16:0.3506205 17:-1.0606776 18:0.073254698 
-0 -535.8814379480388 0 0 0 0 0 0:0.08811777 1:0.58758039 2:0.28827717 3:0.14715791 4:-0.058406708 5:0.42692503 6:0.60473422 7:-1.1523895 8:-0.31396812 9:0.78149886 10:-1.1855483 11:-1.0808335 12:-0.45461547 13:0.83982115 14:-1.0522744 15:1.1144349 16:1.215867 17:-1.1343035 18:0.17203001 
-0 -558.3490691637567 0 0 0 1024 0 0:0.03697763 1:0.58758039 2:0.29027365 3:0.15448155 4:-0.1089888 5:0.44789553 6:0.43042574 7:-1.1523895 8:-0.57879161 9:0.74632658 10:-1.1088858 11:-1.0808335 12:-0.26045705 13:0.80218137 14:-0.99250435 15:1.0261931 16:0.76489266 17:-1.1589432 18:0.15217042 
-0 -1024 0 0 0 0 0 0:-0.024103654 1:0.52034017 2:0.30176718 3:0.24506818 4:-0.18798689 5:0.25336366 6:0.33358769 7:-1.1157517 8:-0.44637986 9:0.62879509 10:-1.1088858 11:-1.158781 12:-0.389896 13:0.71801787 14:-0.95056048 15:0.79088168 16:0.57666379 17:-1.1043838 18:0.16784904 
-0 -0 0 0 38.09718151656987 0 0 0:0.083717484 1:0.41947983 2:0.2849211 3:0.18184812 4:-0.16638202 5:0.33040708 6:0.27548487 7:-1.1890273 8:-0.44637986 9:0.63438422 10:-1.1472171 11:-1.2172416 12:-0.45461547 13:0.80732469 14:-1.0522744 15:0.52615634 16:0.39321343 17:-1.0099315 18:-0.07516958 
-0 -1024 0 0 0 0 0 0:0.032973461 1:0.36904966 2:0.29265345 3:0.22513988 4:-0.18199224 5:0.25833118 6:0.41105813 7:-1.060795 8:-0.51258574 9:0.67267272 10:-1.1663827 11:-1.0808335 12:-0.51933494 13:0.81737756 14:-1.0417884 15:0.58498419 16:0.51264784 17:-1.0923573 18:0.091023801 
-0 -783.198504452649 0 0 0 0 0 0:-0.12059183 1:0.70525079 2:0.30783117 3:0.21873672 4:-0.17035325 5:1.0301358 6:0.062441171 7:-0.36467638 8:-0.44637986 9:0.06105729 10:-0.41892262 11:-0.39879298 12:-0.64877389 13:-0.31345254 14:-0.4737985 15:0.99677917 16:1.7316429 17:-0.36577817 18:0.46365236 
-0 -153.8304946321438 0 0 0 834.3941528340566 0 0:-0.35685683 1:1.1423123 2:0.31091517 3:0.16518181 4:-0.19014322 5:1.0951951 6:-0.36364622 7:-0.34635747 8:-0.77740923 9:-0.15894722 10:-0.39975698 11:0.24427378 12:-0.389896 13:-0.63607928 14:-0.20780447 15:0.26143099 16:0.94886939 17:-0.30593879 18:0.64186602 
-0 -1024 0 0 0 0 0 0:-0.28082373 1:0.75568096 2:0.30923538 3:-0.20889824 4:-0.086384791 5:0.79176574 6:-0.26680818 7:-1.1523895 8:-0.64499748 9:0.55954 10:-0.87889805 11:-1.002886 12:-0.45461547 13:0.36523255 14:-0.67967299 15:-0.091536142 16:-0.083310575 17:-1.1149437 18:0.76886284 
-0 -298.4777382300197 0 0 0 1024 0 0:-0.30895293 1:0.90697147 2:0.30984716 3:-0.41513719 4:0.072834374 5:1.2420374 6:-0.32491101 7:-0.85928695 8:-0.64499748 9:0.41586982 10:-0.93639498 11:-0.84699103 12:-0.45461547 13:0.029513707 14:-0.56083203 15:0.46732848 16:0.88237034 17:-0.81457349 18:0.66851967 
-0 -0 0.3302293271097341 0 0 1024 0 0:-0.25677513 1:1.3440329 2:0.30979355 3:-0.54887535 4:0.19311103 5:1.4443496 6:-0.0924997 7:-0.84096804 8:-0.77740923 9:0.37974916 10:-0.91722934 11:-0.49622734 12:-0.45461547 13:-0.073352789 14:-0.53601524 15:0.7026399 16:0.94125647 17:-0.68609483 18:0.63977553 
-0 -126.3850666181061 0 0 0 0 0 0:-0.27092684 1:0.7388709 2:0.30922446 3:-0.29053695 4:-0.016722047 5:0.95392744 6:-0.24744057 7:-1.2073462 8:-0.64499748 9:0.6587836 10:-1.1280514 11:-1.0613466 12:-0.45461547 13:0.45079877 14:-0.78348407 15:0.055533495 16:0.045801736 17:-1.1290236 18:0.7474354 
-0 -0 0 0 0 1024 0 0:-0.22108898 1:1.360843 2:0.31015913 3:-0.6626707 4:0.25510832 5:1.554096 6:-0.11186731 7:-0.85928695 8:0.083267127 9:0.47807862 10:-0.93639498 11:-0.5936617 12:-0.32517652 13:0.012213433 14:-0.62759269 15:0.67322597 16:1.0168104 17:-0.70692128 18:0.69256022 
-0 -0 0 0 0 1024 0 0:-0.082118148 1:0.77249102 2:0.29870474 3:-0.35631554 4:-0.014613608 5:0.9119563 6:0.023705953 7:-1.2073462 8:-0.44637986 9:0.70601916 10:-0.95556062 11:-1.0418597 12:-0.45461547 13:0.60696881 14:-0.91630632 15:0.14377528 16:0.059682135 17:-1.1099571 18:0.44170229 
-0 -0 0 0 0 1024 0 0:-0.17949864 1:0.89016141 2:0.3068237 3:-0.27193224 4:0.038968028 5:1.3310813 6:0.023705953 7:-0.73105458 8:-0.64499748 9:0.32943139 10:-0.80223548 11:-0.78853042 12:-0.45461547 13:-0.067040527 14:-0.57201706 15:0.61439812 16:1.1378997 17:-0.62625545 18:0.50598463 
-0 -0 0 0 0 1024 0 0:-0.25967812 1:1.3440329 2:0.31080057 3:-0.48183017 4:0.18463489 5:1.583244 6:-0.15060253 7:-0.71273567 8:-0.11535049 9:0.41114712 10:-0.78306984 11:-0.61314857 12:-0.45461547 13:-0.12104544 14:-0.51119845 15:0.82029561 16:1.1641844 17:-0.64884189 18:0.59692064 
-0 -0 0 0 0 1024 0 0:-0.2574739 1:0.90697147 2:0.3095716 3:-0.26543645 4:-0.013687848 5:0.934778 6:-0.22807296 7:-1.2073462 8:-0.64499748 9:0.73488788 10:-0.99389191 11:-1.1003204 12:-0.45461547 13:0.56395191 14:-0.94252124 15:0.3790867 16:0.23426167 17:-1.1334235 18:0.7348925 
-0 -0 0 0 0 1024 0 0:-0.28958964 1:0.99102175 2:0.3109636 3:-0.31201045 4:0.072790206 5:1.1753454 6:-0.11186731 7:-0.91424369 8:0.017061254 9:0.45963962 10:-0.99389191 11:-0.92493852 12:-0.45461547 13:0.11858674 14:-0.6244469 15:0.64381205 16:0.94532372 17:-0.85475974 18:0.54831691 
-0 -0 0 0 0 1024 0 0:-0.26323864 1:1.3440329 2:0.31042605 3:-0.40666216 4:0.13276521 5:1.3067645 6:-0.18933774 7:-0.89592478 8:-0.71120336 9:0.39229527 10:-0.97472627 11:-0.90545165 12:-0.389896 13:0.021097357 14:-0.59823198 15:0.55557026 16:0.87623975 17:-0.73684097 18:0.53263829 
-0 -0 0 0 0 956.7067598953607 0 0:-0.029677961 1:1.0078318 2:0.29944977 3:-0.31237989 4:0.012735606 5:0.97401828 6:0.37232291 7:-1.1890273 8:-0.64499748 9:0.6854394 10:-1.0897201 11:-1.0808335 12:-0.45461547 13:0.5436124 14:-0.83521484 15:0.34967277 16:0.13532575 17:-1.1032105 18:0.45529043 
-0 -0 0 0 0 685.7381731784342 0 0:-0.17091249 1:1.1423123 2:0.30674643 3:-0.32373972 4:0.063945628 5:1.1114907 6:-0.053764482 7:-1.1340706 8:-0.71120336 9:0.5456702 10:-1.1088858 11:-1.1198072 12:-0.45461547 13:0.30374644 14:-0.73385049 15:0.49674241 16:0.51087752 17:-0.94657212 18:0.49814532 
-0 -0 0 0 0 1024 0 0:-0.22439166 1:1.3440329 2:0.30864543 3:-0.58299192 4:0.18114488 5:1.3419139 6:-0.034396873 7:-1.1157517 8:-0.44637986 9:0.60398252 10:-1.1088858 11:-0.96391226 12:-0.389896 13:0.28410829 14:-0.75202617 15:0.49674241 16:0.54486148 17:-0.92779898 18:0.57131222 
-0 -0 0 0 0 324.571078096864 0 0:-0.023531818 1:1.3272229 2:0.29631566 3:-0.37907292 4:0.054640057 5:1.0908053 6:0.25611726 7:-1.1890273 8:-0.64499748 9:0.78681483 10:-1.1088858 11:-1.0613466 12:-0.389896 13:0.63315301 14:-0.8715662 15:-0.0032943599 16:-0.022801014 17:-1.1677431 18:0.39309856 
-0 -0 0 0 0 519.630429214822 0 0:0.0057976071 1:1.1086921 2:0.29431992 3:-0.31665102 4:0.085016064 5:1.1109616 6:0.27548487 7:-1.0424761 8:-0.64499748 9:0.48507649 10:-1.1280514 11:-0.98339913 12:-0.45461547 13:0.29533009 14:-0.7404916 15:0.52615634 16:0.75325237 17:-0.83217331 18:0.37846518 
-0 -0 0 0 0 1024 0 0:-0.19180556 1:1.3440329 2:0.30719241 3:-0.30237833 4:0.06100424 5:1.1345429 6:0.062441171 7:-1.0241571 8:-0.44637986 9:0.46195307 10:-1.0897201 11:-1.002886 12:-0.45461547 13:0.19924343 14:-0.69435335 15:0.64381205 16:0.71850883 17:-0.84771981 18:0.50284891 
-0 -0 40.11132097412506 0 0 258.597881635718 0 0:0.64454374 1:0.80611113 2:0.11758315 3:-0.056424785 4:0.075255043 5:0.71303973 6:1.108292 7:-1.1523895 8:-0.44637986 9:0.61682494 10:-1.0322232 11:-1.158781 12:-0.45461547 13:0.76360643 14:-0.80270834 15:1.4379881 16:0.41370249 17:-0.78348048 18:-0.78227538 
-0 -0 0 1.394302390801756 0 0 0 0:0.57846331 1:0.80611113 2:0.16695694 3:-0.1701279 4:0.078654043 5:0.84004928 6:1.1663949 7:-1.1890273 8:-0.51258574 9:0.57849812 10:-1.1280514 11:-1.1782679 12:-0.51933494 13:0.64858299 14:-0.79431957 15:0.49674241 16:0.17633548 17:-0.80342694 18:-0.5126031 
-0 -1012.28225179805 0 0 0 1024 0 0:0.35001556 1:1.075072 2:0.2292255 3:-0.32317879 4:0.11678369 5:1.0418238 6:0.52726378 7:-1.1890273 8:-0.51258574 9:0.64295686 10:-1.1280514 11:-1.2367285 12:-0.45461547 13:0.63829634 14:-0.67373095 15:0.3790867 16:0.22452442 17:-0.95419871 18:-0.39501345 
-0 -0 0 0 0 1024 0 0:0.26226623 1:1.075072 2:0.23498775 3:-0.34749238 4:0.066081901 5:0.96385587 6:0.46916096 7:-1.2073462 8:-0.44637986 9:0.58282878 10:-1.0705545 11:-1.1977547 12:-0.45461547 13:0.61678789 14:-0.68246925 15:0.26143099 16:0.22595779 17:-0.9096125 18:-0.43421 
-30.69893235891891 -0 0 15.18211498931042 208.0797547498356 0 0 0:0.039868495 1:0.78930107 2:0.29810092 3:0.17392767 4:-0.18474261 5:1.0678047 6:0.17864682 7:-0.18148728 8:-0.71120336 9:-0.24119157 10:-0.22726619 11:-0.16495052 12:-0.58405442 13:-0.67558937 14:-0.17879329 15:0.29084492 16:1.1070084 17:-0.10471422 18:0.25930767 
-0 -0 0 0 0 149.3686163474556 0 0:-0.22032877 1:1.360843 2:0.30929954 3:-0.39615669 4:0.065527564 5:1.6202472 6:0.023705953 7:-0.16316837 8:-0.38017399 9:0.050317474 10:-0.20810055 11:-0.048029293 12:-0.389896 13:-0.67442043 14:-0.21619324 15:0.61439812 16:1.3182253 17:-0.21324642 18:0.59901112 
-0 -213.0881998359664 0 0 0 1024 0 0:-0.032324577 1:1.2263625 2:0.2905515 3:-0.26846048 4:0.0068220187 5:0.94821472 6:0.120544 7:-1.1157517 8:-0.64499748 9:0.68073463 10:-0.95556062 11:-0.92493852 12:-0.45461547 13:0.5772778 14:-0.81913636 15:0.11436135 16:0.10662442 17:-1.1020372 18:0.24415167 
-0 -0 0 0 0 1024 0 0:0.19926799 1:1.2263625 2:0.25438068 3:-0.38930266 4:0.12123585 5:1.1261797 6:0.44979335 7:-1.2073462 8:-0.44637986 9:0.7021146 10:-1.1663827 11:-1.2172416 12:-0.45461547 13:0.65255737 14:-0.8369625 15:0.11436135 16:0.058675098 17:-1.0140381 18:0.0053140072 
-0 -0 0 0 0 456.6518707307333 0 0:-0.020055322 1:1.1255022 2:0.29241242 3:-0.31766435 4:0.020097788 5:0.96741268 6:0.31422009 7:-1.2073462 8:-0.44637986 9:0.72017092 10:-1.0130576 11:-1.158781 12:-0.45461547 13:0.66190887 14:-0.96069692 15:0.23201706 16:0.11518861 17:-1.0674242 18:0.24467429 
-0 -647.5444740726376 0 0 0 1024 0 0:-0.16208311 1:0.72206085 2:0.30475377 3:0.042146047 4:-0.13593468 5:1.2333677 6:-0.13123492 7:-0.2181251 8:-0.71120336 9:-0.061945516 10:-0.26559748 11:-0.20392427 12:-0.45461547 13:-0.56360516 14:-0.28749782 15:0.40850063 16:1.3341467 17:-0.2440461 18:0.42811415 
-29.05664373361436 -58.990644165625 0 8.332306513423413 44.4351803011534 0 25.43664405087747 0:-0.45667796 1:0.2009491 2:0.31014168 3:0.35429315 4:-0.30515989 5:-0.073048544 6:-0.42174905 7:0.95428516 8:-0.71120336 9:-1.2089156 10:-0.16976926 11:0.73144558 12:-0.77821284 13:-1.475844 14:0.84253992 15:0.87912346 16:0.95417652 17:0.58373195 18:0.65545415 
-0 -1024 0 0 0 0 0 0:-0.1867749 1:0.46991 2:0.30493298 3:0.12992647 4:-0.2096302 5:0.39555738 6:0.0043383444 7:-1.1890273 8:-0.71120336 9:0.39043783 10:-0.8980637 11:-1.002886 12:-0.51933494 13:0.38720857 14:-0.48638166 15:-0.23860578 16:-0.17549465 17:-1.0683042 18:0.077958284 
-0 -0 0 0 0 152.028117047861 0 0:-0.002064983 1:0.26818932 2:0.30203869 3:0.24931527 4:-0.21841088 5:0.22196809 6:0.81777792 7:-1.1707084 8:-0.31396812 9:0.45668734 10:-1.1280514 11:-1.0223729 12:-0.45461547 13:0.40053446 14:-0.40808644 15:0.49674241 16:0.23764268 17:-1.180943 18:0.2979816 
-0 -0 0 0 0 192.8599696672891 0 0:-0.18268844 1:0.43628989 2:0.3056916 3:0.079915916 4:-0.17339342 5:0.44884054 6:-0.0924997 7:-1.2073462 8:-0.64499748 9:0.32367146 10:-0.93639498 11:-1.0418597 12:-0.45461547 13:0.2296358 14:-0.35460801 15:0.52615634 16:0.30994469 17:-1.0325179 18:0.24571953 
-0 -0 0 0 0 37.48477032398692 0 0:-0.086774434 1:0.43628989 2:0.3022326 3:0.17377455 4:-0.1808252 5:0.3957015 6:0.17864682 7:-1.1890273 8:-0.71120336 9:0.39030638 10:-0.93639498 11:-1.0418597 12:-0.51933494 13:0.30117477 14:-0.38117246 15:0.52615634 16:0.20908451 17:-1.1055571 18:0.34763056 
-0 -1024 0 0 0 0 0 0:-0.24565501 1:0.11689881 2:0.30868203 3:0.24424822 4:-0.25990297 5:0.19893712 6:-0.20870535 7:-1.1890273 8:-0.57879161 9:0.32197177 10:-1.0705545 11:-1.0223729 12:-0.45461547 13:0.29766796 14:-0.43185463 15:-0.062122215 16:-0.010751234 17:-1.0609709 18:0.1668038 
-0 -0 0 0 0 0 22.3879822273526 0:-0.18600918 1:0.066468644 2:0.30764304 3:0.30176303 4:-0.27886524 5:0.014561419 6:-0.15060253 7:-1.1707084 8:-0.18155637 9:0.32952333 10:-1.1855483 11:-1.158781 12:-0.45461547 13:0.29018676 14:-0.33153888 15:0.58498419 16:0.2081309 17:-1.116117 18:0.18091456 
-0 -0 0 0 0 326.1463037977368 0 0:-0.13126488 1:0.57077034 2:0.30795044 3:0.097180241 4:-0.14948935 5:0.85004326 6:0.17864682 7:-0.84096804 8:-0.44637986 9:0.12293988 10:-0.91722934 11:-0.78853042 12:-0.77821284 13:-0.12805906 14:-0.25499132 15:0.11436135 16:0.53379072 17:-0.73625431 18:0.32359001 
-0 -1024 0 0 0 0 0 0:-0.061000268 1:0.45309994 2:0.3019506 3:0.12513641 4:-0.18759088 5:0.42321298 6:0.062441171 7:-1.1890273 8:-0.71120336 9:0.33131863 10:-1.1088858 11:-1.1003204 12:-0.45461547 13:0.25371591 14:-0.29134267 15:0.11436135 16:0.24608878 17:-1.0377978 18:0.042942697 
-0 -671.6230476583475 0 0 0 0 0 0:-0.114285 1:0.48672006 2:0.30410985 3:0.16640131 4:-0.18359997 5:0.40829962 6:0.21738204 7:-1.1340706 8:-0.64499748 9:0.45906164 10:-1.1088858 11:-0.94442539 12:-0.51933494 13:0.3605568 14:-0.41857241 15:0.20260313 16:0.16597428 17:-1.1595299 18:0.27603153 
-0 -1024 0 0 0 0 0 0:-0.22505128 1:-0.00077158159 2:0.30949974 3:0.32052269 4:-0.30050627 5:-0.01934017 6:0.0043383444 7:-1.1523895 8:-0.38017399 9:0.30214843 10:-1.0705545 11:-0.96391226 12:-0.45461547 13:0.27335406 14:-0.37872573 15:0.14377528 16:0.027814337 17:-1.0920639 18:0.22429208 
-0 -1024 0 0 0 0 0 0:-0.15581567 1:0.15051893 2:0.30646342 3:0.31011735 4:-0.27727141 5:0.036602182 6:0.0043383444 7:-1.1707084 8:-0.38017399 9:0.33251575 10:-1.1855483 11:-1.0418597 12:-0.45461547 13:0.2820042 14:-0.33398561 15:0.14377528 16:0.15580056 17:-1.1193437 18:0.22847304 
-0 -1024 0 0 0 0 0 0:-0.30498871 1:0.3522396 2:0.31001192 3:0.22682177 4:-0.25400512 5:0.24172054 6:-0.36364622 7:-1.1707084 8:-0.71120336 9:0.29990848 10:-0.99389191 11:-0.88596478 12:-0.45461547 13:0.19386631 14:-0.3479669 15:-0.032708287 16:-0.071341453 17:-1.0741708 18:0.29066491 
-0 -1024 0 0 0 0 0 0:-0.35012994 1:0.25137927 2:0.31039389 3:0.2537915 4:-0.27047629 5:0.18069293 6:-0.38301383 7:-1.1707084 8:-0.64499748 9:0.28145998 10:-0.99389191 11:-0.90545165 12:-0.45461547 13:0.16861726 14:-0.3154604 15:-0.032708287 16:-0.067427607 17:-1.0785707 18:0.30634353 
-0 -1024 0 0 0 0 0 0:-0.32630307 1:0.26818932 2:0.30990537 3:0.28783143 4:-0.27493781 5:0.15736318 6:-0.40238144 7:-1.1707084 8:-0.64499748 9:0.27117145 10:-1.1472171 11:-0.94442539 12:-0.51933494 13:0.18428103 14:-0.34377251 15:-0.12095007 16:-0.062135108 17:-1.0606776 18:0.27864463 
-0 -1024 0 0 0 0 0 0:-0.2661125 1:0.30180943 2:0.30891282 3:0.15048513 4:-0.22723335 5:0.3379596 6:-0.16997014 7:-1.1707084 8:-0.44637986 9:0.37365903 10:-0.97472627 11:-0.94442539 12:-0.45461547 13:0.29579766 14:-0.42451446 15:-0.12095007 16:-0.066283931 17:-1.1002772 18:0.24049332 
-0 -1024 0 0 0 0 0 0:-0.21890452 1:0.33542955 2:0.30751491 3:0.1765341 4:-0.22293573 5:0.35133551 6:-0.073132091 7:-1.1707084 8:-0.24776224 9:0.37765977 10:-0.99389191 11:-0.88596478 12:-0.45461547 13:0.31847505 14:-0.44373873 15:-0.20919185 16:-0.13161704 17:-1.0949972 18:0.24676477 
-0 -797.121317704152 0 0 0 0 0 0:-0.28400923 1:0.45309994 2:0.30986054 3:0.28923803 4:-0.27833748 5:0.11635396 6:-0.24744057 7:-1.1157517 8:-0.18155637 9:0.37604044 10:-1.1088858 11:-0.80801729 12:-0.58405442 13:0.34395788 14:-0.45107891 15:0.026119568 16:-0.0097524881 17:-1.1257969 18:0.20547773 
-0 -845.0731676013767 0 0 0 0 0 0:-0.24948992 1:0.15051893 2:0.30903825 3:0.31306192 4:-0.29055928 5:0.034863393 6:-0.16997014 7:-1.1707084 8:0.149473 9:0.39857073 10:-1.0705545 11:-0.80801729 12:-0.51933494 13:0.35845271 14:-0.3989986 15:0.026119568 16:0.044653471 17:-1.1703831 18:0.18614077 
-0 -0 0 0 0 57.76762012639257 0 0:-0.13844956 1:0.83973124 2:0.30751608 3:0.19802933 4:-0.19655866 5:0.38871804 6:0.41105813 7:-1.1340706 8:-0.11535049 9:0.38047521 10:-1.1088858 11:-1.0613466 12:-0.32517652 13:0.2820042 14:-0.38082293 15:0.17318921 16:0.096689128 17:-1.0979305 18:0.23526711 
-0 -1024 0 0 0 0 80.5972329860877 0:-0.29425857 1:0.30180943 2:0.30998457 3:0.29143332 4:-0.27570847 5:0.10525835 6:-0.34427861 7:-1.1523895 8:-0.57879161 9:0.29839949 10:-1.1472171 11:-1.1198072 12:-0.51933494 13:0.18077421 14:-0.29903238 15:0.23201706 16:0.11773958 17:-1.1029172 18:0.31366022 
-0 -1024 0 0 0 0 0 0:-0.22466103 1:0.30180943 2:0.3079841 3:0.30371742 4:-0.27119837 5:0.084346272 6:-0.15060253 7:-1.1523895 8:-0.38017399 9:0.37068496 10:-1.1663827 11:-1.1198072 12:-0.51933494 13:0.27615951 14:-0.36089959 15:0.20260313 16:0.16482582 17:-1.1513167 18:0.29902684 
-0 -1024 0 0 0 0 0 0:-0.23513426 1:0.26818932 2:0.30736736 3:0.26302429 4:-0.25961996 5:0.18418952 6:-0.13123492 7:-1.1523895 8:-0.51258574 9:0.32934557 10:-1.1280514 11:-1.0613466 12:-0.51933494 13:0.26680801 14:-0.39340609 15:-0.062122215 16:9.0057976e-005 17:-1.0888373 18:0.24362904 
-0 -1024 0 0 0 0 0 0:-0.28170675 1:0.25137927 2:0.3087363 3:0.2715189 4:-0.27286973 5:0.15823661 6:-0.36364622 7:-1.1707084 8:-0.44637986 9:0.31332209 10:-1.1472171 11:-1.0223729 12:-0.45461547 13:0.23080474 14:-0.33363607 15:-0.12095007 16:-0.081393416 17:-1.1005705 18:0.24415167 
-0 -1024 0 0 0 0 0 0:-0.24139914 1:0.21775915 2:0.30875543 3:0.29047614 4:-0.26582822 5:0.11903427 6:-0.20870535 7:-1.1523895 8:-0.57879161 9:0.31321716 10:-1.0897201 11:-0.94442539 12:-0.45461547 13:0.25698894 14:-0.39200796 15:0.34967277 16:0.15066892 17:-1.0791574 18:0.25460408 
-0 -0 0 0 0 109.4366720179336 0 0:-0.27216093 1:0.26818932 2:0.30930794 3:0.23073803 4:-0.26048506 5:0.17980306 6:-0.20870535 7:-1.1890273 8:-0.24776224 9:0.35561027 10:-0.8980637 11:-0.76904355 12:-0.45461547 13:0.3025775 14:-0.41752381 15:0.32025884 16:0.051769672 17:-1.1070238 18:0.23213139 
-0 -1024 0 0 0 1024 0 0:-0.084947953 1:0.58758039 2:0.29869752 3:0.093606128 4:-0.16195003 5:0.45967306 6:0.0043383444 7:-1.1707084 8:-0.71120336 9:0.43262714 10:-1.0705545 11:-1.0418597 12:-0.45461547 13:0.32455352 14:-0.35635567 15:0.20260313 16:0.22285747 17:-1.1351835 18:0.23892546 
-0 -1024 0 0 0 0 0 0:-0.28345884 1:0.65482062 2:0.30901063 3:0.25366104 4:-0.26180432 5:0.22037508 6:-0.3055434 7:-1.0974328 8:-0.71120336 9:0.35842759 10:-1.0897201 11:-0.84699103 12:-0.51933494 13:0.30772082 14:-0.40563972 15:-0.20919185 16:-0.14819815 17:-1.1108371 18:0.19607056 
-0 -1024 0 0 0 0 0 0:-0.34104266 1:0.52034017 2:0.3104332 3:0.28674022 4:-0.2915628 5:0.093293658 6:-0.40238144 7:-1.1157517 8:-0.71120336 9:0.28147876 10:-1.0322232 11:-0.84699103 12:-0.51933494 13:0.25605379 14:-0.41228083 15:-0.032708287 16:-0.1426325 17:-1.055691 18:0.20861346 
-0 -1024 0 0 0 0 0 0:-0.10687767 1:0.48672006 2:0.3004815 3:0.2952196 4:-0.26196919 5:0.13521117 6:0.043073562 7:-1.060795 8:-0.71120336 9:0.23271376 10:-1.0322232 11:-0.94442539 12:-0.51933494 13:0.22075188 14:-0.35390894 15:0.026119568 16:0.10837566 17:-0.98617171 18:0.092069043 
-0 -1024 0 0 0 0 0 0:-0.076387342 1:0.18413904 2:0.30059708 3:0.32372164 4:-0.26860314 5:0.04034288 6:0.043073562 7:-1.060795 8:-0.71120336 9:0.27625719 10:-1.204714 11:-1.0613466 12:-0.58405442 13:0.29836932 14:-0.3469183 15:0.34967277 16:0.20146455 17:-1.0272379 18:-0.010364614 
-0 -370.0923137991614 0 0 0 0 0 0:-0.24513802 1:0.21775915 2:0.31002068 3:0.29028416 4:-0.2752042 5:0.10432708 6:-0.20870535 7:-1.1523895 8:-0.57879161 9:0.31835315 10:-1.0897201 11:-0.88596478 12:-0.51933494 13:0.31169521 14:-0.41857241 15:0.29084492 16:0.083017095 17:-1.0691842 18:0.12603939 
-0 -1024 0 0 0 0 0 0:-0.28986882 1:0.33542955 2:0.30997974 3:0.27584246 4:-0.27248677 5:0.1616752 6:-0.28617579 7:-1.1340706 8:-0.18155637 9:0.33768607 10:-0.97472627 11:-0.88596478 12:-0.51933494 13:0.30421401 14:-0.41822288 15:-0.091536142 16:-0.020258358 17:-1.0914773 18:0.18823125 
-0 -1024 0 0 0 0 0 0:-0.10401273 1:0.26818932 2:0.30165822 3:0.28450348 4:-0.25346768 5:0.14287091 6:0.33358769 7:-1.0791139 8:-0.51258574 9:0.35769177 10:-0.97472627 11:-0.90545165 12:-0.45461547 13:0.31263036 14:-0.35181175 15:0.14377528 16:0.036049333 17:-1.1240369 18:0.22638256 
-0 -245.7247840155553 0 0 0 0 0 0:-0.1019442 1:0.23456921 2:0.30146888 3:0.2576915 4:-0.24211976 5:0.1791176 6:0.33358769 7:-1.0791139 8:-0.51258574 9:0.37228684 10:-1.2238796 11:-0.90545165 12:-0.51933494 13:0.32478731 14:-0.38746404 15:0.23201706 16:0.12215403 17:-1.120517 18:0.24728739 
-0 -1024 0 0 0 0 0 0:-0.2600269 1:0.2009491 2:0.30907319 3:0.26520881 4:-0.26220405 5:0.14966107 6:-0.26680818 7:-1.1707084 8:-0.71120336 9:0.38510841 10:-1.1855483 11:-0.98339913 12:-0.51933494 13:0.34512682 14:-0.42975744 15:0.11436135 16:0.15739159 17:-1.1293169 18:0.19607056 
-0 -977.3295713514726 0 0 0 0 0 0:-0.18654846 1:0.083278701 2:0.3049949 3:0.27407653 4:-0.27363713 5:0.11416197 6:-0.073132091 7:-1.1523895 8:-0.51258574 9:0.30079293 10:-1.1472171 11:-0.96391226 12:-0.51933494 13:0.25815787 14:-0.34726783 15:-0.091536142 16:-0.041203765 17:-1.0803307 18:0.19868366 
-0 -1024 0 0 0 211.3396432213148 0 0:-0.22298979 1:0.68844073 2:0.30853987 3:0.25521281 4:-0.2479752 5:0.2155433 6:-0.15060253 7:-1.1523895 8:-0.24776224 9:0.41890101 10:-1.1472171 11:-0.71058293 12:-0.51933494 13:0.38393554 14:-0.45003031 15:0.17318921 16:0.10182023 17:-1.1457434 18:0.19293484 
-0 -0 0 0 0 1024 0 0:-0.1702482 1:0.78930107 2:0.30620623 3:0.20847591 4:-0.19971583 5:0.34399875 6:-0.20870535 7:-1.1523895 8:-0.24776224 9:0.45876825 10:-1.204714 11:-1.1198072 12:-0.51933494 13:0.37668813 14:-0.43849575 15:0.29084492 16:0.29928044 17:-1.1612899 18:0.24885525 
-0 -1024 0 0 0 0 0 0:-0.0017118194 1:0.53715022 2:0.29327425 3:0.28928218 4:-0.2261349 5:0.12988155 6:0.31422009 7:-1.0791139 8:-0.18155637 9:0.38195065 10:-1.2238796 11:-1.1782679 12:-0.45461547 13:0.33016442 14:-0.32070338 15:0.26143099 16:0.36522781 17:-1.1313702 18:0.1641907 
-0 -1024 0 0 0 0 0 0:-0.26012869 1:0.36904966 2:0.30844827 3:0.28643818 4:-0.26070309 5:0.14493822 6:-0.24744057 7:-1.1523895 8:-0.51258574 9:0.29631136 10:-1.1663827 11:-0.96391226 12:-0.51933494 13:0.23688321 14:-0.36579304 15:0.17318921 16:0.2132796 17:-1.0621442 18:0.21122656 
-0 -1024 0 0 0 0 0 0:-0.22394284 1:0.21775915 2:0.30826074 3:0.26473144 4:-0.26882574 5:0.13509711 6:-0.0924997 7:-1.1523895 8:-0.04914462 9:0.39012413 10:-1.0705545 11:-0.94442539 12:-0.45461547 13:0.37388268 14:-0.43814622 15:-0.032708287 16:0.025848563 17:-1.1325435 18:0.15426091 
-0 -1024 0 0 0 0 0 0:-0.23507639 1:-0.017581638 2:0.30878635 3:0.33753549 4:-0.30255715 5:-0.054136663 6:-0.15060253 7:-1.1523895 8:-0.24776224 9:0.35316589 10:-1.0130576 11:-1.1198072 12:-0.51933494 13:0.330632 14:-0.41472755 15:0.20260313 16:0.11440698 17:-1.1310769 18:0.21436229 
