svm_type c_svc
kernel_type rbf
gamma 0.03125
nr_class 8
total_sv 498
rho 0.0960314 1.37817 0.298663 -10.5537 -0.527715 1.05064 -18.853 -32.4398 -0.210976 0.941293 -2.81916 -17.986 0.0764613 0.0906624 0.628621 -3.93745 -4.19866 -0.345843 0.0709878 0.0439639 -0.308746 -0.244131 -1.37365 -1.01939 7.54328 0.203318 0.0667369 -0.879722
label 2 4 6 5 1 3 7 8
probA -2.52857 -2.79771 -4.21242 -1.25207 -3.21264 -3.00665 -1.0806 -1.08201 -3.45852 -3.31099 -1.86904 -0.993567 -2.4659 -3.17332 -3.83353 -1.59808 -1.30267 -3.39511 -4.20291 -3.97014 -3.57159 -4.47105 -3.66914 -3.52861 -1.11726 -2.17072 -3.17517 -3.1101
probB 0.363758 0.0379703 -0.290395 -0.160629 -0.0975691 -0.586665 -0.0109998 -0.0400701 0.506169 -0.455216 -0.0135006 -0.0850426 -0.222432 0.897813 0.456077 -0.119014 -0.118011 0.341335 -0.0978369 -0.313059 -0.884862 -0.476992 -0.493504 -0.808295 0.067704 -0.229605 -0.146317 0.453133
nr_sv 77 90 89 18 73 25 49 77
SV
0 0 0 0 0 0 2048 1:-0.4121937 2:-0.52188224 3:0.31066651 4:0.38467635 5:-0.38119228 6:-0.62251872 7:-0.34427795 8:0.78941566 9:-0.71120428 10:-1.1260329 11:0.75018239 12:0.84836626 13:-0.38989368 14:-1.0512854 15:1.1193698 16:0.17318901 17:-0.2439558 18:0.69548855 19:-0.20530346 
0 0 0 0 0 0 2048 1:-0.3000828 2:-0.48826215 3:0.31044639 4:0.38409916 5:-0.37096783 6:-0.51748451 7:-0.26680755 8:-0.38299458 9:-0.7774103 10:-1.1119847 11:-0.47641863 12:-0.39879248 13:-0.51933292 14:-1.0290756 15:1.1557211 16:0.17318901 17:-0.14498424 18:0.66322226 19:-0.10234747 
0 0 0 0 0 0 2048 1:-0.45216863 2:-0.67317262 3:0.30987671 4:0.38400067 5:-0.39156452 6:-0.65692798 7:-0.53795395 8:1.0275615 9:-0.7774103 10:-1.1093021 11:1.037667 12:1.0822085 13:-0.7782114 14:-0.99143576 15:1.0942035 16:-0.67981582 17:-0.65723349 18:0.64327583 19:-0.31400826 
0 0 0 0 0 0 2048 1:-0.50335147 2:-0.74041279 3:0.30956853 4:0.38365477 5:-0.39274746 6:-0.69759004 7:-0.61542435 8:1.0275615 9:-0.7774103 10:-1.1085597 11:1.037667 12:1.0822085 13:-0.32517406 14:-0.98769516 15:1.0942035 16:-0.73864374 17:-0.69390937 18:0.63946255 19:-0.32184755 
0 0 0 540.3607598907626 0 0 2048 1:-0.50028301 2:-0.74041279 3:0.30960245 4:0.38368073 5:-0.3926995 6:-0.69723907 7:-0.61542435 8:1.0275615 9:-0.7774103 10:-1.1043377 11:1.037667 12:1.0822085 13:-0.19573482 14:-0.97694092 15:1.0935044 16:-0.73864374 17:-0.69328843 18:0.629196 19:-0.3286416 
0 0 0 0 0 0 2048 1:-0.50165954 2:-0.74041279 3:0.30959591 4:0.38368921 5:-0.39273847 6:-0.69698666 7:-0.63479195 8:1.0275615 9:-0.7774103 10:-1.1005263 11:1.037667 12:1.0822085 13:-0.26045444 14:-0.97366789 15:1.0851157 16:-0.79747166 17:-0.6988135 18:0.62948933 19:-0.34902375 
0 0 0 0 0 0 2048 1:-0.50791036 2:-0.75722284 3:0.30953797 4:0.38348003 5:-0.39303623 6:-0.70705885 7:-0.61542435 8:1.0275615 9:-0.31396811 10:-1.0977601 11:1.037667 12:1.0822085 13:-0.71349178 14:-0.98442213 15:1.0739306 16:-0.7680577 17:-0.70861096 18:0.64914243 19:-0.37672257 
0 0 0 2048 0 0 0 1:-0.51255602 2:-0.77403288 3:0.30950601 4:0.38333997 5:-0.39312737 6:-0.72520203 7:-0.61542435 8:1.0275615 9:3.3273634 10:-1.1018813 11:1.037667 12:1.0822085 13:0.063143655 14:-0.9963453 15:1.0760278 16:-0.79747166 17:-0.70714551 18:0.66146228 19:-0.36888328 
0 0 0 2048 0 0 2029.245010283652 1:-0.5221166 2:-0.77403288 3:0.30941132 4:0.38338856 5:-0.39317973 6:-0.72145522 7:-0.65415955 8:1.0275615 9:1.8046248 10:-1.0995017 11:1.037667 12:1.0822085 13:1.6811342 14:-0.99307227 15:1.0746297 16:-0.79747166 17:-0.70971481 18:0.65999564 19:-0.37567733 
0 0 0 2048 0 0 2048 1:-0.52755787 2:-0.77403288 3:0.30936794 4:0.3833723 5:-0.39321424 6:-0.72222771 7:-0.65415955 8:1.0275615 9:-0.24776209 10:-1.0985407 11:1.037667 12:1.0822085 13:1.9400126 14:-0.99190333 15:1.0746297 16:-0.79747166 17:-0.70971481 18:0.65970231 19:-0.37776781 
0 0 0 2048 0 0 16.5294553521872 1:-0.52267295 2:-0.77403288 3:0.30939969 4:0.38337061 5:-0.39321304 6:-0.72103664 7:-0.65415955 8:1.0275615 9:2.6653031 10:-1.0990953 11:1.037667 12:1.0822085 13:1.2928164 14:-0.99681287 15:1.0686877 16:-0.7680577 17:-0.71443772 18:0.66527557 19:-0.3856071 
0 0 0 2048 0 0 2048 1:-0.51838469 2:-0.77403288 3:0.30944827 4:0.38345482 5:-0.39316417 6:-0.71546007 7:-0.67352715 8:1.0275615 9:0.61291627 10:-1.0956947 11:1.037667 12:1.0822085 13:-0.71349178 14:-0.99681287 15:1.0641438 16:-0.7680577 17:-0.72685346 18:0.66908886 19:-0.3991952 
0 0 0 2048 0 0 0 1:-0.51779409 2:-0.77403288 3:0.30945475 4:0.38347856 5:-0.39312591 6:-0.71300414 7:-0.65415955 8:1.0275615 9:-0.11535003 10:-1.0944654 11:1.037667 12:1.0822085 13:0.45146137 14:-0.99961833 15:1.0676391 16:-0.7680577 17:-0.71804387 18:0.67495546 19:-0.39814996 
0 0 0 0 0 0 2048 1:-0.51864474 2:-0.77403288 3:0.30944225 4:0.38349301 5:-0.39313366 6:-0.71250774 7:-0.67352715 8:1.0275615 9:0.083268052 10:-1.0949943 11:1.037667 12:1.0822085 13:-0.7782114 14:-1.0010211 15:1.0665905 16:-0.7680577 17:-0.72216706 18:0.67612878 19:-0.39867258 
0 0 0 447.8729454804591 0 0 0 1:-0.51659368 2:-0.75722284 3:0.30945788 4:0.38358314 5:-0.39302308 6:-0.70371163 7:-0.65415955 8:1.0275615 9:-0.31396811 10:-1.0957803 11:1.037667 12:1.0822085 13:-0.26045444 14:-0.99564394 15:1.06694 16:-0.7680577 17:-0.71479692 18:0.66732888 19:-0.39449162 
0 0 0 0 0 0 2048 1:-0.51349813 2:-0.72360275 3:0.30947125 4:0.38378846 5:-0.39273725 6:-0.68473235 7:-0.65415955 8:1.0275615 9:-0.31396811 10:-1.0963021 11:1.037667 12:1.0822085 13:-0.32517406 14:-0.99400742 15:1.0704353 16:-0.7680577 17:-0.70446319 18:0.66468891 19:-0.38717496 
0 0 0 0 0 0 2048 1:-0.50866567 2:-0.72360275 3:0.30949079 4:0.38380392 5:-0.39251528 6:-0.67559589 7:-0.65415955 8:1.0275615 9:-0.31396811 10:-1.0959906 11:1.037667 12:1.0822085 13:-0.32517406 14:-0.99307227 15:1.0697363 16:-0.7680577 17:-0.70388263 18:0.66322226 19:-0.38769757 
0 0 0 0 0 0 152.4888182055041 1:-0.50900435 2:-0.74041279 3:0.30948555 4:0.38370524 5:-0.39280125 6:-0.69113978 7:-0.65415955 8:1.0275615 9:-0.38017414 10:-1.0971049 11:1.037667 12:1.0822085 13:-0.32517406 14:-0.99237091 15:1.0686877 16:-0.7680577 17:-0.71173063 18:0.6605823 19:-0.38717496 
1.251466995443251 0 3.916444402416596 0 0 0 0 1:-0.025386149 2:-0.55550232 3:0.295397 4:0.38393414 5:-0.23374464 6:-0.53991066 7:-0.034396354 8:0.78941566 9:-0.7774103 10:-0.80488142 11:0.75018239 12:0.78990569 13:-0.7782114 14:-0.81352334 15:0.81492745 16:1.5556451 17:1.5710133 18:0.70047516 19:-0.58211193 
9.895407422020263 0 0 19.11275760729308 0 0.4899495276095156 36.11181611293873 1:0.61655567 2:-0.47145211 3:0.25917576 4:0.38396089 5:-0.2075399 6:-0.3702893 7:0.89524844 8:-0.089892021 9:-0.71120428 10:-0.52120444 11:-1.0130566 12:-1.0223719 13:-0.7782114 14:-0.58113838 15:0.49510568 16:1.8791987 17:2.0819527 18:0.74447463 19:-0.68506792 
1.525875795048138 0 0 313.292363754272 0 3.416321481583914 0 1:0.30390553 2:-0.5050722 3:0.25287796 4:0.3840976 5:-0.31990231 6:-0.53336795 7:0.21738244 8:-0.47458913 9:-0.7774103 10:-0.96761569 11:-0.054774531 12:-0.067515943 13:-0.19573482 14:-0.89160842 15:0.97780935 16:-0.091536624 17:-0.19260311 18:0.59428975 19:-0.34275232 
0 0 0 0 0 0 1310.913837197824 1:-0.32955143 2:-0.5050722 3:0.30947456 4:0.38291199 5:-0.38075006 6:-0.53488548 7:-0.40238075 8:-0.18148657 9:-0.7774103 10:-0.99216551 11:0.76934803 12:-0.32084506 13:-0.26045444 14:-0.91171416 15:0.94075896 16:-0.56215998 17:-0.47655368 18:0.61892946 19:-0.66886673 
0 0 0 525.2305480160569 0 0 0 1:-0.16574271 2:-0.63955254 3:0.3096836 4:0.38414163 5:-0.3879817 6:-0.66083953 7:-0.40238075 8:0.99092367 9:-0.7774103 10:-1.0878184 11:0.11771624 12:-0.0090553772 13:-0.26045444 14:-1.0234647 15:1.0718335 16:-0.56215998 17:-0.32298211 18:0.65530236 19:-0.3014654 
0 0 0 2048 0 0 2048 1:-0.49352176 2:-0.77403288 3:0.30946925 4:0.38343082 5:-0.39309297 6:-0.71567648 7:-0.63479195 8:1.0275615 9:-0.71120428 10:-1.1717102 11:1.037667 12:1.0822085 13:-0.26045444 14:-1.0886914 15:1.1885771 16:-0.7680577 17:-0.69814822 18:0.66204894 19:0.0047894745 
0 0 0 706.2826863922695 0 0 2048 1:-0.49218043 2:-0.77403288 3:0.30959186 4:0.38335151 5:-0.39292455 6:-0.72368541 7:-0.61542435 8:1.0275615 9:-0.7774103 10:-1.1631693 11:1.037667 12:1.0822085 13:-0.58405254 14:-1.0727939 15:1.1704015 16:-0.73864374 17:-0.69079554 18:0.66468891 19:-0.062628407 
0 0 0 0 0 0 2048 1:-0.47677186 2:-0.75722284 3:0.30971809 4:0.38346698 5:-0.39258306 6:-0.71006095 7:-0.59605675 8:1.0275615 9:-0.71120428 10:-1.1525284 11:1.037667 12:1.0822085 13:-0.7782114 14:-1.0482462 15:1.1466333 16:-0.73864374 17:-0.68365499 18:0.65412904 19:-0.13422724 
17.18589335663762 0 0 0 0 2.748601158635544 2048 1:-0.1945947 2:-0.10163117 3:0.30866774 4:0.35657183 5:-0.32968716 6:-0.18528337 7:-0.26680755 8:-0.38299458 9:-0.7774103 10:-1.0237528 11:-0.61057812 12:-0.69109531 13:-0.71349178 14:-0.95379594 15:1.0823194 16:0.29084485 17:0.071859344 18:0.5928231 19:-0.21105227 
0 0 0 354.1130595480018 0 0 217.6207667270582 1:-0.46069744 2:-0.72360275 3:0.30979795 4:0.38367547 5:-0.39255749 6:-0.70042029 7:-0.57668915 8:1.0275615 9:-0.7774103 10:-1.179139 11:1.037667 12:0.77041884 13:-0.0015759648 14:-1.2074556 15:1.2867956 16:-0.7680577 17:-0.69663389 18:0.56906338 19:0.7876731 
0 0 0 2048 0 0 0 1:-0.50492049 2:-0.77403288 3:0.30956195 4:0.38347627 5:-0.39303453 6:-0.71340657 7:-0.61542435 8:1.0275615 9:0.083268052 10:-1.1710488 11:1.037667 12:1.0822085 13:-0.0015759648 14:-1.1597629 15:1.2895919 16:-0.7680577 17:-0.72191331 18:0.58636984 19:0.92930291 
0 0 0 1523.328413445209 0 0 0 1:-0.51699266 2:-0.77403288 3:0.30944826 4:0.38338761 5:-0.39318243 6:-0.72075412 7:-0.65415955 8:1.0275615 9:2.2018609 10:-1.1655491 11:1.037667 12:1.0822085 13:-0.7782114 14:-1.1487749 15:1.2934367 16:-0.7680577 17:-0.7197512 18:0.59194311 19:0.95804697 
0 0 0 552.5534350528706 0 0 0 1:-0.51766969 2:-0.77403288 3:0.30945476 4:0.38348574 5:-0.39310619 6:-0.7142263 7:-0.65415955 8:1.0275615 9:2.2018609 10:-1.1635137 11:1.037667 12:1.0822085 13:0.71033985 14:-1.1450343 15:1.2944853 16:-0.7680577 17:-0.71361968 18:0.59516974 19:0.97058983 
0 0 0 0 10.41477742144469 0 422.6065904210154 1:-0.52106875 2:-0.77403288 3:0.30941883 4:0.38343058 5:-0.39314096 6:-0.71789042 7:-0.65415955 8:1.0275615 9:-0.44638017 10:-1.156494 11:1.037667 12:1.0822085 13:2.8460873 14:-1.1340462 15:1.2969321 16:-0.7680577 17:-0.70760437 18:0.61922278 19:1.0343494 
0 0 0 2048 0 0 0 1:-0.51964083 2:-0.77403288 3:0.3094365 4:0.38333722 5:-0.39318278 6:-0.72551696 7:-0.65415955 8:1.0275615 9:0.74532833 10:-1.155811 11:1.037667 12:1.0822085 13:0.64562023 14:-1.1359165 15:1.2986797 16:-0.79747166 17:-0.70903227 18:0.62156942 19:1.0317363 
0 0 0 556.5532196185386 0 0 0 1:-0.51913157 2:-0.77403288 3:0.3094434 4:0.38335533 5:-0.39316909 6:-0.72364284 7:-0.65415955 8:1.0275615 9:0.74532833 10:-1.155453 11:1.037667 12:1.0822085 13:0.64562023 14:-1.1347476 15:1.2983302 16:-0.79747166 17:-0.70971481 18:0.62274274 19:1.0369625 
0 7.807258935529752 0 0 0 0 0 1:-0.51638385 2:-0.77403288 3:0.30946828 4:0.38331366 5:-0.39315035 6:-0.72785966 7:-0.65415955 8:1.0275615 9:3.2611574 10:-1.1533915 11:1.037667 12:1.0822085 13:-0.7782114 14:-1.1314746 15:1.2993788 16:-0.7680577 17:-0.70533505 18:0.62362273 19:1.0442791 
0 0 0 0 0 1.820973994998154 0 1:-0.16640374 2:-0.40421194 3:0.30735931 4:0.38110368 5:-0.37533385 6:-0.43681534 7:-0.36364555 8:0.51463201 9:-0.7774103 10:-1.055784 11:0.50102906 12:0.36119487 13:-0.7782114 14:-0.99330606 15:1.2756106 16:-0.38567622 17:-0.42393469 18:0.69079527 19:1.3275388 
0 2.961262722230198 0.02887059738267827 0 0 0 0 1:-0.52122905 2:-0.77403288 3:0.309414 4:0.3834107 5:-0.3931789 6:-0.71812511 7:-0.65415955 8:1.0275615 9:3.1949513 10:-0.56063897 11:1.037667 12:1.0822085 13:0.25730251 14:-0.60638745 15:0.35459382 16:-0.7680577 17:-0.71462245 18:0.31650637 19:-1.4548861 
0 0 0 0 0 2.494324072128256 0 1:-0.51765686 2:-0.75722284 3:0.30944503 4:0.38353927 5:-0.39301324 6:-0.7105278 7:-0.65415955 8:1.0275615 9:-0.7774103 10:-0.56638238 11:1.037667 12:1.0822085 13:-0.19573482 14:-0.61527138 15:0.36647791 16:-0.73864374 17:-0.69181912 18:0.31063977 19:-1.4423432 
0 0 0.1664012877463255 0 0 0 0 1:-0.52501632 2:-0.77403288 3:0.30938866 4:0.38345129 5:-0.39314086 6:-0.71652032 7:-0.65415955 8:1.0275615 9:2.0032428 10:-0.56187768 11:1.037667 12:1.0822085 13:2.6519285 14:-0.60942669 15:0.3598368 16:-0.7680577 17:-0.70077208 18:0.31415973 19:-1.4517503 
0 0 0 0 15.06916001214175 0.3743271335617727 0 1:-0.52755787 2:-0.79084292 3:0.30936719 4:0.3833667 5:-0.39323744 6:-0.72322731 7:-0.65415955 8:1.0275615 9:-0.7774103 10:-0.56139885 11:1.037667 12:1.0822085 13:1.4222557 14:-0.6054523 15:0.3510985 16:-0.7680577 17:-0.71479692 18:0.31797302 19:-1.4543634 
0 0 0 0 0 0 436.3611173530243 1:-0.33912401 2:-0.60593245 3:0.30998989 4:0.38429032 5:-0.38632592 6:-0.58320976 7:-0.44111595 8:0.33144291 9:-0.7774103 10:-0.84164843 11:-0.36142479 12:-0.37930563 13:-0.7782114 14:-0.62485668 15:0.79640225 16:-0.4739181 17:-0.47010121 18:0.10325556 19:-0.62287623 
0 0 0 0 0 0 2048 1:-0.36703902 2:-0.65636258 3:0.3099197 4:0.38394681 5:-0.38666745 6:-0.56089068 7:-0.44111595 8:0.056659258 9:-0.7774103 10:-0.8985582 11:0.21354444 12:0.22478689 13:-0.71349178 14:-0.67348452 15:0.8526769 16:-0.4739181 17:-0.49042303 18:0.20357437 19:-0.60876551 
0 0 0 0 0 0 78.5484095241988 1:-0.48809282 2:-0.74041279 3:0.30962199 4:0.38369653 5:-0.39246217 6:-0.69315108 7:-0.61542435 8:1.0275615 9:-0.7774103 10:-0.94364515 11:1.037667 12:1.0822085 13:-0.7782114 14:-0.70995539 15:0.88972729 16:-0.70922978 17:-0.67428049 18:0.28453342 19:-0.61608218 
0 0 0 86.84164342206096 0 0 0 1:-0.52116578 2:-0.77403288 3:0.30940386 4:0.38348954 5:-0.39312015 6:-0.71240522 7:-0.67352715 8:1.0275615 9:1.5398007 10:-0.96140393 11:1.037667 12:1.0822085 13:-0.64877216 14:-0.72772326 15:0.89671793 16:-0.79747166 17:-0.70774849 18:0.30095989 19:-0.59517741 
0 0 0 980.880531869524 0 0 175.7103808880596 1:-0.51980193 2:-0.77403288 3:0.30943258 4:0.38347421 5:-0.39311223 6:-0.71489016 7:-0.67352715 8:1.0275615 9:-0.71120428 10:-0.96645375 11:1.037667 12:1.0822085 13:2.2636107 14:-0.73590583 15:0.89671793 16:-0.79747166 17:-0.70774849 18:0.31239975 19:-0.59726789 
0 0 0 2048 0 0 0 1:-0.52233967 2:-0.79084292 3:0.30941291 4:0.38348619 5:-0.39309162 6:-0.71357568 7:-0.65415955 8:1.0275615 9:1.8046248 10:-0.96476779 11:1.037667 12:1.0822085 13:-0.7782114 14:-0.73146386 15:0.90196091 16:-0.79747166 17:-0.70105664 18:0.30829313 19:-0.5920417 
0 0 0 950.7882674539402 0 0 0 1:-0.52116578 2:-0.77403288 3:0.3094249 4:0.38349125 5:-0.39308309 6:-0.71364357 7:-0.67352715 8:1.0275615 9:3.3273634 10:-0.96414051 11:1.037667 12:1.0822085 13:3.0402462 14:-0.73146386 15:0.90265997 16:-0.79747166 17:-0.70050588 18:0.31063977 19:-0.59517741 
0 0 0 1981.141504659651 0 0 0 1:-0.51410687 2:-0.77403288 3:0.30949563 4:0.38337165 5:-0.39309846 6:-0.72247522 7:-0.65415955 8:1.0275615 9:-0.71120428 10:-0.95884394 11:1.037667 12:1.0822085 13:1.7458538 14:-0.73123007 15:0.89741699 16:-0.7680577 17:-0.70419946 18:0.31914634 19:-0.61869528 
0 0 0 405.78915165397 0 0 0 1:-0.51522492 2:-0.77403288 3:0.30947806 4:0.38340755 5:-0.39310943 6:-0.71949305 7:-0.67352715 8:1.0275615 9:2.466685 10:-0.95855912 11:1.037667 12:1.0822085 13:0.96921833 14:-0.73123007 15:0.89566933 16:-0.7680577 17:-0.70722174 18:0.31826635 19:-0.61974052 
0 0 0 672.5814268234874 0 0 248.2169111796104 1:-0.35617761 2:-0.63955254 3:0.31108486 4:0.38440031 5:-0.38414461 6:-0.61789661 7:-0.18933715 8:1.0092426 9:-0.24776209 10:-0.96948431 11:0.67351983 12:0.73144513 13:-0.7782114 14:-0.76045353 15:0.92642815 16:-0.1797785 17:-0.39341905 18:0.35669256 19:-0.57688574 
56.95073116818412 33.33696477417865 15.06454469914608 47.0781145661616 15.49589899854588 56.5504792149119 336.5677560575399 1:0.16216534 2:0.60439062 3:0.28509652 4:0.34087363 5:-0.26651159 6:0.527424 7:0.66283724 8:-0.16316766 9:-0.7774103 10:-0.34629032 11:-0.5530812 12:-0.51571362 13:-0.71349178 14:-0.34664934 15:0.3685751 16:0.64381237 17:1.3033589 18:-0.19183428 19:-0.26540467 
53.15787109676793 0 0 0 0 8.350146954678243 990.7095308128818 1:-0.21989612 2:-0.21930147 3:0.30967442 4:0.37542468 5:-0.35693631 6:-0.10680765 7:-0.24743995 8:-0.40131349 9:-0.71120428 10:-1.177865 11:-0.24643094 12:-0.087002798 13:-0.7782114 14:-1.2479008 15:0.83065638 16:-0.26802038 17:0.23883302 18:0.30975978 19:0.47201107 
12.49830345282755 103.9974877659696 0.4897440349503477 766.7308521387123 23.70237748827704 20.76449148617985 1341.939600571551 1:-0.50755563 2:-0.48826215 3:0.3095724 4:0.38001767 5:-0.37178823 6:-0.40621762 7:-0.55732155 8:0.78941566 9:0.083268052 10:-1.6972144 11:0.78851367 12:1.0822085 13:-0.7782114 14:-1.8468649 15:0.51677666 16:-0.29743434 17:-0.080804421 18:0.67084884 19:0.68471711 
8.441936945057782 0 0 0 0 0 0 1:-0.27979031 2:-0.58912241 3:0.31004879 4:0.3838235 5:-0.37667315 6:-0.55855112 7:-0.28617515 8:0.51463201 9:-0.7774103 10:-1.0908261 11:0.30937265 12:0.24427374 13:-0.7782114 14:-1.1564899 15:1.3532067 16:0.43791465 17:-0.21533107 18:0.63740924 19:0.79655762 
0 0 0 0 0 0 2048 1:-0.38975206 2:-0.77403288 3:0.31018937 4:0.38350716 5:-0.39071492 6:-0.70827919 7:-0.46048355 8:1.0275615 9:-0.7774103 10:-1.1415984 11:1.037667 12:-0.067515943 13:-0.1310152 14:-1.2525766 15:1.3388759 16:-0.7680577 17:-0.68091189 18:0.75210121 19:0.5106849 
0 0 0 465.7454400795092 0 0 690.1103276285442 1:-0.36654095 2:-0.77403288 3:0.31021396 4:0.38350934 5:-0.39162745 6:-0.70987739 7:-0.42174835 8:1.0275615 9:-0.7774103 10:-1.1434517 11:1.037667 12:0.28324745 13:0.12786328 14:-1.2016109 15:1.3151077 16:-0.73864374 17:-0.64945909 18:0.76324775 19:0.36226103 
0 0 0 212.1349048429293 0 0 0 1:-0.35739021 2:-0.77403288 3:0.31023233 4:0.3835026 5:-0.39181117 6:-0.7115998 7:-0.42174835 8:1.0275615 9:1.3411826 10:-1.1446756 11:1.037667 12:-0.28187135 13:1.2928164 14:-1.188285 15:1.3056704 16:-0.73864374 17:-0.65466494 18:0.76530105 19:0.32201935 
0 0 0 0 0 0 939.5426534210019 1:-0.39812351 2:-0.68998267 3:0.3105443 4:0.38385556 5:-0.39081019 6:-0.68601969 7:-0.42174835 8:1.0092426 9:-0.24776209 10:-1.0279151 11:1.037667 12:-0.20392393 13:-0.4546133 14:-1.0129442 15:1.3643917 16:-0.6209879 17:-0.64105622 18:0.76412774 19:1.3536697 
0 0 0 0 8.066810449072012 0 0 1:-0.43289877 2:-0.68998267 3:0.30998127 4:0.38372338 5:-0.39214279 6:-0.69920874 7:-0.47985115 8:1.0275615 9:-0.7774103 10:-1.0543223 11:1.037667 12:0.63401085 13:1.6811342 14:-1.0709236 15:1.3703338 16:-0.67981582 17:-0.68192348 18:0.74916791 19:1.2428745 
0 0 0 746.9360302057532 0 0 0 1:-0.50732723 2:-0.77403288 3:0.30956426 4:0.38350203 5:-0.39298331 6:-0.71058998 7:-0.61542435 8:1.0275615 9:-0.7774103 10:-1.1059029 11:1.037667 12:1.0822085 13:1.9400126 14:-1.2011433 15:1.3738291 16:-0.7680577 17:-0.70768119 18:0.72775483 19:0.95543387 
0 0 0 0 0 0 2048 1:-0.4552657 2:-0.62274249 3:0.30997484 4:0.38415145 5:-0.39099182 6:-0.53003201 7:-0.51858635 8:0.34976182 9:-0.7774103 10:-1.0882817 11:1.037667 12:0.2637606 13:-0.7782114 14:-1.084717 15:1.3189526 16:-0.70922978 17:-0.66341967 18:0.41917182 19:0.67269686 
0 0 0 0 0 0 2048 1:-0.24328367 2:-0.57231237 3:0.30705795 4:0.38434226 5:-0.37777449 6:-0.5662305 7:-0.15060195 8:0.71614002 9:-0.71120428 10:-1.0986578 11:0.90350752 12:0.45862915 13:-0.7782114 14:-1.0875225 15:1.3329339 16:-0.50333206 17:-0.51901122 18:0.54061038 19:0.76781356 
0 0 0 24.53335318243247 0 0 1394.376169177566 1:-0.20067943 2:-0.70679271 3:0.30903807 4:0.3837752 5:-0.3831941 6:-0.66932091 7:-0.16996955 8:1.0275615 9:-0.7774103 10:-1.0881195 11:0.98017008 12:0.47811601 13:-0.7782114 14:-1.1326435 15:1.3570516 16:-0.56215998 17:-0.58158766 18:0.74036802 19:0.97111245 
28.14039950670846 0 0 1367.367551549778 59.67749376337324 7.306588126133137 2048 1:-0.43799708 2:-0.77403288 3:0.30997816 4:0.38322668 5:-0.37719537 6:-0.73836577 7:-0.55732155 8:1.0275615 9:-0.7774103 10:-1.756388 11:0.86517624 12:0.90682682 13:-0.38989368 14:-1.8915183 15:0.51188321 16:-0.1797785 17:0.0067216563 18:0.7362614 19:0.72234569 
0 0 0 0 0 0 630.1002621689029 1:-0.38487838 2:-0.55550232 3:0.31030999 4:0.38404641 5:-0.38744751 6:-0.54485687 7:-0.47985115 8:0.11161599 9:-0.7774103 10:-1.0498316 11:0.098550597 12:0.2637606 13:-0.71349178 14:-1.0152821 15:1.3629936 16:-0.53274602 17:-0.60399305 18:0.75327453 19:1.2381709 
0 0 0 0 0 0 1026.887994949838 1:-0.49330872 2:-0.74041279 3:0.30970802 4:0.38359586 5:-0.39256663 6:-0.69917322 7:-0.61542435 8:1.0275615 9:-0.44638017 10:-1.0911592 11:1.037667 12:1.0822085 13:-0.4546133 14:-1.0777034 15:1.3650908 16:-0.65040186 17:-0.67349762 18:0.87647307 19:1.0171029 
0 0 0 0 0 0 1036.384226547258 1:-0.49295476 2:-0.77403288 3:0.30965507 4:0.38354664 5:-0.39277947 6:-0.70863186 7:-0.61542435 8:1.0275615 9:1.3411826 10:-1.0864299 11:1.037667 12:1.0822085 13:-0.51933292 14:-1.0585328 15:1.3643917 16:-0.7680577 17:-0.69374586 18:0.8905529 19:1.0359172 
0 0 0 1751.758687765957 0 0 0 1:-0.48062238 2:-0.72360275 3:0.30978784 4:0.38372323 5:-0.39239478 6:-0.69122086 7:-0.57668915 8:1.0275615 9:-0.57879222 10:-1.092516 11:1.037667 12:1.0627217 13:-0.32517406 14:-1.0905617 15:1.3675375 16:-0.73864374 17:-0.69814822 18:0.8659132 19:1.0035148 
0 0 0 0 0 0 367.7570891092851 1:-0.495328 2:-0.75722284 3:0.3097172 4:0.3835633 5:-0.39283689 6:-0.70939228 7:-0.55732155 8:1.0275615 9:2.0694489 10:-1.0805287 11:1.037667 12:1.0822085 13:2.1988911 14:-1.0622734 15:1.3720814 16:-0.7680577 17:-0.71859448 18:0.86415322 19:1.0630934 
0 0 0 1067.171633307558 0 0 0 1:-0.47982601 2:-0.77403288 3:0.3098748 4:0.3834576 5:-0.39259109 6:-0.71585797 7:-0.53795395 8:1.0275615 9:1.2749765 10:-1.0807585 11:1.037667 12:1.0432348 13:0.12786328 14:-1.0454407 15:1.3647413 16:-0.7680577 17:-0.69618994 18:0.88439298 19:1.0756363 
0 0 0 0 0 0 466.7595227660197 1:-0.42561526 2:-0.74041279 3:0.31054144 4:0.38359767 5:-0.39113951 6:-0.70160192 7:-0.32491035 8:1.0275615 9:1.4073886 10:-1.0880191 11:1.037667 12:-0.028542232 13:-0.7782114 14:-1.081444 15:1.3664889 16:-0.67981582 17:-0.68502629 18:0.85652664 19:1.0359172 
0 0 0 179.7667143449673 0 0 0 1:-0.49613795 2:-0.77403288 3:0.30965284 4:0.38336161 5:-0.39295997 6:-0.72320345 7:-0.61542435 8:1.0275615 9:1.2749765 10:-1.0878724 11:1.037667 12:1.0822085 13:3.0402462 14:-1.0868211 15:1.3720814 16:-0.7680577 17:-0.70774849 18:0.8512467 19:1.0312137 
0 0 0 0 0 0 526.9617973023254 1:-0.36210518 2:-0.74041279 3:0.31006408 4:0.38361409 5:-0.37756108 6:-0.64820593 7:-0.51858635 8:1.0275615 9:-0.7774103 10:-1.4336764 11:0.098550597 12:0.12735261 13:-0.7782114 14:-1.6109731 15:0.80304336 16:-0.1797785 17:0.6240471 18:0.77908756 19:0.83888978 
0 0 0.02893789139385562 0 0 0 0 1:-0.5203099 2:-0.77403288 3:0.30943652 4:0.3833216 5:-0.39320828 6:-0.72710977 7:-0.65415955 8:1.0275615 9:3.3273634 10:-1.0001648 11:1.037667 12:1.0822085 13:-0.38989368 14:-0.89862205 15:1.3409731 16:-0.79747166 17:-0.71444857 18:0.84743342 19:1.5052293 
0 0 0 0 4.886452003776264 0 0 1:-0.51960414 2:-0.77403288 3:0.30944256 4:0.38336003 5:-0.39318167 6:-0.72368541 7:-0.65415955 8:1.0275615 9:-0.7774103 10:-0.99949458 11:1.037667 12:1.0822085 13:1.6811342 14:-0.89932341 15:1.3416722 16:-0.79747166 17:-0.71274042 18:0.84538011 19:1.5062746 
0 0 0.1720697375572023 0 0 0 0 1:-0.51949436 2:-0.77403288 3:0.30943824 4:0.3833353 5:-0.39319696 6:-0.72551696 7:-0.67352715 8:1.0275615 9:-0.24776209 10:-0.99890238 11:1.037667 12:1.0822085 13:2.9108069 14:-0.89745311 15:1.3413226 16:-0.79747166 17:-0.71357697 18:0.84684676 19:1.508365 
0 1.032243011041636 0.8888718712262657 0 0 0 0 1:-0.52575446 2:-0.77403288 3:0.30938131 4:0.38341576 5:-0.39320949 6:-0.7194107 7:-0.67352715 8:1.0275615 9:3.2611574 10:-0.98758248 11:1.037667 12:1.0822085 13:3.234405 14:-0.88412721 15:1.3385264 16:-0.7680577 17:-0.71859448 18:0.84215348 19:1.5506972 
-0 0 0 0 0 0 20.02168698832495 1:-0.08899966 2:0.60439062 3:0.30253575 4:0.28852159 5:-0.22332525 6:0.36867316 7:-0.015028754 8:-1.0058375 9:-0.64499825 10:0.2170968 11:-1.1472161 12:-0.96391129 13:-0.26045444 14:0.080246956 15:-0.15397522 16:0.73205425 17:1.0412122 18:-0.946572 19:0.28543601 
-0 0 0 0 0 419.483189816192 0 1:0.06741311 2:0.50353037 3:0.28605948 4:0.31411907 5:-0.1984312 6:0.13087148 7:0.10117684 8:-1.1340699 9:-0.64499825 10:0.37116432 11:-1.0705535 12:-1.1587798 13:0.45146137 14:0.41035516 15:-0.44094099 16:0.84971008 17:0.78773319 18:-1.0243044 19:-0.073080792 
-0 167.1937161146043 0 0 0 0 0 1:0.09339689 2:0.94059148 3:0.27336282 4:0.0019618891 5:-0.036090119 6:0.75037924 7:0.23675004 8:-1.1340699 9:-0.71120428 10:0.65251304 11:-1.1280504 12:-1.1782667 13:-0.4546133 14:0.50901356 15:-0.45212601 16:0.32025881 17:0.45328144 18:-1.231102 19:0.13126333 
-0 1911.655080639938 0 0 0 0 0 1:-0.040626196 2:0.50353037 3:0.29283105 4:0.35420132 5:-0.25530735 6:-0.093002924 7:0.081809245 8:-1.0424753 9:-0.44638017 10:0.38290452 11:-1.0705535 12:-1.0418587 13:-0.71349178 14:0.39539275 15:-0.41402702 16:0.29084485 17:0.57563252 18:-1.1228632 19:0.14067048 
-0 2048 0 0 0 0 0 1:0.042247862 2:0.35223998 3:0.29434129 4:0.36033233 5:-0.30386873 6:-0.056615436 7:0.15927964 8:-1.0791132 9:-0.71120428 10:0.064885311 11:-1.0705535 12:-1.139293 13:-0.71349178 14:0.17376203 15:-0.14034348 16:0.026119214 17:0.070790243 18:-0.80254704 19:-0.44414045 
-0 0 0 0 0 0 10.80946004190707 1:-0.017874954 2:0.26818977 3:0.28815411 4:0.35502237 5:-0.28579023 6:-0.035544331 7:-0.053763954 8:-1.0791132 9:-0.64499825 10:0.16865067 11:-1.0897191 12:-1.1198061 13:-0.4546133 14:0.1760999 15:-0.17949106 16:-0.0032947455 17:0.23110975 18:-0.95947852 19:-0.097643897 
-0 2048 0 0 419.8966735812967 2048 0 1:-0.35547665 2:0.35223998 3:0.31023528 4:0.17138605 5:-0.21369935 6:0.66612201 7:-0.40238075 8:0.56958874 9:-0.7774103 10:-0.88646763 11:0.55852598 12:0.59503714 13:-0.7782114 14:-1.449192 15:0.19870255 16:0.23201693 17:0.7350625 18:0.34994597 19:0.60266588 
-0 0 0 1.329531806979353 0 0 0 1:0.046676014 2:-0.13525126 3:0.30220888 4:0.38080905 5:-0.330728 6:-0.34035269 7:0.023706445 8:-0.80432951 9:-0.71120428 10:0.34355196 11:-0.9747253 12:-1.0418587 13:-0.51933292 14:0.42812302 15:-0.59788085 16:-0.091536624 17:0.16165434 18:-1.0624373 19:0.3068634 
-0 0 0 0 0 1615.941636579157 0 1:0.39565607 2:0.43629019 3:0.22536433 4:0.19024578 5:-0.08006786 6:0.41129894 7:0.70157244 8:-1.0791132 9:-0.57879222 10:0.08412349 11:-0.87889709 12:-1.0613456 13:-0.64877216 14:0.070427874 15:-0.069738015 16:1.2320916 17:0.89183093 18:-0.63476236 19:-0.44309521 
-0 116.8252879420388 0 0 0 641.3797626396487 0 1:0.52265714 2:0.30180985 3:0.23716656 4:0.30488057 5:-0.16682311 6:0.64414379 7:0.66283724 8:0.093297078 9:-0.5125862 10:-0.5572441 11:0.060219315 12:0.088378899 13:-0.64877216 14:-1.0092036 15:0.28643508 16:1.2320916 17:0.67883049 18:0.16661481 19:-0.015070057 
-0 696.8426657809654 0 0 0 1424.818515239092 0 1:0.27899126 2:1.2431722 3:0.26566919 4:0.029032331 5:-0.023106209 6:0.71824839 7:1.2244976 8:-1.1523888 9:-0.64499825 10:0.3649797 11:-1.1280504 12:-1.139293 13:-0.4546133 14:0.26096483 15:-0.20360877 16:1.1732636 17:0.9259545 18:-0.93659879 19:-0.018205772 
-0 1350.515233747282 0 0 0 0 0 1:0.17982922 2:0.50353037 3:0.27842023 4:0.33024238 5:-0.22394537 6:0.040806811 7:0.50789644 8:-1.1523888 9:-0.71120428 10:0.31503363 11:-1.0897191 12:-1.1587798 13:-0.51933292 14:0.5595117 15:-0.54824731 16:0.908538 17:0.50537818 18:-0.83129337 19:-0.61503694 
-0.8350953476271085 95.09461124591007 3.984851677876022 0.6915397689583854 0 0 1.82561056726358 1:0.31016296 2:0.82292118 3:0.26412726 4:0.22480512 5:-0.016386659 6:0.73770543 7:1.1470272 8:-1.115751 9:0.14947408 10:0.041545892 11:-1.1663817 12:-1.2562141 13:-0.7782114 14:0.16300779 15:-0.030590432 16:3.5557944 17:2.1396296 18:-0.1419682 19:-0.8664168 
-0 1645.485969039129 0 0 0 0 0 1:-0.0057452745 2:-0.034391 3:0.30062219 4:0.3692964 5:-0.31716686 6:-0.15207796 7:0.12054444 8:-1.0791132 9:-0.64499825 10:0.29096955 11:-0.99389094 12:-1.0223719 13:-0.4546133 14:0.41432955 15:-0.45107741 16:-0.062122665 17:0.081120943 18:-1.0084646 19:-0.15042844 
-6.361486438629639 0 0 0 0 102.3130040308641 0 1:0.36578091 2:1.0246417 3:0.27223696 4:0.20708768 5:-0.12913145 6:0.83818125 7:0.60473444 8:-1.1340699 9:-0.57879222 10:0.017274983 11:-1.1472161 12:-1.1782667 13:-0.7782114 14:-0.083871994 15:0.10502798 16:1.1144357 17:1.0386604 18:-0.24346033 19:-0.94271921 
-33.9896375084181 0 0 0 0 313.4467169388573 47.0335243623965 1:0.39328653 2:0.016039128 3:0.23946686 4:0.30306064 5:-0.20089195 6:0.024390225 7:0.79841044 8:-1.1340699 9:-0.71120428 10:-0.53247201 11:-1.1472161 12:-1.1782667 13:-0.7782114 14:-0.52245768 15:0.66847354 16:0.67322633 17:0.46032945 18:0.02522982 19:-0.63437386 
-22.7012330908844 1399.458395256924 0 0 66.45858165723683 387.1241168392172 0 1:-0.36955315 2:-0.068011086 3:0.31092538 4:0.33799891 5:-0.34086417 6:-0.023049219 7:-0.22807235 8:0.64286438 9:-0.64499825 10:-1.4838215 11:0.6160229 12:0.78990569 13:-0.7782114 14:-1.7545187 15:0.48531878 16:-0.032708705 17:-0.25746598 18:0.56701007 19:0.71659688 
-88.71419296489648 0 0 67.70805405789032 24.51839085871186 0 137.0801361091289 1:-0.079528007 2:-0.13525126 3:0.30195379 4:0.37902818 5:-0.34382574 6:-0.34835789 7:-0.073131554 8:0.22152945 9:-0.7774103 10:-1.4141088 11:0.1943788 12:0.22478689 13:-0.64877216 14:-1.5950755 15:0.66462869 16:0.34967277 17:0.34726187 18:0.63828923 19:0.44692535 
-3.942959877887771 0 0 0 0 0 0 1:-0.34059577 2:-0.30335168 3:0.3105117 4:0.37599978 5:-0.36574218 6:-0.3357306 7:-0.38301315 8:-0.71273496 9:-0.7774103 10:0.24831092 11:-0.70640633 12:-0.61314789 13:-0.51933292 14:0.15669553 15:-0.42521205 16:-0.41509018 17:-0.25517062 18:-1.087077 19:0.74847665 
-0 1161.112921254439 0 0 0 0 0 1:-0.36821381 2:0.066469256 3:0.31072659 4:0.31536174 5:-0.31287855 6:0.0052577312 7:-0.38301315 8:-1.1340699 9:-0.71120428 10:0.36323993 11:-0.76390325 12:-0.71058217 13:-0.51933292 14:0.32736053 15:-0.58075378 16:-0.20919246 17:-0.17231219 18:-1.1014502 19:0.39727652 
-0 0 0 0 132.3568017203069 0 0 1:-0.25018525 2:-0.40421194 3:0.30864392 4:0.378955 5:-0.35338593 6:-0.36844769 7:-0.26680755 8:-0.87760515 9:-0.7774103 10:0.44155294 11:-0.53391556 12:-0.57417418 13:-0.51933292 14:0.5157934 15:-0.82542617 16:-0.12095058 17:-0.11118067 18:-1.1008635 19:0.38264318 
-0 0 0 0 44.79964038970388 0 0 1:-0.32337582 2:-0.30335168 3:0.31017725 4:0.38137245 5:-0.3552902 6:-0.37603599 7:-0.36364555 8:-0.69441605 9:-0.7774103 10:0.41981163 11:-0.91722838 12:-0.45725305 13:-0.19573482 14:0.49779175 15:-0.76915152 16:-0.091536624 17:0.13065308 18:-1.0947036 19:0.27132529 
-4.252000584348586 0 0 5.895786866006866 48.80758692460169 72.22150980291005 0 1:-0.46107022 2:0.13370943 3:0.31001877 4:0.38834099 5:-0.37725579 6:-0.4426035 7:-0.51858635 8:0.62454547 9:0.017062024 10:0.30708839 11:0.59685726 12:1.0822085 13:-0.38989368 14:0.32058069 15:-0.63178545 16:0.084947133 17:-0.37515599 18:-1.0727038 19:0.4239301 
-0 1659.797675012175 0 0 0 0 0 1:-0.21141205 2:0.15051947 3:0.30712369 4:0.29823476 5:-0.27844471 6:0.093176487 7:-0.073131554 8:-1.1707077 9:-0.44638017 10:0.43879856 11:-1.0897191 12:-0.43776619 13:-0.4546133 14:0.45009906 15:-0.65520409 16:0.14377505 17:0.096052193 18:-1.1140634 19:0.29327529 
-0 0 0 0 0 0 2.057215789830086 1:-0.058880499 2:0.40267011 3:0.30682083 4:0.28390058 5:-0.24230005 6:0.33796037 7:0.29485284 8:-1.0791132 9:-0.7774103 10:0.091389833 11:-0.99389094 12:-1.0613456 13:-0.7782114 14:0.034190784 15:-0.14034348 16:1.1144357 17:1.5780119 18:-0.78465392 19:0.55719801 
-8.732709582774415 0 0 0 0 333.8493010093512 44.02424083053406 1:0.12715479 2:0.53715045 3:0.28816932 4:0.28200893 5:-0.20335449 6:0.75007463 7:0.31422044 8:-0.65777823 9:-0.7774103 10:-0.58559099 11:-0.76390325 12:-1.0613456 13:-0.7782114 14:-0.70434449 15:0.82576294 16:0.93795196 17:1.2236723 18:0.16280152 19:0.7552707 
-0 0 0 0 0 20.92244188469392 0 1:-0.20785577 2:0.43629019 3:0.31092306 4:0.36292252 5:-0.27246025 6:-0.12640133 7:0.25611764 8:-1.0607942 9:-0.71120428 10:0.48177977 11:-0.95555966 12:-0.63263475 13:-0.51933292 14:0.58476076 15:-0.7656562 16:2.5557197 17:0.65489105 18:-1.1052635 19:0.22951575 
-0 2048 0 0 0 0 0 1:-0.20633503 2:0.23456968 3:0.30772351 4:0.31471278 5:-0.28053255 6:0.076731296 7:-0.16996955 8:-1.115751 9:-0.64499825 10:0.21162455 11:-1.0705535 12:-0.98339814 13:-0.38989368 14:0.12980994 15:-0.35880097 16:-0.0032947455 17:0.043509806 18:-1.0055313 19:0.36644199 
-0 2048 0 0 0 0 0 1:-0.25733557 2:0.70525088 3:0.30801225 4:0.25788789 5:-0.2370408 6:0.28825289 7:-0.28617515 8:-1.0974321 9:-0.64499825 10:0.17303519 11:-1.0897191 12:-1.0808324 13:-0.38989368 14:0.017124283 15:-0.33817858 16:0.026119214 17:0.15869495 18:-0.94569201 19:0.55092658 
-0 853.5845306078888 0 0 0 0 0 1:-0.32376686 2:0.68844084 3:0.30996478 4:0.29683958 5:-0.2792775 6:0.9514614 7:-0.28617515 8:-0.016616381 9:-0.64499825 10:-0.49581311 11:-0.054774531 12:0.010431478 13:-0.71349178 14:-1.0110739 15:0.076715888 16:-0.091536624 17:0.54078239 18:-0.075968981 19:0.64499804 
-0 2048 0 0 0 0 0 1:-0.27846886 2:0.2009496 3:0.30981456 4:0.30475542 5:-0.29880383 6:0.032020072 7:-0.18933715 8:-1.1340699 9:-0.24776209 10:0.19928053 11:-1.0322222 12:-0.88596387 13:-0.4546133 14:0.077675292 15:-0.29693381 16:-0.15036454 17:-0.069454403 18:-1.029291 19:0.4129551 
-0 2048 0 0 0 0 0 1:-0.26997335 2:0.2009496 3:0.30968984 4:0.33803438 5:-0.31125304 6:-0.052089704 7:-0.20870475 8:-1.0791132 9:-0.5125862 10:0.20100925 11:-0.95555966 12:-0.88596387 13:-0.4546133 14:0.075103627 15:-0.28714691 16:-0.15036454 17:-0.047879397 18:-1.0448375 19:0.44535749 
-0 0 0 0 0 0 1.789405385700687 1:-0.35566328 2:-0.10163117 3:0.31048026 4:0.37463456 5:-0.35438368 6:-0.28741181 7:-0.40238075 8:-1.0424753 9:-0.049144003 10:0.19071436 11:-0.82140017 12:-0.2623845 13:-0.51933292 14:0.053595161 15:-0.31336181 16:-0.15036454 17:-0.18041121 18:-1.0627306 19:0.60527898 
-0 578.8121675184257 0 0 0 0 0 1:-0.29438714 2:-0.051201043 3:0.31004369 4:0.3574564 5:-0.32915888 6:-0.14284737 7:-0.24743995 8:-1.0241564 9:-0.44638017 10:0.17649979 11:-1.1088848 12:-0.59366104 13:-0.4546133 14:0.079779381 15:-0.32944028 16:-0.12095058 17:-0.060175246 18:-1.0219578 19:0.47723727 
-0 2048 0 0 0 0 0 1:-0.28985332 2:0.40267011 3:0.30872351 4:0.26758943 5:-0.2635013 6:0.20725938 7:-0.24743995 8:-1.1340699 9:-0.64499825 10:0.27556269 11:-0.82140017 12:-0.80801645 13:-0.4546133 14:0.11695162 15:-0.36963646 16:-0.1797785 17:-0.12974452 18:-1.0633173 19:0.59691707 
-0 2048 0 0 0 0 0 1:-0.19166477 2:0.45310024 3:0.30765401 4:0.29202236 5:-0.25489484 6:0.15375581 7:0.0043388454 8:-1.0974321 9:-0.71120428 10:0.27906078 11:-1.0705535 12:-0.80801645 13:-0.4546133 14:0.15061705 15:-0.3843168 16:0.43791465 17:0.16442241 18:-1.0545174 19:0.57078611 
-0 0 0 0 41.79891022031128 0 0 1:-0.069030963 2:-0.1520613 3:0.29905845 4:0.36825597 5:-0.28324142 6:-0.23509652 7:0.19801484 8:-1.0058375 9:-0.5125862 10:0.22005937 11:-1.0130566 12:-1.1003193 13:0.32202213 14:0.31894417 15:-0.39480276 16:0.73205425 17:0.5067803 18:-0.96827841 19:-0.032316492 
-0 2048 0 0 0 0 0 1:-0.15061298 2:-0.00077091511 3:0.30961749 4:0.3660202 5:-0.323134 6:-0.21671225 7:0.062441645 8:-1.0058375 9:-0.71120428 10:0.2341655 11:-1.0705535 12:-1.0223719 13:-0.51933292 14:0.2539512 15:-0.42521205 16:0.32025881 17:0.18088205 18:-1.0196111 19:0.21122407 
-0 2048 0 0 0 0 0 1:-0.26308733 2:0.13370943 3:0.30916252 4:0.3355482 5:-0.29999658 6:-0.02591877 7:-0.24743995 8:-1.0791132 9:-0.71120428 10:0.25298856 11:-1.0705535 12:-0.84699016 13:-0.51933292 14:0.14149933 15:-0.35285892 16:0.084947133 17:0.072829579 18:-1.0688906 19:0.47775989 
-0 0 0 0 0 0 16.4488532963242 1:-0.22384378 2:-0.034391 3:0.30882247 4:0.34169457 5:-0.31908696 6:-0.10898344 7:-0.30554275 8:-1.0424753 9:-0.64499825 10:0.19993585 11:-1.0513879 12:-0.96391129 13:-0.4546133 14:0.10572981 15:-0.31126462 16:-0.20919246 17:-0.041560719 18:-1.0380909 19:0.3967539 
-0 2048 0 0 0 0 0 1:-0.29708302 2:0.16732951 3:0.3100729 4:0.23349147 5:-0.25175439 6:0.33924117 7:-0.24743995 8:-0.89592406 9:-0.7774103 10:0.12320428 11:-0.72557197 12:-0.8275033 13:-0.7782114 14:-0.043660513 15:-0.38676353 16:0.026119214 17:0.25897185 18:-0.86825293 19:0.67269686 
-0 2048 0 0 0 0 0 1:-0.26603189 2:0.13370943 3:0.30879319 4:0.32300399 5:-0.30652565 6:-0.041941382 7:-0.26680755 8:-1.1340699 9:-0.71120428 10:0.25630306 11:-1.0705535 12:-1.0808324 13:-0.4546133 14:0.17025521 15:-0.36089816 16:-0.062122665 17:0.03028673 18:-1.0709439 19:0.42497534 
-0 2048 0 0 0 0 0 1:-0.14426888 2:0.21775964 3:0.30593129 4:0.32970086 5:-0.28720702 6:-0.048267741 7:-0.015028754 8:-1.0607942 9:-0.44638017 10:0.23073843 11:-1.1472161 12:-1.002885 13:-0.4546133 14:0.1609037 15:-0.35845144 16:0.29084485 17:0.23634682 18:-1.027531 19:0.3450146 
-0 2048 0 0 0 0 0 1:-0.23848028 2:0.3186199 3:0.30819653 4:0.2999228 5:-0.27231902 6:0.12945118 7:-0.16996955 8:-1.0241564 9:-0.7774103 10:0.23794776 11:-1.0705535 12:-0.84699016 13:-0.4546133 14:0.15692931 15:-0.32279917 16:0.026119214 17:0.024929782 18:-1.0307577 19:0.26662171 
-0 2048 0 0 0 0 0 1:-0.21453596 2:0.85654126 3:0.30924971 4:0.23337778 5:-0.22837367 6:1.0372735 7:-0.16996955 8:-0.21812439 9:-0.7774103 10:-0.31287742 11:-0.26559658 12:-0.20392393 13:-0.71349178 14:-0.78453366 15:0.028130941 16:0.026119214 17:0.55640314 18:-0.23847372 19:0.43176939 
-0 1696.999781334182 0 12.69632451014189 0 970.2730832904257 0 1:-0.41428666 2:0.35223998 3:0.31077071 4:0.3426741 5:-0.32298773 6:0.012531019 7:-0.36364555 8:0.95428585 9:-0.7774103 10:-1.5081195 11:0.96100444 12:1.0432348 13:-0.7782114 14:-1.8627624 15:0.41366472 16:-0.1797785 17:-0.37484692 18:0.65236906 19:0.66694805 
-0 596.9777845061875 0 0 0 0 0 1:-0.13219255 2:-0.10163117 3:0.3078264 4:0.37304113 5:-0.32510894 6:-0.25235111 7:0.12054444 8:-0.91424297 9:-0.31396811 10:0.19115404 11:-0.91722838 12:-0.90545072 13:-0.51933292 14:0.15108462 15:-0.33957671 16:-0.062122665 17:0.13906923 18:-1.0143312 19:0.27341576 
-0 0 3.926429467700798 0 0 0 0 1:1.0678847 2:1.0918819 3:0.0233626 4:0.24036643 5:0.16485402 6:0.56741097 7:2.17351 8:-1.0607942 9:-0.7774103 10:-0.31367471 11:-1.1472161 12:-1.1003193 13:-0.7782114 14:-0.33075178 15:0.46050201 16:1.673301 17:1.5274219 18:0.78407417 19:-0.44518569 
-0 0 1.53554146867222 13.1424390290124 2.494246072273132 24.66782378661389 0 1:0.93939593 2:0.18413955 3:0.17059422 4:0.35599616 5:-0.021201991 6:0.083343841 7:2.17351 8:-1.0607942 9:-0.71120428 10:-0.2579915 11:-1.1088848 12:-1.2172404 13:-0.7782114 14:-0.22180672 15:0.41716004 16:1.673301 17:1.712506 18:1.6344374 19:0.034056152 
-0 68.42109472302958 0 1.352046437186028 0 27.29558968600309 0 1:0.38087238 2:1.2095522 3:0.29903887 4:0.21627805 5:-0.11030554 6:1.7847414 7:0.48852884 8:-1.0607942 9:-0.7774103 10:-0.033745964 11:-1.1088848 12:-1.0613456 13:-0.7782114 14:0.043542291 15:-0.0099680451 16:1.4968172 17:1.3631169 18:0.79874066 19:-0.25442967 
-0 33.87056238081145 0 0 0 772.674662746904 0 1:0.21008583 2:1.2599823 3:0.28517491 4:0.11126555 5:-0.094891743 6:0.84403116 7:0.54663164 8:-0.9691997 9:-0.7774103 10:0.15841117 11:-0.99389094 12:-0.57417418 13:-0.7782114 14:0.15576038 15:-0.25953388 16:1.4968172 17:1.0484395 18:-0.637109 19:-0.075171269 
-0 2048 0 0 0 0 0 1:-0.026216985 2:0.26818977 3:0.29477945 4:0.19200905 5:-0.17572683 6:0.38219709 7:0.50789644 8:-1.1340699 9:-0.24776209 10:0.74478993 11:-1.1855474 12:-1.1003193 13:-0.4546133 14:0.79376695 15:-1.140704 16:0.40850069 17:0.25048013 18:-1.1366498 19:0.41347772 
-0 503.2991206234924 0 0 0 0 0 1:-0.056341979 2:0.30180985 3:0.29897084 4:0.23287458 5:-0.21594831 6:0.24441231 7:0.43042604 8:-1.1707077 9:-0.5125862 10:0.77060453 11:-1.1280504 12:-1.1003193 13:-0.4546133 14:0.82860131 15:-1.1581806 16:0.40850069 17:0.19393515 18:-1.1865158 19:0.48403132 
-0 0 0 0 11.27156090558426 229.6803457883048 0 1:-0.015674971 2:-0.16887134 3:0.29386935 4:0.37467729 5:-0.31826009 6:-0.34234053 7:0.37232324 8:-0.62114041 9:-0.57879222 10:0.37085411 11:-0.85973145 12:-0.90545072 13:-0.64877216 14:0.40451046 15:-0.64017422 16:0.55557049 17:0.19755013 18:-1.0891303 19:0.5624242 
-0 2048 0 0 0 1261.158203923734 0 1:-0.14842174 2:0.26818977 3:0.30696908 4:0.25438062 5:-0.24118414 6:0.20572206 7:0.12054444 8:-1.1523888 9:-0.44638017 10:0.64713728 11:-0.99389094 12:-1.002885 13:-0.4546133 14:0.67663932 15:-1.0113772 16:0.64381237 17:0.20693766 18:-1.143983 19:0.41452296 
-0 1161.56324750053 0 0 0 317.0305539699556 0 1:-0.091329229 2:0.26818977 3:0.30564619 4:0.29465364 5:-0.23758626 6:0.14833626 7:0.21738244 8:-1.1340699 9:-0.18155606 10:0.65662185 11:-0.95555966 12:-1.1587798 13:-0.4546133 14:0.73859306 15:-1.0833808 16:1.2026776 17:0.35257267 18:-1.1073168 19:0.3288134 
-0 921.2789211374176 0 0 0 1282.461815457944 0 1:-0.43283615 2:0.33542994 3:0.31019972 4:0.22304873 5:-0.23352381 6:0.46178533 7:-0.38301315 8:0.62454547 9:-0.64499825 10:-1.0044218 11:0.6160229 12:0.80939255 13:-0.7782114 14:-1.5279785 15:0.18891566 16:0.23201693 17:0.87250812 18:0.43119835 19:0.6873302 
-18.12119389501256 0 1.308395173152352 2.856999750075277 286.4686968720142 0 4.360770555065975 1:-0.3200662 2:0.2009496 3:0.30996981 4:0.29758837 5:-0.25399841 6:0.92147182 7:-0.38301315 8:-0.32803785 9:-0.7774103 10:-0.016000546 11:-0.38059043 12:-0.067515943 13:-0.71349178 14:-0.40603141 15:-0.46470916 16:0.43791465 17:1.6540777 18:-0.35052573 19:0.52949919 
-0 0 0 0 0 493.6041936472763 0 1:0.7296602 2:0.97421156 3:0.083279372 4:-0.035031813 5:0.16746469 6:0.70749652 7:1.0308216 8:-1.1523888 9:-0.64499825 10:0.60867069 11:-1.1280504 12:-1.1977536 13:-0.58405254 14:0.69393961 15:-0.38781212 16:1.1732636 17:1.4201617 18:-1.0304643 19:0.077433549 
-0 1447.427037035792 0 0 0 0 0 1:0.034487875 2:0.46991028 3:0.28565782 4:0.30080009 5:-0.23883977 6:0.065002476 7:0.50789644 8:-0.98751861 9:-0.57879222 10:0.48194095 11:-1.0897191 12:-1.0808324 13:-0.51933292 14:0.60206105 15:-0.59473506 16:0.26143089 17:0.27743325 18:-1.11377 19:-0.13736296 
-0 468.108380227553 0 0 0 0 0 1:0.07583655 2:-0.11844121 3:0.27953794 4:0.33777154 5:-0.25444287 6:-0.078637891 7:0.74030764 8:-1.0791132 9:-0.64499825 10:0.49847077 11:-1.1088848 12:-1.1782667 13:-0.51933292 14:0.629648 15:-0.64366954 16:0.40850069 17:0.31983853 18:-1.1272632 19:-0.10077961 
-0 2048 0 0 0 213.3158456784844 0 1:0.18156237 2:0.80611113 3:0.2596125 4:0.17593838 5:-0.12481918 6:0.38054125 7:0.39169084 8:-1.1340699 9:-0.71120428 10:0.67026278 11:-1.1280504 12:-1.1587798 13:-0.4546133 14:0.79493589 15:-0.82962056 16:0.73205425 17:0.64088189 18:-1.1208099 19:-0.1765594 
-0 0 0 0 0 793.7526702181494 0 1:0.098132589 2:0.80611113 3:0.27919484 4:0.21885026 5:-0.15612407 6:0.27749295 7:0.39169084 8:-1.0607942 9:-0.7774103 10:0.64717508 11:-1.204713 12:-1.0613456 13:-0.4546133 14:0.78932498 15:-0.84779622 16:0.73205425 17:0.76430374 18:-1.1079034 19:-0.1765594 
-1.397376448216106 0 0 0 0 0 0 1:0.19664574 2:0.2009496 3:0.24088435 4:0.20988824 5:-0.051863743 6:0.27034824 7:0.27548524 8:-1.1707077 9:-0.64499825 10:0.84331628 11:-1.1855474 12:-1.1977536 13:-0.4546133 14:0.87091688 15:-0.53671275 16:0.70264029 17:1.4487109 18:-1.3560605 19:-0.36104399 
-0 0 0 3.049695539841673 0 0 0 1:0.42223941 2:0.11689938 3:0.1477435 4:0.30074267 5:-0.11174572 6:0.045600955 7:0.41105844 8:-1.1523888 9:-0.64499825 10:0.99546396 11:-1.1663817 12:-1.2172404 13:-0.64877216 14:1.1252779 15:-0.65520409 16:0.49674257 17:0.89780162 18:-1.4619526 19:-0.64116791 
-0 0 0 0 15.58976538570542 0 0 1:0.28838232 2:-0.00077091511 3:0.21122321 4:0.28183025 5:-0.12004666 6:0.079003325 7:0.39169084 8:-1.0791132 9:-0.64499825 10:0.82632408 11:-1.204713 12:-1.1977536 13:-0.64877216 14:0.94806682 15:-0.74118896 16:0.87912404 17:1.0556656 18:-1.3035544 19:-0.37672257 
-0 0 3.398778173132375 0.1171981229121484 0 0 0 1:0.62934295 2:0.26818977 3:0.080001283 4:0.23798037 5:0.0061525956 6:0.19904539 7:0.77904284 8:-1.1340699 9:-0.64499825 10:1.0544082 11:-1.1855474 12:-1.2367273 13:-0.38989368 14:1.244042 15:-0.83276634 16:0.82029612 17:1.1332963 18:-1.3771802 19:-0.69604293 
-0 1979.660595942898 0 0 0 55.93441427840612 0 1:0.26066314 2:0.60439062 3:0.25234315 4:0.12221538 5:-0.088260082 6:0.41003254 7:1.108292 8:-1.0791132 9:-0.64499825 10:0.81385363 11:-1.1855474 12:-1.0613456 13:-0.4546133 14:0.92001229 15:-0.81983366 16:1.0850218 17:0.78988815 18:-1.255155 19:-0.19694155 
-0 1677.710342391779 0 0 0 2048 0 1:0.12141832 2:0.58758058 3:0.27349091 4:-0.04829469 5:0.00096986211 6:0.85187522 7:0.12054444 8:-0.98751861 9:-0.64499825 10:0.55176027 11:-1.0705535 12:-1.0613456 13:-0.4546133 14:0.42812302 15:-0.56362671 16:0.52615653 17:1.0175295 18:-1.0028913 19:-0.011411722 
-0 1816.75757810112 48.83353246819286 0 0 0 0 1:0.085294706 2:0.55396049 3:0.29110642 4:0.18022575 5:-0.16716699 6:1.1007416 7:0.12054444 8:0.18489163 9:-0.7774103 10:-0.32795396 11:0.15604752 12:0.18581318 13:-0.7782114 14:-0.92316976 15:-0.015211025 16:0.52615653 17:1.270585 18:0.013496626 19:0.37114556 
-0 2048 0 0 0 0 0 1:-0.31581361 2:0.23456968 3:0.30928825 4:0.26771303 5:-0.27907793 6:0.15550506 7:-0.32491035 8:-1.1707077 9:-0.71120428 10:0.35628329 11:-1.0130566 12:-0.71058217 13:-0.51933292 14:0.41362818 15:-0.48393342 16:-0.12095058 17:-0.19324111 18:-1.0744638 19:-0.0030498141 
-0 2048 0 0 0 0 0 1:-0.30694155 2:0.26818977 3:0.30929326 4:0.26370905 5:-0.27760363 6:0.15814567 7:-0.28617515 8:-1.1890266 9:-0.44638017 10:0.32654207 11:-1.0130566 12:-1.0613456 13:-0.51933292 14:0.37879382 15:-0.45666993 16:-0.12095058 17:-0.18875052 18:-1.0533441 19:-0.0035724334 
-0 0 0 0 0 223.9807244163413 0 1:-0.25510053 2:0.73887096 3:0.30924401 4:0.03310259 5:-0.16011817 6:0.57341628 7:-0.24743995 8:-1.1340699 9:-0.64499825 10:0.56416574 11:-1.1280504 12:-1.002885 13:-0.4546133 14:0.53122339 15:-0.53216883 16:-0.12095058 17:-0.10323596 18:-1.1888625 19:0.010015667 
-0 0 0 0 0 301.9362707608458 0 1:-0.25070217 2:0.73887096 3:0.30772508 4:0.045376136 5:-0.1640203 6:0.5686489 7:-0.24743995 8:-1.1340699 9:-0.71120428 10:0.55891864 11:-1.0322222 12:-1.002885 13:-0.51933292 14:0.53987353 15:-0.51504177 16:-0.12095058 17:-0.1235489 18:-1.1847558 19:-0.042246257 
-0 2048 0 0 0 0 0 1:-0.18373896 2:0.26818977 3:0.3078522 4:0.1585422 5:-0.22308821 6:0.32604736 7:-0.034396354 8:-1.1890266 9:-0.44638017 10:0.48490953 11:-1.1663817 12:-0.98339814 13:-0.4546133 14:0.47768601 15:-0.46995214 16:-0.0032947455 17:-0.051388985 18:-1.175956 19:0.052347825 
-0 2048 0 0 0 0 0 1:-0.22039311 2:0.43629019 3:0.30682731 4:0.074334201 5:-0.17853893 6:0.49435514 7:-0.20870475 8:-1.1707077 9:-0.64499825 10:0.44121942 11:-1.0513879 12:-0.98339814 13:-0.4546133 14:0.37318292 15:-0.4367466 16:0.026119214 17:0.098756791 18:-1.1123034 19:0.085272837 
-0 1029.069344603075 0 0 0 0 0 1:-0.27605615 2:0.53715045 3:0.31020356 4:0.13698063 5:-0.22299612 6:0.35245812 7:-0.22807235 8:-1.1707077 9:-0.64499825 10:0.43885713 11:-1.1088848 12:-0.98339814 13:-0.4546133 14:0.39726305 15:-0.44478584 16:-0.12095058 17:-0.023623238 18:-1.143103 19:0.10147403 
-0 1502.920214188139 0 0 0 0 0 1:-0.30813347 2:0.33542994 3:0.3106733 4:0.12324048 5:-0.22311017 6:0.36896454 7:-0.22807235 8:-1.1890266 9:-0.44638017 10:0.46203942 11:-1.1088848 12:-0.98339814 13:-0.4546133 14:0.44004619 15:-0.49826423 16:-0.12095058 17:-0.087319796 18:-1.1477963 19:0.094157364 
-0 2048 0 0 0 0 0 1:-0.32868557 2:0.33542994 3:0.31032628 4:0.16260672 5:-0.23617106 6:0.32890696 7:-0.40238075 8:-1.1890266 9:-0.24776209 10:0.42110995 11:-1.0322222 12:-0.76904273 13:-0.4546133 14:0.36874095 15:-0.45457273 16:-0.12095058 17:-0.10849702 18:-1.1369431 19:0.16471096 
-0 2048 0 0 0 0 0 1:-0.27451122 2:0.13370943 3:0.30995327 4:0.25533945 5:-0.27514367 6:0.15544251 7:-0.15060195 8:-1.1890266 9:-0.44638017 10:0.30364487 11:-1.0513879 12:-0.88596387 13:-0.4546133 14:0.30935888 15:-0.39620089 16:-0.23860642 17:-0.14120676 18:-1.0580373 19:0.077956168 
-0 2048 0 0 0 0 0 1:-0.30018384 2:0.016039128 3:0.31016074 4:0.26098922 5:-0.28026988 6:0.12574385 7:-0.15060195 8:-1.115751 9:-0.44638017 10:0.36139911 11:-1.0513879 12:-0.88596387 13:-0.4546133 14:0.4075497 15:-0.50071096 16:-0.12095058 17:-0.051872334 18:-1.0800371 19:0.053915683 
-0 37.07369727932785 0 0 0 0 0 1:-0.32223968 2:0.25137973 3:0.31048211 4:0.21103596 5:-0.24720275 6:0.29123156 7:-0.26680755 8:-1.1707077 9:0.083268052 10:0.42211567 11:-1.1280504 12:-0.41827934 13:-0.51933292 14:0.40123744 15:-0.43010549 16:-0.12095058 17:-0.16520028 18:-1.144863 19:0.072729976 
-0 1782.324249461374 0 0 0 0 0 1:-0.24385414 2:0.36905002 3:0.30852799 4:0.084901116 5:-0.18415368 6:0.48715384 7:-0.18933715 8:-1.1890266 9:-0.71120428 10:0.47444055 11:-1.1280504 12:-0.90545072 13:-0.51933292 14:0.4000685 15:-0.43325128 16:-0.12095058 17:-0.07737188 18:-1.1574762 19:0.10565499 
-0 2048 0 0 0 0 0 1:-0.24536419 2:0.36905002 3:0.30743221 4:0.14420862 5:-0.21096772 6:0.39804818 7:-0.32491035 8:-1.1707077 9:-0.44638017 10:0.39548816 11:-1.1088848 12:-1.1198061 13:-0.4546133 14:0.35097309 15:-0.44024192 16:-0.032708705 17:-0.054751372 18:-1.0920636 19:0.10304189 
-0 2048 0 0 0 0 0 1:-0.22199699 2:0.3186199 3:0.30756574 4:0.18910382 5:-0.22680983 6:0.32528959 7:-0.20870475 8:-1.1707077 9:-0.71120428 10:0.40239469 11:-1.0705535 12:-1.0223719 13:-0.51933292 14:0.37061125 15:-0.39025885 16:-0.12095058 17:-0.041563855 18:-1.1196366 19:0.034578771 
-0 2048 0 0 0 0 0 1:-0.20049128 2:0.3186199 3:0.30702686 4:0.25705528 5:-0.25826818 6:0.17502613 7:-0.16996955 8:-1.1890266 9:-0.5125862 10:0.40395189 11:-1.0705535 12:-1.0223719 13:-0.51933292 14:0.44776119 15:-0.43569801 16:-0.062122665 17:0.029593114 18:-1.1143567 19:-0.075171269 
-0 1157.673779404069 0 0 0 0 0 1:-0.1957975 2:0.30180985 3:0.30680013 4:0.22886151 5:-0.24466455 6:0.24733001 7:-0.16996955 8:-1.1890266 9:-0.7774103 10:0.42428496 11:-1.0513879 12:-0.92493758 13:-0.4546133 14:0.46529526 15:-0.50245862 16:-0.062122665 17:-0.013125504 18:-1.1073168 19:-0.028135538 
-0 1693.236348834415 0 0 0 0 0 1:-0.29488234 2:0.53715045 3:0.30898656 4:0.15077234 5:-0.21697927 6:0.39104403 7:-0.36364555 8:-1.1707077 9:-0.44638017 10:0.45631435 11:-1.1663817 12:-1.0418587 13:-0.51933292 14:0.3963279 15:-0.45632039 16:-0.15036454 17:-0.074941761 18:-1.1557162 19:0.13910262 
-0 486.8425620151754 0 0 0 219.1156029155524 0 1:-0.22404864 2:0.8733513 3:0.30953193 4:0.086690214 5:-0.16453336 6:1.3050133 7:-0.26680755 8:-0.38299458 9:-0.71120428 10:0.0063989945 11:-0.43808735 12:-0.20392393 13:-0.4546133 14:-0.50445603 15:-0.13370237 16:0.026119214 17:0.73412675 18:-0.4455646 19:0.40720629 
-0 0 0 0 0 298.5678250693898 0 1:-0.46138015 2:0.50353037 3:0.3100456 4:0.21278557 5:-0.24487889 6:0.41689793 7:-0.51858635 8:0.78941566 9:-0.7774103 10:-1.1931954 11:0.78851367 12:1.0432348 13:-0.7782114 14:-1.7150086 15:0.33991347 16:-0.091536624 17:0.11131948 18:0.52858386 19:0.66747067 
-8.071250589233346 -2048 0 5.854297379234978 0 86.4156064791819 21.19261446099117 1:-0.05338367 2:0.15051947 3:0.29519339 4:0.3302335 5:-0.2929818 6:-0.049351178 7:0.10117684 8:-1.1523888 9:-0.7774103 10:0.015669748 11:-1.0897191 12:-1.1198061 13:-0.51933292 14:0.14290205 15:-0.15467429 16:-0.062122665 17:0.12463473 18:-0.750041 19:-0.46818094 
-0 -0 0 0 0 860.9976171063231 0 1:0.004772874 2:0.15051947 3:0.30357876 4:0.30865601 5:-0.2794333 6:0.062609057 7:0.081809245 8:-1.0424753 9:-0.5125862 10:0.20439146 11:-0.95555966 12:-0.84699016 13:-0.58405254 14:0.27569345 15:-0.3493636 16:0.11436109 17:0.047199788 18:-0.93923876 19:-0.0814427 
-0 -2048 0 0 0 270.6565898804075 0 1:-0.090695934 2:0.30180985 3:0.29954884 4:0.23306041 5:-0.2506325 6:0.21658966 7:0.10117684 8:-1.0241564 9:-0.64499825 10:0.37311498 11:-0.87889709 12:-0.73006902 13:-0.4546133 14:0.41923909 15:-0.63388264 16:-0.29743434 17:-0.20034774 18:-1.0245977 19:0.14694191 
-0 -2048 0 0 0 0 0 1:-0.19637471 2:0.55396049 3:0.3047945 4:0.27915475 5:-0.26814377 6:0.16286059 7:-0.20870475 8:-1.0974321 9:-0.71120428 10:0.37118238 11:-0.91722838 12:-1.002885 13:-0.58405254 14:0.35003794 15:-0.58180238 16:-0.26802038 17:-0.17694655 18:-1.0762238 19:0.35233127 
-0 -2048 0 0 0 0 0 1:-0.22131585 2:0.03284917 3:0.30643201 4:0.3138542 5:-0.29841521 6:-0.0012810841 7:-0.13123435 8:-1.0974321 9:-0.7774103 10:0.27819929 11:-1.0130566 12:-0.76904273 13:-0.58405254 14:0.18919201 15:-0.43534847 16:-0.062122665 17:-0.034577252 18:-1.0683039 19:0.64290757 
-0 -2048 0 0 0 0 0 1:-0.1291063 2:0.066469256 3:0.30310565 4:0.33869231 5:-0.30824482 6:-0.11154457 7:-0.034396354 8:-1.0241564 9:-0.7774103 10:0.24543614 11:-0.82140017 12:-0.57417418 13:-0.58405254 14:0.33133492 15:-0.44967929 16:-0.091536624 17:-0.016033171 18:-0.99731807 19:0.02151329 
-0 -2048 0 0 0 0 0 1:-0.081070869 2:0.03284917 3:0.30319708 4:0.32127936 5:-0.2968304 6:-0.037065229 7:0.062441645 8:-1.0241564 9:-0.71120428 10:0.30331015 11:-0.82140017 12:-0.76904273 13:-0.58405254 14:0.31356706 15:-0.46121384 16:-0.15036454 17:-0.11785379 18:-1.0677172 19:0.30843125 
-0 -154.8609331547285 0 0 0 0 0 1:-0.22770363 2:0.52034041 3:0.3083998 4:0.1185675 5:-0.17751187 6:0.72581332 7:0.023706445 8:-0.82264842 9:-0.71120428 10:0.021434224 11:-0.89806274 12:-0.80801645 13:-0.7782114 14:-0.24845852 15:-0.2455526 16:-0.0032947455 17:0.45841208 18:-0.69401499 19:0.57548968 
-0 -1907.161227642956 0 0 165.5755253183149 0 0 1:-0.4029233 2:0.30180985 3:0.31054216 4:0.23289626 5:-0.26070048 6:0.75100713 7:-0.34427795 8:0.34976182 9:-0.7774103 10:-0.82657779 11:0.32853829 12:0.4391423 13:-0.7782114 14:-1.3596514 15:0.21408196 16:-0.0032947455 17:0.33791334 18:0.2156009 19:0.64499804 
-0 -100.0913731106025 0 0 0 0 0 1:0.44625796 2:0.30180985 3:0.23483643 4:0.21867732 5:-0.093422479 6:0.26400761 7:1.882996 8:-1.1707077 9:-0.5125862 10:0.50431993 11:-0.95555966 12:-1.0418587 13:-0.51933292 14:0.64975374 15:-0.78033655 16:1.8203708 17:0.62854472 18:-0.90550582 19:-0.34379756 
-0 -70.8753507778501 0 0.234567305999923 0 0 0 1:0.55373197 2:0.26818977 3:0.17230073 4:0.17219118 5:0.024233591 6:0.40913258 7:1.0308216 8:-1.1340699 9:-0.44638017 10:0.49571571 11:-1.1855474 12:-1.2172404 13:-0.4546133 14:0.62660876 15:-0.6027743 16:2.5263058 17:1.0056002 18:-0.85387977 19:-0.55650359 
-8.54057032707791 -182.1198141139009 2.391155035836624 0.5193114814438306 0 302.7927722243151 2.605485890067722 1:0.50779845 2:1.1086919 3:0.21874999 4:0.10416892 5:0.0047137611 6:0.93826922 7:2.2897156 8:-1.0974321 9:-0.31396811 10:0.084578585 11:-1.1855474 12:-1.1977536 13:-0.51933292 14:0.076272566 15:-0.019055877 16:1.2909195 17:1.5805404 18:-0.28071322 19:-0.62339885 
-0 -0 0 0 0 41.93442605650755 0 1:0.1622332 2:0.53715045 3:0.28322134 4:0.14122856 5:-0.12363972 6:0.40037852 7:0.89524844 8:-1.0974321 9:-0.44638017 10:0.37330455 11:-1.0513879 12:-1.1782667 13:-0.51933292 14:0.47745222 15:-0.54649965 16:1.4674032 17:0.71946596 18:-0.87851948 19:-0.36574757 
-0 -207.7731138802718 0 0 0 0 0 1:0.043108244 2:0.35223998 3:0.28994344 4:0.13585906 5:-0.14823365 6:0.44929651 7:0.21738244 8:-1.1340699 9:-0.44638017 10:0.63803343 11:-1.1472161 12:-1.139293 13:-0.4546133 14:0.75659471 15:-1.0134744 16:0.29084485 17:0.27475098 18:-1.0410242 19:0.061754972 
-0 -2048 0 0 0 0 0 1:-0.079637678 2:0.3186199 3:0.30229708 4:0.18727756 5:-0.17428265 6:0.3242253 7:0.043074045 8:-1.1707077 9:-0.5125862 10:0.62459667 11:-1.1663817 12:-1.1587798 13:-0.4546133 14:0.73719033 15:-0.91071198 16:0.46732861 17:0.57000764 18:-1.0911836 19:-0.043814115 
-0 -0 0 3.23764767520851 0 0 0 1:0.45278182 2:0.28499981 3:0.2240723 4:0.19543801 5:0.010610596 6:0.3343729 7:1.8442608 8:-1.1523888 9:-0.5125862 10:0.59734574 11:-1.2430443 12:-1.2562141 13:-0.51933292 14:0.73344973 15:-0.86387469 16:2.6439616 17:1.3527627 18:-0.90902578 19:-0.28683206 
-0.43908210472742 -427.9537429555333 12.26681432157258 0 96.85489152574893 212.0412064805901 0 1:-0.23134417 2:0.36905002 3:0.30942172 4:0.20901097 5:-0.20864468 6:0.58971661 7:-0.015028754 8:0.55126983 9:-0.7774103 10:-0.88020516 11:0.53936034 12:0.57555028 13:-0.7782114 14:-1.4152928 15:0.17353625 16:0.7614682 17:0.95406148 18:0.36343915 19:0.58228373 
-0 -112.5980585643851 0 0 0 0 0 1:0.11536525 2:0.50353037 3:0.28431142 4:0.21006966 5:-0.14582279 6:0.3456251 7:0.48852884 8:-1.1890266 9:-0.64499825 10:0.64583014 11:-1.1855474 12:-1.0808324 13:-0.4546133 14:0.77857075 15:-0.88379801 16:0.73205425 17:0.52265158 18:-1.11289 19:0.0084478091 
-0 -731.3225892998639 0 0 0 1244.718703152707 0 1:0.06856904 2:0.41948015 3:0.29101049 4:0.25107457 5:-0.20651327 6:0.22261289 7:0.62410204 8:-1.0607942 9:-0.64499825 10:0.60674684 11:-1.0705535 12:-1.1782667 13:-0.4546133 14:0.76594621 15:-0.94985956 16:0.7614682 17:0.22075956 18:-1.0850237 19:0.087885934 
-0 -348.7403640975604 0 0 0 0 0 1:-0.0033589636 2:0.30180985 3:0.29446828 4:0.198899 5:-0.1836183 6:0.27271582 7:0.60473444 8:-1.1340699 9:-0.64499825 10:0.66077272 11:-1.1663817 12:-1.1003193 13:-0.4546133 14:0.81714572 15:-0.97607446 16:0.70264029 17:0.49738713 18:-1.1043835 19:-0.027090299 
-0 -0 0 0 0 2048 0 1:0.037416139 2:0.75568101 3:0.28872498 4:0.0053191175 5:-0.075020144 6:0.62417169 7:0.21738244 8:-1.1340699 9:-0.5125862 10:0.74252551 11:-1.1663817 12:-1.1782667 13:-0.51933292 14:0.81130102 15:-0.89638117 16:1.0261938 17:0.59685164 18:-1.1565962 19:-0.044336734 
-0 -0 0 0 0 570.1602628103534 0 1:0.21032152 2:0.43629019 3:0.26465417 4:0.036641885 5:-0.026006479 6:0.59603997 7:0.83714564 8:-1.1523888 9:-0.44638017 10:0.65152393 11:-1.204713 12:-1.0808324 13:-0.4546133 14:0.71077232 15:-0.82822243 16:1.1438497 17:1.0792198 18:-1.0181445 19:-0.19746417 
-0 -285.7911635042383 3.234710990714313 0 0 0 0 1:1.0218171 2:0.94059148 3:-0.021872627 4:0.082929886 5:0.27791942 6:0.58261209 7:2.270348 8:-1.1523888 9:-0.31396811 10:0.81049974 11:-1.204713 12:-1.275701 13:-0.51933292 14:0.91837578 15:-0.7929197 16:1.9380266 17:1.522594 18:-0.96270515 19:-0.42950711 
-0 -2048 0 0 0 0 0 1:0.14746883 2:0.48672032 3:0.28099494 4:0.18928886 5:-0.12302847 6:0.33543894 7:0.81777804 8:-1.0424753 9:-0.64499825 10:0.76111494 11:-1.1280504 12:-1.139293 13:-0.4546133 14:0.89803625 15:-0.92539232 16:1.4379893 17:0.835353 18:-1.1674494 19:-0.22986656 
-0 -2048 0 0 0 0 0 1:0.043746767 2:0.53715045 3:0.28501031 4:0.1443329 5:-0.15260422 6:0.38585047 7:0.37232324 8:-1.1523888 9:-0.71120428 10:0.74346381 11:-1.1280504 12:-1.1977536 13:-0.4546133 14:0.89265914 15:-0.89638117 16:0.55557049 17:0.44901141 18:-1.1879825 19:-0.22254989 
-0 -2048 0 0 0 0 0 1:0.014330453 2:0.30180985 3:0.29173684 4:0.20108552 5:-0.18078461 6:0.32586744 7:0.39169084 8:-1.1523888 9:-0.64499825 10:0.68932926 11:-1.2238786 12:-1.1198061 13:-0.4546133 14:0.75472441 15:-0.95020909 16:0.23201693 17:0.34007746 18:-1.1747826 19:0.27550624 
-0 -523.1291808326167 0 0 0 0 0 1:-0.08557394 2:0.52034041 3:0.30024438 4:0.092114377 5:-0.16943811 6:0.43226685 7:0.12054444 8:-1.1523888 9:-0.38017414 10:0.69934208 11:-1.1088848 12:-1.139293 13:-0.4546133 14:0.80101437 15:-0.99599778 16:0.49674257 17:0.26851366 18:-1.1299032 19:0.0047894745 
-0 -0 0 0 0 383.9681923312749 0 1:0.19893212 2:0.70525088 3:0.27327882 4:0.13243545 5:-0.075539282 6:0.46233611 7:0.72094004 8:-1.1707077 9:-0.24776209 10:0.72149955 11:-1.204713 12:-1.2562141 13:-0.4546133 14:0.80078058 15:-0.91735308 16:1.2026776 17:0.78696236 18:-1.1477963 19:0.16627882 
-0 -0 0 0 0 1457.700534462579 0 1:0.10757146 2:0.78930109 3:0.27900441 4:-0.033447269 5:-0.051391733 6:0.63122097 7:0.46916124 8:-1.0974321 9:-0.64499825 10:0.72886317 11:-1.1663817 12:-1.1977536 13:-0.4546133 14:0.81083345 15:-0.95859786 16:0.87912404 17:0.66758078 18:-1.0973436 19:-0.028658157 
-0 -0 0 0 0 929.7848682520469 0 1:-0.080327671 2:0.36905002 3:0.30093661 4:0.10781519 5:-0.16381809 6:0.44352703 7:0.062441645 8:-1.115751 9:-0.38017414 10:0.55349856 11:-1.1663817 12:-0.98339814 13:-0.51933292 14:0.64577935 15:-0.8432523 16:0.40850069 17:0.29522169 18:-1.0445442 19:0.0068799514 
-0 -81.09222456919258 0 0 0 0 0 1:0.088116782 2:0.58758058 3:0.28826069 4:0.14715546 5:-0.058406679 6:0.42692668 7:0.60473444 8:-1.1523888 9:-0.31396811 10:0.78151472 11:-1.1855474 12:-1.0808324 13:-0.4546133 14:0.83982312 15:-1.0522724 16:1.1144357 17:1.215867 18:-1.1343031 19:0.17202763 
-0 -0 0 0 0 1940.682647730803 0 1:0.05739085 2:0.35223998 3:0.28411091 4:0.19560717 5:-0.15629776 6:0.35649739 7:0.43042604 8:-1.1707077 9:-0.64499825 10:0.62319121 11:-1.1088848 12:-1.1587798 13:-0.4546133 14:0.6960437 15:-0.90721666 16:0.70264029 17:0.45427642 18:-1.1026235 19:0.18875145 
-0 -2048 0 0 0 0 0 1:-0.024104378 2:0.52034041 3:0.30175045 4:0.24506682 5:-0.18798687 6:0.25336562 7:0.33358804 8:-1.115751 9:-0.44638017 10:0.62880859 11:-1.1088848 12:-1.1587798 13:-0.38989368 14:0.71801974 15:-0.95055862 16:0.79088216 17:0.57666682 18:-1.1043835 19:0.16784668 
-2.338598368531264 -0 12.60434694518018 1.32720697131242 0 0 3.952712665479893 1:-0.12059233 2:0.70525088 3:0.30781434 4:0.21873507 5:-0.17035323 6:1.0301364 7:0.062441645 8:-0.36467567 9:-0.44638017 10:0.061062018 11:-0.41892171 12:-0.39879248 13:-0.64877216 14:-0.31345149 15:-0.47379699 16:0.99677988 17:1.7316405 18:-0.36577888 19:0.46364917 
-0 -74.82449880354007 0 0 50.58315812458481 0 0 1:-0.44738636 2:0.049659213 3:0.31031116 4:0.31682554 5:-0.29002556 6:0.092500981 7:-0.38301315 8:0.80773457 9:0.48050422 10:-1.3284082 11:0.80767931 12:0.84836626 13:-0.7782114 14:-1.7334778 15:0.30880513 16:0.23201693 17:0.45440166 18:0.58196989 19:0.6737421 
-0 -1993.46687981506 0 0 0 0 0 1:-0.28082385 2:0.75568101 3:0.30921853 4:-0.2089047 5:-0.086384764 6:0.79176673 7:-0.26680755 8:-1.1523888 9:-0.64499825 10:0.55955243 11:-0.87889709 12:-1.002885 13:-0.4546133 14:0.36523414 15:-0.67967133 16:-0.091536624 17:-0.083304457 18:-1.1149433 19:0.7688588 
-0 -0 0 0 0 735.6220112599939 0 1:-0.30895299 2:0.90697139 3:0.30983029 4:-0.41514596 5:0.072834414 6:1.2420376 7:-0.32491035 8:-0.85928624 9:-0.64499825 10:0.41588002 11:-0.93639402 12:-0.84699016 13:-0.4546133 14:0.02951503 15:-0.56083046 16:0.46732861 17:0.88237194 18:-0.81457357 19:0.66851591 
-0 -5.528354793058512 0 0 0 0 0 1:-0.27092698 2:0.73887096 3:0.30920761 4:-0.29054432 5:-0.016722014 6:0.95392815 7:-0.24743995 8:-1.2073455 9:-0.64499825 10:0.65879756 11:-1.1280504 12:-1.0613456 13:-0.4546133 14:0.45080043 15:-0.78348233 16:0.055533174 17:0.045807251 18:-1.1290232 19:0.74743141 
-0 -1056.989786149474 0.4400315564450467 0 0 1650.664777602263 0 1:-0.34591149 2:0.90697139 3:0.31071216 4:0.078743123 5:-0.14069938 6:1.0470377 7:-0.13123435 8:0.29480509 9:-0.71120428 10:-0.50450515 11:0.27104137 12:0.40016858 13:-0.7782114 14:-1.1712185 15:-0.0029774054 16:0.49674257 17:1.2525275 18:0.17306807 19:0.66485757 
-0 -0 0 0 0 76.73427734000893 0 1:-0.179499 2:0.89016135 3:0.30680689 4:-0.2719394 5:0.038968065 6:1.3310814 7:0.023706445 8:-0.73105387 9:-0.64499825 10:0.32944026 11:-0.80223453 12:-0.78852959 13:-0.4546133 14:-0.067039281 15:-0.57201548 16:0.61439841 17:1.1379001 18:-0.6262558 19:0.50598133 
-0 -0 0 0 0 2048 0 1:-0.40545859 2:0.83973122 3:0.31072584 4:0.083303247 5:-0.14061812 6:0.95920561 7:-0.32491035 8:0.44135637 9:-0.11535003 10:-0.66276566 11:0.42436649 12:0.45862915 13:-0.7782114 14:-1.3355712 15:0.11446534 16:0.23201693 17:0.93667293 18:0.26488032 19:0.65545043 
-0 -0 0 0 0 1074.070273952126 0 1:-0.25747408 2:0.90697139 3:0.30955474 4:-0.26544353 5:-0.013687815 6:0.93477873 7:-0.22807235 8:-1.2073455 9:-0.64499825 10:0.73490302 11:-0.99389094 12:-1.1003193 13:-0.4546133 14:0.56395366 15:-0.94251939 16:0.37908673 17:0.2342663 18:-1.1334231 19:0.73488855 
-0 -0 0 0 0 931.7151822217929 0 1:-0.030828338 2:0.83973122 3:0.29604998 4:-0.27070168 5:0.017758253 6:0.9837924 7:0.15927964 8:-1.1890266 9:-0.5125862 10:0.69731013 11:-1.0322222 12:-1.1003193 13:-0.51933292 14:0.5669929 15:-0.9131587 16:0.32025881 17:0.1399105 18:-1.0788638 19:0.63820399 
-0 -0 0 0 0 2048 0 1:-0.28958974 2:0.9910216 3:0.31094671 4:-0.31201806 5:0.072790246 6:1.1753458 7:-0.11186675 8:-0.91424297 9:0.017062024 10:0.4596505 11:-0.99389094 12:-0.92493758 13:-0.4546133 14:0.11858814 15:-0.62444528 16:0.64381237 17:0.94532502 18:-0.85475976 19:0.54831348 
-0 -0 0 0 0 2048 0 1:-0.029678672 2:1.0078316 3:0.29943309 4:-0.3123875 5:0.012735641 6:0.97401894 7:0.37232324 8:-1.1890266 9:-0.64499825 10:0.68545377 11:-1.0897191 12:-1.0808324 13:-0.4546133 14:0.54361413 15:-0.83521307 16:0.34967277 17:0.13533085 18:-1.1032101 19:0.45528726 
-0 -0 0 0 0 2048 0 1:-0.17091287 2:1.142312 3:0.30672962 4:-0.32374746 5:0.063945668 6:1.1114912 7:-0.053763954 8:-1.1340699 9:-0.71120428 10:0.54568241 11:-1.1088848 12:-1.1198061 13:-0.4546133 14:0.30374798 15:-0.73384879 16:0.49674257 17:0.51088086 18:-0.946572 19:0.49814204 
-0 -0 0 0 0 430.3683001828909 0 1:-0.37542711 2:0.92378143 3:0.3106649 4:0.049585183 5:-0.13532258 6:1.2798169 7:-0.36364555 8:0.038340348 9:-0.71120428 10:-0.24162062 11:0.0027223922 12:0.029918333 13:-0.51933292 14:-0.8995572 15:-0.097351042 16:0.37908673 17:1.1797255 18:-0.080955589 19:0.62304804 
-0 -0 0 0 0 796.2447897411797 0 1:-0.023532543 2:1.3272225 3:0.29629903 4:-0.37908128 5:0.054640096 6:1.0908057 7:0.25611764 8:-1.1890266 9:-0.64499825 10:0.78683077 11:-1.1088848 12:-1.0613456 13:-0.38989368 14:0.63315481 15:-0.87156439 16:-0.0032947455 17:-0.022795178 18:-1.1677427 19:0.39309557 
-0 -570.6892187923337 0 0 0 2048 0 1:0.35001396 2:1.0750718 3:0.22921004 4:-0.32318652 5:0.11678373 6:1.0418243 7:0.52726404 8:-1.1890266 9:-0.5125862 10:0.64297057 11:-1.1280504 12:-1.2367273 13:-0.4546133 14:0.63829814 15:-0.67372929 16:0.37908673 17:0.2245291 18:-0.95419858 19:-0.39501424 
-0 -0 0 0 0 2048 0 1:0.26226483 2:1.0750718 3:0.23497219 4:-0.34750039 5:0.06608194 6:0.96385656 7:0.46916124 8:-1.2073455 9:-0.44638017 10:0.58284157 11:-1.0705535 12:-1.1977536 13:-0.4546133 14:0.61678968 15:-0.68246759 16:0.26143089 17:0.22596246 18:-0.90961244 19:-0.43421069 
-0 -0 10.31533386000235 0 0 88.1752804168588 0 1:0.039867621 2:0.78930109 3:0.29808426 4:0.17392551 5:-0.18474259 6:1.0678052 7:0.17864724 8:-0.18148657 9:-0.71120428 10:-0.24119152 11:-0.2272653 12:-0.16495022 13:-0.58405254 14:-0.67558861 15:-0.178792 16:0.29084485 17:1.107009 18:-0.10471531 19:0.25930504 
-66.74150628528618 -50.61640314353479 0 18.74412158837161 0 0 16.39378161117335 1:-0.50858391 2:-0.35378181 3:0.30956909 4:0.38640342 5:-0.37552495 6:-0.49577626 7:-0.51858635 8:0.99092367 9:1.1425645 10:-1.7687339 11:0.99933572 12:1.0822085 13:-0.7782114 14:-1.916066 15:0.40737315 16:0.084947133 17:-0.16054598 18:0.71484832 19:0.69151116 
-0 -0 0 0 0 217.9396040831233 0 1:-0.020056055 2:1.1255019 3:0.29239586 4:-0.31767202 5:0.020097824 6:0.96741337 7:0.31422044 8:-1.2073455 9:-0.44638017 10:0.72018583 11:-1.0130566 12:-1.1587798 13:-0.4546133 14:0.6619107 15:-0.96069505 16:0.23201693 17:0.1151938 18:-1.0674239 19:0.24467171 
-0 -1082.539173419522 0 0 0 0 0 1:-0.16208351 2:0.72206092 3:0.30473699 4:0.042142411 5:-0.13593466 6:1.2333679 7:-0.13123435 8:-0.21812439 9:-0.71120428 10:-0.061942689 11:-0.26559658 12:-0.20392393 13:-0.4546133 14:-0.56360431 15:-0.28749644 16:0.40850069 17:1.3341462 18:-0.24404699 19:0.42811106 
-0 -1695.088395730646 0 0 0 2048 0 1:-0.46984375 2:0.2009496 3:0.31000215 4:0.35073355 5:-0.32382615 6:-0.059632108 7:-0.49921875 8:0.95428585 9:-0.7774103 10:-1.5105409 11:0.96100444 12:1.0432348 13:-0.7782114 14:-1.8552812 15:0.38744982 16:0.23201693 17:0.008935294 18:0.66028897 19:0.67530996 
-0 -876.6827242274173 0 0 0 0 0 1:-0.18677525 2:0.46991028 3:0.3049162 4:0.12992382 5:-0.20963018 6:0.39555908 7:0.0043388454 8:-1.1890266 9:-0.71120428 10:0.39044765 11:-0.89806274 12:-1.002885 13:-0.51933292 14:0.38721018 15:-0.48638014 16:-0.23860642 17:-0.1754881 18:-1.0683039 19:0.077956168 
-0 -0 0 0 0 26.18643741703699 0 1:-0.0020657588 2:0.26818977 3:0.30202196 4:0.24931396 5:-0.21841086 6:0.2219701 7:0.81777804 8:-1.1707077 9:-0.31396811 10:0.45669818 11:-1.1280504 12:-1.0223719 13:-0.4546133 14:0.40053607 15:-0.40808498 16:0.49674257 17:0.2376473 18:-1.1809426 19:0.29797887 
-0 -2048 0 0 0 0 0 1:-0.24565522 2:0.11689938 3:0.30866519 4:0.24424686 5:-0.25990296 6:0.19893918 7:-0.20870475 8:-1.1890266 9:-0.57879222 10:0.32198053 11:-1.0705535 12:-1.0223719 13:-0.4546133 14:0.2976695 15:-0.43185315 16:-0.062122665 17:-0.010745455 18:-1.0609706 19:0.16680144 
-0 -1102.321337563885 0 0 0 0 0 1:-0.20724172 2:0.43629019 3:0.30986656 4:0.22290348 5:-0.23943868 6:0.80251228 7:0.043074045 8:0.313124 9:-0.7774103 10:-0.71713652 11:0.29020701 12:0.32222116 13:-0.7782114 14:-1.2345749 15:0.14033071 16:0.11436109 17:0.67854886 18:0.18685457 19:0.55510753 
-0 -2048 0 0 0 0 0 1:-0.061000905 2:0.45310024 3:0.30193388 4:0.1251337 5:-0.18759086 6:0.42321464 7:0.062441645 8:-1.1890266 9:-0.71120428 10:0.33132753 11:-1.1088848 12:-1.1003193 13:-0.4546133 14:0.25371741 15:-0.29134129 16:0.11436109 17:0.24609336 18:-1.0377976 19:0.042940679 
-0 -575.4543302781384 0 0 0 0 0 1:-0.22505154 2:-0.00077091511 3:0.30948288 4:0.32052218 5:-0.30050626 6:-0.019337722 7:0.0043388454 8:-1.1523888 9:-0.38017414 10:0.30215688 11:-1.0705535 12:-0.96391129 13:-0.4546133 14:0.27335558 15:-0.37872429 16:0.14377505 17:0.027819935 18:-1.0920636 19:0.22428956 
-0 -1756.697403316004 0 0 0 0 0 1:-0.15581609 2:0.15051947 3:0.30644661 4:0.31011672 5:-0.2772714 6:0.036604529 7:0.0043388454 8:-1.1707077 9:-0.38017414 10:0.33252467 11:-1.1855474 12:-1.0418587 13:-0.4546133 14:0.28200572 15:-0.3339842 16:0.14377505 17:0.15580556 18:-1.1193433 19:0.22847051 
-0 -2048 0 0 0 0 0 1:-0.30498878 2:0.35223998 3:0.30999505 4:0.22682021 5:-0.2540051 6:0.24172252 7:-0.36364555 8:-1.1707077 9:-0.71120428 10:0.2999169 11:-0.99389094 12:-0.88596387 13:-0.4546133 14:0.19386777 15:-0.34796548 16:-0.032708705 17:-0.071335391 18:-1.0741705 19:0.2906622 
-0 -2048 0 0 0 0 0 1:-0.3501299 2:0.25137973 3:0.31037702 4:0.25379024 5:-0.27047628 6:0.18069502 7:-0.38301315 8:-1.1707077 9:-0.64499825 10:0.28146812 11:-0.99389094 12:-0.90545072 13:-0.4546133 14:0.1686187 15:-0.315459 16:-0.032708705 17:-0.067421563 18:-1.0785704 19:0.30634078 
-0 -2048 0 0 0 0 0 1:-0.32630309 2:0.26818977 3:0.3098885 4:0.28783055 5:-0.2749378 6:0.15736531 7:-0.40238075 8:-1.1707077 9:-0.64499825 10:0.27117943 11:-1.1472161 12:-0.94442443 13:-0.51933292 14:0.18428247 15:-0.34377109 16:-0.12095058 17:-0.062129088 18:-1.0606773 19:0.27864196 
-0 -2048 0 0 0 0 0 1:-0.26611265 2:0.30180985 3:0.30889597 4:0.15048271 5:-0.22723334 6:0.33796141 7:-0.16996955 8:-1.1707077 9:-0.44638017 10:0.37366859 11:-0.9747253 12:-0.94442443 13:-0.4546133 14:0.29579919 15:-0.42451298 16:-0.12095058 17:-0.066277892 18:-1.1002768 19:0.24049075 
-0 -0 0 0 0 584.6117762677862 0 1:-0.13845002 2:0.83973122 3:0.30749926 4:0.19802744 5:-0.19655864 6:0.38871976 7:0.41105844 8:-1.1340699 9:-0.11535003 10:0.38048488 11:-1.1088848 12:-1.0613456 13:-0.32517406 14:0.28200572 15:-0.38082148 16:0.17318901 17:0.096694405 18:-1.0979302 19:0.23526456 
-0 -2048 0 0 0 0 0 1:-0.29425866 2:0.30180985 3:0.30996771 4:0.29143248 5:-0.27570845 6:0.10526058 7:-0.34427795 8:-1.1523888 9:-0.57879222 10:0.29840788 11:-1.1472161 12:-1.1198061 13:-0.51933292 14:0.18077566 15:-0.299031 16:0.23201693 17:0.11774476 18:-1.1029168 19:0.31365745 
-0 -2048 0 0 0 0 0 1:-0.23513449 2:0.26818977 3:0.30735054 4:0.26302313 5:-0.25961995 6:0.18419161 7:-0.13123435 8:-1.1523888 9:-0.5125862 10:0.32935444 11:-1.1280504 12:-1.0613456 13:-0.51933292 14:0.26680952 15:-0.39340464 16:-0.062122665 17:9.5786452e-005 18:-1.088837 19:0.24362647 
-0 -2048 0 0 0 0 0 1:-0.28170686 2:0.25137973 3:0.30871946 4:0.27151784 5:-0.27286972 6:0.15823874 7:-0.36364555 8:-1.1707077 9:-0.44638017 10:0.31333071 11:-1.1472161 12:-1.0223719 13:-0.4546133 14:0.23080622 15:-0.33363467 16:-0.12095058 17:-0.081387306 18:-1.1005702 19:0.24414909 
-0 -1822.801837430849 0 0 0 0 0 1:-0.24139935 2:0.21775964 3:0.30873858 4:0.29047529 5:-0.26582821 6:0.11903647 7:-0.20870475 8:-1.1523888 9:-0.57879222 10:0.31322578 11:-1.0897191 12:-0.94442443 13:-0.4546133 14:0.25699044 15:-0.39200651 16:0.34967277 17:0.15067394 18:-1.0791571 19:0.25460147 
-0 -2048 0 0 0 0 0 1:-0.34104263 2:0.52034041 3:0.31041632 4:0.28673933 5:-0.29156279 6:0.093295904 7:-0.40238075 8:-1.115751 9:-0.71120428 10:0.28148689 11:-1.0322222 12:-0.84699016 13:-0.51933292 14:0.25605529 15:-0.41227936 16:-0.032708705 17:-0.14262611 18:-1.0556907 19:0.20861098 
-0 -2048 0 0 0 0 0 1:-0.10687819 2:0.48672032 3:0.30046479 4:0.29521881 5:-0.26196918 6:0.13521334 7:0.043074045 8:-1.0607942 9:-0.71120428 10:0.23272114 11:-1.0322222 12:-0.94442443 13:-0.51933292 14:0.22075335 15:-0.35390752 16:0.026119214 17:0.10838088 18:-0.98617153 19:0.092066888 
-0 -2048 0 0 0 0 0 1:-0.076387943 2:0.18413955 3:0.30058037 4:0.32372117 5:-0.26860313 6:0.040345221 7:0.043074045 8:-1.0607942 9:-0.71120428 10:0.27626525 11:-1.204713 12:-1.0613456 13:-0.58405254 14:0.29837086 15:-0.34691688 16:0.34967277 17:0.20146934 18:-1.0272377 19:-0.010366484 
-0 -2048 0 0 0 0 0 1:-0.28986892 2:0.33542994 3:0.30996287 4:0.27584145 5:-0.27248676 6:0.16167732 7:-0.28617515 8:-1.1340699 9:-0.18155606 10:0.33769507 11:-0.9747253 12:-0.88596387 13:-0.51933292 14:0.30421555 15:-0.41822141 16:-0.091536624 17:-0.020252534 18:-1.091477 19:0.18822883 
-0 -2048 0 0 0 0 0 1:-0.10401326 2:0.26818977 3:0.3016415 4:0.28450256 5:-0.25346767 6:0.14287307 7:0.33358804 8:-1.0791132 9:-0.5125862 10:0.35770108 11:-0.9747253 12:-0.90545072 13:-0.4546133 14:0.31263191 15:-0.35181033 16:0.14377505 17:0.036054893 18:-1.1240366 19:0.22638003 
-0 -275.0436348975408 0 0 0 0 0 1:-0.10194474 2:0.23456968 3:0.30145216 4:0.25769028 5:-0.24211975 6:0.1791197 7:0.33358804 8:-1.0791132 9:-0.5125862 10:0.37229638 11:-1.2238786 12:-0.90545072 13:-0.51933292 14:0.32478887 15:-0.38746259 16:0.23201693 17:0.12215919 18:-1.1205166 19:0.2472848 
-0 -2048 0 0 0 0 0 1:-0.26002707 2:0.2009496 3:0.30905634 4:0.26520767 5:-0.26220404 6:0.14966321 7:-0.26680755 8:-1.1707077 9:-0.71120428 10:0.38511814 11:-1.1855474 12:-0.98339814 13:-0.51933292 14:0.34512839 15:-0.42975596 16:0.11436109 17:0.15739658 18:-1.1293165 19:0.19606812 
-0 -313.2508089720147 0 0 0 0 0 1:-0.22299005 2:0.68844084 3:0.30852302 4:0.25521157 5:-0.24797519 6:0.21554533 7:-0.15060195 8:-1.1523888 9:-0.24776209 10:0.41891126 11:-1.1472161 12:-0.71058217 13:-0.51933292 14:0.38393715 15:-0.45002882 16:0.17318901 17:0.10182548 18:-1.145743 19:0.1929324 
-0 -2048 0 0 0 0 0 1:-0.0017125959 2:0.53715045 3:0.29325767 4:0.28928132 5:-0.22613488 6:0.12988373 7:0.31422044 8:-1.0791132 9:-0.18155606 10:0.38196034 11:-1.2238786 12:-1.1782667 13:-0.4546133 14:0.33016598 15:-0.32070198 16:0.26143089 17:0.36523183 18:-1.1313698 19:0.16418834 
-0 -1862.224584679521 0 0 0 0 0 1:-0.23507662 2:-0.017580958 3:0.3087695 4:0.33753517 5:-0.30255714 6:-0.054134153 7:-0.15060195 8:-1.1523888 9:-0.24776209 10:0.35317513 11:-1.0130566 12:-1.1198061 13:-0.51933292 14:0.33063356 15:-0.41472609 16:0.20260297 17:0.11441217 18:-1.1310765 19:0.21435979 
-0 -2048 0 0 0 0 0 1:-0.29932603 2:0.35223998 3:0.30987899 4:0.31744213 5:-0.29521155 6:0.054130068 7:-0.28617515 8:-1.1523888 9:-0.31396811 10:0.36023162 11:-1.0705535 12:-0.74955588 13:-0.51933292 14:0.34536218 15:-0.43360081 16:-0.062122665 17:-0.020788873 18:-1.1216899 19:0.15948477 
-0 -2048 0 0 0 0 0 1:-0.34370869 2:0.049659213 3:0.31023311 4:0.28560341 5:-0.29400335 6:0.078361359 7:-0.30554275 8:-1.115751 9:-0.24776209 10:0.26267789 11:-1.0322222 12:-0.74955588 13:-0.4546133 14:0.23665091 15:-0.43744567 16:-0.032708705 17:-0.098006934 18:-1.0342776 19:0.26714433 
-0 -2048 0 0 0 0 0 1:-0.30579397 2:0.41948015 3:0.3101436 4:0.2952789 5:-0.27825919 6:0.11943138 7:-0.30554275 8:-1.0607942 9:-0.64499825 10:0.32117481 11:-1.0322222 12:-0.71058217 13:-0.4546133 14:0.24904166 15:-0.38746259 16:-0.0032947455 17:0.038484462 18:-1.0961702 19:0.26139552 
-0 -587.6206358722061 0 0 0 0 0 1:-0.27637046 2:0.41948015 3:0.30890177 4:0.27574835 5:-0.26974135 6:0.13052225 7:-0.32491035 8:-1.0791132 9:-0.049144003 10:0.31633775 11:-1.0897191 12:-0.76904273 13:-0.51933292 14:0.24413212 15:-0.35984956 16:-0.062122665 17:0.10127025 18:-1.0917703 19:0.22115384 
-0 -2048 0 0 0 0 0 1:-0.24759311 2:0.13370943 3:0.308816 4:0.27954492 5:-0.27948348 6:0.061357056 7:-0.16996955 8:-1.0974321 9:-0.5125862 10:0.26711208 11:-1.1280504 12:-0.76904273 13:-0.51933292 14:0.22472774 15:-0.3668402 16:-0.091536624 17:0.13348868 18:-1.0480641 19:0.21592765 
-17.71330710285406 -1772.062400812482 0 0 408.8278244231159 0 10.02726786801188 1:-0.2700892 2:0.33542994 3:0.31033066 4:0.29849653 5:-0.29525362 6:0.91345347 7:-0.42174835 8:-0.089892021 9:-0.71120428 10:-0.44368928 11:-0.13143709 12:-0.10648965 13:-0.71349178 14:-0.87828252 15:0.021140302 16:-0.0032947455 17:0.6175957 18:-0.12906169 19:0.44535749 
-0 -1548.957298615074 0 0 0 2048 0 1:0.093402957 2:1.2599823 3:0.2970557 4:0.2324704 5:-0.18227028 6:1.055928 7:0.15927964 8:-0.25476221 9:-0.7774103 10:-0.17146109 11:-0.30392786 12:-0.28187135 13:-0.71349178 14:-0.59539943 15:-0.064844567 16:0.70264029 17:0.9918539 18:-0.26164678 19:0.20077169 
-45.29090243123963 -1397.224052034089 0 34.93377557139716 28.82830596547946 198.5269375157078 13.93231403688888 1:-0.2583204 2:-0.017580958 3:0.30969106 4:0.34869581 5:-0.32841542 6:-0.059305321 7:-0.18933715 8:0.91764803 9:-0.7774103 10:-1.5141947 11:0.92267316 12:0.96528739 13:-0.7782114 14:-1.8300322 15:0.40562549 16:-0.35626226 17:-0.35216387 18:0.64503581 19:0.61886708 
-0.516290397490251 -0.8900199950126727 -0.7473572276789874 0.7878496108490914 0.7470793526248722 0.4935489476383586 0.5281413641134852 1:3.1052434 2:3.2267573 3:-2.9533511 4:-6.7169446 5:5.5533987 6:3.9146694 7:3.2193604 8:-1.1707077 9:-0.18155606 10:3.0910725 11:-1.2813756 12:-1.3146747 13:-0.51933292 14:3.2618635 15:0.71216504 16:6.6736741 17:6.4932964 18:-0.71102813 19:-2.2032768 
-0 -0 -0.005536385447072764 0 0.01947139393068119 0.09641546734914293 0 1:2.9459147 2:3.1595171 3:-2.4651398 4:-6.4275685 5:5.3280807 6:3.803779 7:3.1806252 8:-1.2073455 9:-0.24776209 10:2.8392623 11:-1.2813756 12:-1.3146747 13:-0.58405254 14:2.9088441 15:0.80059663 16:6.6442601 17:6.6532466 18:-0.19946085 19:-2.0825518 
-0 -0.1277716554731772 -0 0 0 0 0.09068530141827225 1:2.6353525 2:2.722456 3:-1.877852 4:-2.9370768 5:3.4286723 6:2.6594016 7:2.8126408 8:-1.1523888 9:-0.18155606 10:2.0233602 11:-1.3197068 12:-1.2951878 13:-0.58405254 14:2.0155414 15:0.4713375 16:6.2324647 17:5.2141193 18:0.031976407 19:-2.0041589 
-0.1408217584509012 -0.1717505396623099 -0 0.2441595987066937 0.212163789011888 0.01427603855754848 0.1495149132202601 1:2.8310299 2:2.722456 3:-2.2164221 4:-2.8730982 5:3.6961711 6:2.6979725 7:2.9288464 8:-1.1523888 9:-0.57879222 10:2.307793 11:-1.3005412 12:-1.3146747 13:-0.58405254 14:2.3881989 15:0.47832814 16:6.2324647 17:5.6272475 18:-0.60396273 19:-1.7647993 
-1.143203004440338 -0 -0 0 0 0 0.5002889736603101 1:2.4028083 2:1.3440325 3:-1.6670229 4:-0.20859581 5:1.2586298 6:0.95737122 7:2.2316128 8:-1.1523888 9:-0.24776209 10:1.0329511 11:-1.2813756 12:-1.275701 13:-0.58405254 14:0.61842619 15:-0.2476498 16:1.5850591 17:1.3783107 18:0.51949063 19:-2.1447435 
-0 -2.384949267052031 -0.6603900431033847 0 0 2.181819618948873 0 1:2.1342873 2:1.8147137 3:-1.194185 4:-0.39782714 5:1.1021093 6:1.3479864 7:2.17351 8:-1.1523888 9:-0.24776209 10:0.94054525 11:-1.2238786 12:-1.2562141 13:-0.58405254 14:0.71568186 15:-0.58215191 16:2.349822 17:1.4449897 18:0.122322 19:-1.4324134 
-2.660852452893281 -4.41201817133636 -1.214483812140496 2.425587760154413 0 0 0.6572000173837854 1:1.203357 2:1.0078316 3:0.0054217887 4:0.2422904 5:0.13175818 6:0.3294147 7:2.560862 8:0.47799419 9:-0.7774103 10:-0.49257164 11:0.46269778 12:0.49760286 13:-0.58405254 14:-1.2348087 15:0.32558266 16:1.614473 17:0.90061784 18:0.84127349 19:-0.0020045757 
-0 -0 -0 3.310107468836022 0 0 0 1:1.7588562 2:1.1927421 3:-0.67098925 4:0.0011328398 5:0.90970279 6:0.71556908 7:2.5221268 8:-1.1523888 9:-0.18155606 10:1.5287111 11:-1.3005412 12:-1.3146747 13:-0.58405254 14:1.4661403 15:-1.8159998 16:2.5557197 17:2.6336216 18:0.83423357 19:-2.2335887 
-0 -0 -0 0 0.06775859300796658 0 0 1:3.5266667 2:2.6720259 3:-4.4653523 4:-4.0618706 5:4.2823176 6:3.0435707 7:3.0063168 8:-1.2073455 9:-0.18155606 10:3.1591284 11:-1.3197068 12:-1.2951878 13:-0.51933292 14:3.346027 15:-2.4787125 16:2.6145477 17:4.1621083 18:-0.085355537 19:-1.7851814 
-0.3385433818593349 -0.4937538470066168 -0.3044020136843269 0.4110306654886712 0.4477789762509745 0.2096659071193979 0.34644095786643 1:3.4295839 2:3.1931372 3:-4.2453091 4:-4.7718124 5:4.4169849 6:3.3029582 7:3.2580956 8:-1.2073455 9:-0.18155606 10:3.1286542 11:-1.2813756 12:-1.3146747 13:-0.51933292 14:3.311894 15:-2.3885332 16:2.4968918 17:4.1137162 18:0.048696209 19:-1.7919755 
-0.01754331618989682 -0 -0 0.06005039623134585 0 0 0 1:3.4268784 2:3.2939975 3:-4.3188566 4:-4.9092972 5:4.1780426 6:3.3494261 7:2.9869492 8:-1.2256644 9:-0.18155606 10:2.9653526 11:-1.2622099 12:-1.3146747 13:-0.51933292 14:3.1921947 15:-2.145259 16:2.7322035 17:3.0984816 18:0.016136595 19:-1.9043386 
-0 -0 -0 0 0.0317539558100827 0 0 1:3.415328 2:3.4789079 3:-3.6855492 4:-4.8578477 5:4.2058871 6:3.3554319 7:2.9094788 8:-1.2073455 9:-0.18155606 10:3.0165011 11:-1.2622099 12:-1.3146747 13:-0.51933292 14:3.1921947 15:-2.3623183 16:2.3204081 17:3.1526746 18:0.04634957 19:-1.6440742 
-0 -0.4218963238136771 -2.333643960731354 0 0 0 0 1:1.6611234 2:2.4366853 3:-0.48351982 4:-0.46077112 5:1.0436684 6:1.5488478 7:3.2968308 8:-1.0424753 9:-0.11535003 10:1.1936554 11:-1.1280504 12:-1.1198061 13:-0.4546133 14:1.1636191 15:-1.1022555 16:3.2322408 17:2.2948763 18:-0.39393855 19:-1.0571728 
-15.93863021049535 -53.9061432817257 -35.68600192485724 22.06609917245607 28.49726153905079 30.18146729665736 6.788434085580339 1:0.33413911 2:0.45310024 3:0.28854923 4:0.14332191 5:-0.11186361 6:0.9912601 7:0.17864724 8:0.1299349 9:-0.64499825 10:-0.17233768 11:0.098550597 12:0.12735261 13:-0.51933292 14:-0.67231558 15:-0.21444426 16:0.67322633 17:1.83615 18:0.051042848 19:0.016287098 
-0 -0 -0 0 0 0.4187065381363225 0 1:3.0388537 2:2.4534953 3:-2.9696433 4:-2.8460868 5:2.6919136 6:2.5600431 7:2.560862 8:-1.1707077 9:-0.24776209 10:1.9354755 11:-1.2430443 12:-1.2951878 13:-0.58405254 14:1.8607739 15:-1.0980611 16:0.49674257 17:0.34261769 18:-0.18479436 19:-1.5740432 
-0 -0 -0.3005773421082399 0 0 0 0 1:3.1897578 2:2.2853949 3:-3.2964704 4:-2.9773359 5:2.8870544 6:2.633823 7:2.8707436 8:-1.2073455 9:-0.24776209 10:2.067299 11:-1.2813756 12:-1.2951878 13:-0.58405254 14:2.0054885 15:-1.1483937 16:0.55557049 17:0.39022119 18:-0.26106012 19:-1.5850183 
-0 -0 -0 0 0 6.456036997592425 0 1:1.0928641 2:2.1341045 3:-0.014522453 4:0.070180275 5:0.23590145 6:0.66379266 7:2.3478184 8:0.62454547 9:-0.7774103 10:-0.3918711 11:0.6160229 12:0.6534977 13:-0.58405254 14:-1.2696431 15:0.12704849 16:1.4379893 17:1.3859477 18:0.61716948 19:0.23160622 
-0 -0.1792253476440887 -0 0 0.235419205372591 0 0.2261442277730764 1:3.4355279 2:2.4030652 3:-4.1161789 4:-3.1111811 5:3.1983017 6:2.6753852 7:2.8901112 8:-1.2073455 9:-0.24776209 10:2.0746651 11:-1.2622099 12:-1.2951878 13:-0.58405254 14:1.9133761 15:-0.89917742 16:0.84971008 17:0.59173195 18:-0.26194011 19:-1.4271872 
-13.31168542416517 -0 -0 -0 0 0 0 1:-0.45455899 2:-0.75722284 3:0.30988594 4:0.38353679 5:-0.39199749 6:-0.70983164 7:-0.57668915 8:1.0275615 9:-0.7774103 10:-0.61940386 11:1.037667 12:0.55606343 13:-0.7782114 14:-0.62579183 15:0.63421941 16:-0.67981582 17:-0.62397779 18:1.8996076 19:0.081614503 
-0 -10.05672230937937 -0 -0 0 1.260403588587473 0 1:0.17981819 2:0.083279298 3:0.28626602 4:0.36115865 5:-0.28448658 6:-0.20239296 7:0.19801484 8:-0.56618368 9:-0.7774103 10:-0.54455235 11:-0.62974376 12:-0.69109531 13:-0.4546133 14:-0.53508221 15:0.68560061 16:0.43791465 17:0.29867021 18:1.8538482 19:0.45946821 
-0 -0 -0.9288100859107009 -0 0 0 0 1:-0.094774162 2:0.083279298 3:0.30405867 4:0.37493228 5:-0.32703142 6:-0.29908484 7:0.15927964 8:0.23984836 9:-0.24776209 10:-0.63914604 11:0.1943788 12:0.14683947 13:-0.38989368 14:-0.62859728 15:0.75795373 16:0.43791465 17:0.031081648 18:1.8192352 19:0.35442175 
-114.6078670560285 -0 -0 -0 0 0 0 1:-0.50788789 2:-0.77403288 3:0.30946717 4:0.38352399 5:-0.39295199 6:-0.69708011 7:-0.65415955 8:1.0275615 9:-0.7774103 10:-0.66683452 11:1.037667 12:1.0822085 13:-0.7782114 14:-0.65711938 15:0.7149613 16:-0.73864374 17:-0.66202185 18:1.8647014 19:0.21017884 
-0 -0 -0 -0 0 0 95.3264034184498 1:-0.29599051 2:-0.65636258 3:0.31056112 4:0.38441577 5:-0.38250777 6:-0.65571712 7:-0.20870475 8:0.95428585 9:-0.5125862 10:-0.6976789 11:0.82684496 12:0.47811601 13:-0.19573482 14:-0.62812971 15:0.73837994 16:-0.3268483 17:-0.48076194 18:1.8063287 19:0.12655976 
-15.84193283563615 -6.048825919836544 -0 -0 0 0 79.71670694805974 1:0.00078611614 2:-0.35378181 3:0.29179073 4:0.38031825 5:-0.29386123 6:-0.40535715 7:0.25611764 8:-0.74937278 9:-0.71120428 10:-0.46768536 11:-1.0705535 12:-1.139293 13:-0.7782114 14:-0.51871707 15:0.59332417 16:0.70264029 17:0.59565865 18:1.9802733 19:0.74220522 
-0 -0 -0 -0 0 0 7.960064932595597 1:-0.1200169 2:-0.5050722 3:0.30360906 4:0.38534791 5:-0.35017583 6:-0.56370477 7:0.25611764 8:0.1299349 9:-0.31396811 10:-0.60030602 11:0.041053674 12:0.010431478 13:-0.71349178 14:-0.66296407 15:0.71461176 16:0.23201693 17:-0.012745398 18:1.9051809 19:0.54151943 
-8.803974443671251 -0 -0 -0 0 0 0 1:-0.46570761 2:-0.75722284 3:0.30993104 4:0.38371104 5:-0.39154732 6:-0.69081661 7:-0.51858635 8:1.0275615 9:0.14947408 10:-0.68658198 11:1.037667 12:0.24427374 13:-0.7782114 14:-0.70270798 15:0.7586528 16:-0.6209879 17:-0.60162572 18:1.8538482 19:0.35808008 
-0 -0 -0 -0 0 0 380.6931696860542 1:-0.52822203 2:-0.75722284 3:0.30936316 4:0.38344819 5:-0.39308225 6:-0.70724004 7:-0.65415955 8:1.0275615 9:1.8046248 10:-0.68719215 11:1.037667 12:1.0822085 13:-0.7782114 14:-0.679563 15:0.75306028 16:-0.73864374 17:-0.67433579 18:1.8491549 19:0.28961696 
-0 -0 -0 -0.438784032413316 0 0 0 1:0.32167287 2:-0.23611151 3:0.26874297 4:0.38197816 5:-0.31266628 6:-0.36714935 7:0.74030764 8:0.16657272 9:-0.7774103 10:-0.65631556 11:-0.62974376 12:0.16632632 13:-0.7782114 14:-0.58020323 15:0.82296668 16:-0.032708705 17:-0.16329148 18:1.729183 19:0.78610524 
-0 -0 -0 -0 0 0 14.73358667058369 1:0.22544361 2:-0.10163117 3:0.26775536 4:0.38300067 5:-0.3080469 6:-0.37550519 7:0.23675004 8:0.45967528 9:-0.7774103 10:-0.62773968 11:0.40520085 12:0.38068173 13:-0.7782114 14:-0.39364067 15:0.86491052 16:0.43791465 17:0.18157953 18:1.6549705 19:1.479621 
-0 -0 -0 -0 23.8284545875375 0 0 1:-0.47107586 2:-0.74041279 3:0.30994037 4:0.38362456 5:-0.39244435 6:-0.70353868 7:-0.51858635 8:1.0275615 9:-0.7774103 10:-1.1863663 11:1.037667 12:0.84836626 13:2.1341715 14:-1.2427575 15:1.2902909 16:-0.7680577 17:-0.71062765 18:0.79316739 19:0.90839814 
-0 -0 -0 -0 0 0 242.6289457765607 1:-0.50212684 2:-0.75722284 3:0.30961872 4:0.3835381 5:-0.39293303 6:-0.70957724 7:-0.59605675 8:1.0275615 9:0.81153435 10:-1.1875409 11:1.037667 12:1.0627217 13:2.4577696 14:-1.2544469 15:1.2927377 16:-0.7680577 17:-0.71612455 18:0.78348751 19:0.8937648 
-2048 -0 -0 -0 0 0 2048 1:-0.48102227 2:-0.74041279 3:0.3098355 4:0.38356339 5:-0.39263941 6:-0.70689966 7:-0.55732155 8:1.0275615 9:-0.7774103 10:-1.183781 11:1.037667 12:1.023748 13:-0.0015759648 14:-1.2427575 15:1.2934367 16:-0.7680577 17:-0.70623821 18:0.78612747 19:0.91414695 
-937.1440448236484 -0 -0 -0 0 0 0 1:-0.47769224 2:-0.75722284 3:0.30989419 4:0.38354598 5:-0.39250309 6:-0.70803496 7:-0.57668915 8:1.0275615 9:-0.71120428 10:-1.1770707 11:1.037667 12:1.0822085 13:0.90449871 14:-1.2210153 15:1.2941358 16:-0.7680577 17:-0.69175852 18:0.78759412 19:0.96118268 
-2048 -0 -0 -0 0 0 881.8426609565162 1:-0.49267695 2:-0.77403288 3:0.30971596 4:0.38351029 5:-0.39278287 6:-0.71182056 7:-0.59605675 8:1.0275615 9:-0.38017414 10:-1.1833165 11:1.037667 12:1.0822085 13:-0.26045444 14:-1.2427575 15:1.2937863 16:-0.73864374 17:-0.6986049 18:0.78319418 19:0.920941 
-1779.23073804023 -0 -0 -0 0 0 725.0653176760958 1:-0.50551814 2:-0.77403288 3:0.30956643 4:0.38349914 5:-0.39300846 6:-0.7127509 7:-0.63479195 8:1.0275615 9:1.4735946 10:-1.1880943 11:1.037667 12:1.0822085 13:-0.4546133 14:-1.2535117 15:1.2920386 16:-0.7680577 17:-0.71851208 18:0.78612747 19:0.89428742 
-0 -0 -0 -0 3.988369716098067 0 0 1:-0.49749792 2:-0.77403288 3:0.30963543 4:0.38348703 5:-0.39296572 6:-0.71105585 7:-0.61542435 8:1.0275615 9:0.81153435 10:-1.1920997 11:1.037667 12:1.0822085 13:1.9400126 14:-1.2703445 15:1.2906405 16:-0.7680577 17:-0.72399868 18:0.78084754 19:0.86815646 
-608.1257194168059 -0.8597246303967568 -0 -0 0 0 452.2013220022619 1:-0.46189283 2:-0.77403288 3:0.30964552 4:0.38341042 5:-0.38349171 6:-0.70700217 7:-0.61542435 8:1.0275615 9:-0.71120428 10:-1.4241382 11:-0.11227145 12:1.0822085 13:-0.71349178 14:-1.6058298 15:0.88343571 16:-0.23860642 17:0.52974349 18:0.75532784 19:0.77251714 
-868.0413888986251 -19.68743104813343 -27.11236526506528 -0 62.33847173406779 13.4863577452059 108.3496426361864 1:-0.52596842 2:-0.79084292 3:0.30937867 4:0.38323541 5:-0.38898118 6:-0.73657823 7:-0.63479195 8:1.0275615 9:-0.7774103 10:-1.8951711 11:0.99933572 12:1.0822085 13:-0.7782114 14:-1.9406137 15:0.45805529 16:-0.26802038 17:-0.37449462 18:0.73714139 19:0.69255639 
-2048 -0 -0 -0 0 0 0 1:-0.49450665 2:-0.77403288 3:0.30968197 4:0.38347629 5:-0.39283697 6:-0.71227852 7:-0.61542435 8:1.0275615 9:1.4735946 10:-1.1677836 11:1.037667 12:1.0822085 13:0.45146137 14:-1.2065204 15:1.3011264 16:-0.73864374 17:-0.69828076 18:0.78524749 19:0.98731365 
-565.7132513867816 -0 -0 -0 0 0 0 1:-0.49638768 2:-0.77403288 3:0.30957803 4:0.38342199 5:-0.39298129 6:-0.71401515 7:-0.61542435 8:1.0275615 9:0.74532833 10:-1.1745904 11:1.037667 12:1.0822085 13:2.7813677 14:-1.2320033 15:1.3000778 16:-0.7680577 17:-0.70191779 18:0.77498094 19:0.95020768 
-1767.146552021891 -0 -0 -0 0 0 0 1:-0.50844045 2:-0.77403288 3:0.30951422 4:0.3834698 5:-0.3930408 6:-0.714574 7:-0.63479195 8:1.0275615 9:1.4073886 10:-1.18422 11:1.037667 12:1.0822085 13:0.12786328 14:-1.2710458 15:1.2990292 16:-0.7680577 17:-0.70593878 18:0.76706103 19:0.87860884 
-0 -0 -0 -0 12.07631165686452 0 0 1:-0.49990853 2:-0.77403288 3:0.30961963 4:0.38346627 5:-0.39295305 6:-0.71451724 7:-0.59605675 8:1.0275615 9:-0.71120428 10:-1.1903547 11:1.037667 12:1.0822085 13:1.4222557 14:-1.2920867 15:1.2958835 16:-0.7680577 17:-0.70998413 18:0.76383441 19:0.84098026 
-0 -0 -0 -0.3671400492835484 0 0 0 1:-0.51170298 2:-0.77403288 3:0.30951572 4:0.38331165 5:-0.39318654 6:-0.72812883 7:-0.63479195 8:1.0275615 9:1.6060067 10:-1.2024805 11:1.037667 12:1.0822085 13:3.1049658 14:-1.3725097 15:1.2902909 16:-0.7680577 17:-0.72924175 18:0.73450142 19:0.70928021 
-0 -0 -0 -0 0 0 338.987507124943 1:-0.50892846 2:-0.77403288 3:0.30952511 4:0.3833202 5:-0.3931622 6:-0.72710977 7:-0.61542435 8:1.0275615 9:1.6722127 10:-1.2023221 11:1.037667 12:1.0822085 13:-0.71349178 14:-1.3697042 15:1.2902909 16:-0.7680577 17:-0.72924175 18:0.73772805 19:0.7171195 
-0 -0 -9.063629222074281 -0 0 0 0 1:-0.50938944 2:-0.77403288 3:0.3095257 4:0.38330858 5:-0.39316357 6:-0.72812883 7:-0.61542435 8:1.0275615 9:1.7384187 10:-1.2029382 11:1.037667 12:1.0822085 13:-0.71349178 14:-1.3687691 15:1.2895919 16:-0.7680577 17:-0.72894061 18:0.73802138 19:0.72182307 
-0 -0 -0 -0 0 0 338.8071312103178 1:-0.496686 2:-0.77403288 3:0.30965397 4:0.38350914 5:-0.39287737 6:-0.71183666 7:-0.61542435 8:1.0275615 9:1.1425645 10:-1.2061764 11:1.037667 12:1.0822085 13:0.19258289 14:-1.339078 15:1.2839994 16:-0.7680577 17:-0.70915039 18:0.71690163 19:0.61364089 
-0 -0 -0.6871226972867643 -0 0 0 0 1:-0.51913157 2:-0.77403288 3:0.30944067 4:0.38344545 5:-0.39316896 6:-0.71683348 7:-0.65415955 8:1.0275615 9:3.2611574 10:-1.2046307 11:1.037667 12:1.0822085 13:1.1633772 14:-1.3304279 15:1.285747 16:-0.7680577 17:-0.72399868 18:0.70751507 19:0.60945993 
-0 -0 -0 -0 0 0 626.3825408364038 1:-0.51995007 2:-0.77403288 3:0.30942625 4:0.38344844 5:-0.39317443 6:-0.71652032 7:-0.65415955 8:1.0275615 9:1.5398007 10:-1.2049573 11:1.037667 12:1.0822085 13:3.0402462 14:-1.3306617 15:1.2853975 16:-0.7680577 17:-0.72252477 18:0.7078084 19:0.60893732 
-12.07830596812025 -19.55978034106227 -6.8875485822513 -1.98078393787649 0 11.97651005461415 1031.616952435755 1:-0.11043291 2:-0.20249143 3:0.31011784 4:0.38616897 5:-0.37458287 6:-0.45919571 7:-0.034396354 8:0.38639964 9:-0.64499825 10:-1.1038742 11:0.29020701 12:-0.2623845 13:-0.7782114 14:-0.96922593 15:1.1931211 16:-0.41509018 17:-0.51551209 18:0.36959907 19:0.49657418 
-2048 -0 -0 -0 0 0 0 1:-0.51813569 2:-0.77403288 3:0.30944526 4:0.38348626 5:-0.3931405 6:-0.71355449 7:-0.63479195 8:1.0275615 9:0.017062024 10:-1.1571859 11:1.037667 12:1.0822085 13:0.12786328 14:-0.9622123 15:1.1529249 16:-0.7680577 17:-0.72347121 18:0.42826505 19:0.085272837 
-111.1754096058006 -0 -0 -0 0 0 275.3631466854046 1:-0.33444892 2:-0.60593245 3:0.30987889 4:0.38533565 5:-0.38345371 6:-0.60812683 7:-0.36364555 8:-0.29140003 9:0.28188613 10:-1.1400761 11:-0.2272653 12:-0.6521216 13:0.063143655 14:-0.96548533 15:1.1518763 16:-0.53274602 17:-0.52086263 18:0.43941158 19:0.071162118 
-905.8155017221836 -0 -1.018072702793245 -0 0 0 0 1:-0.51796655 2:-0.75722284 3:0.30945435 4:0.38350321 5:-0.39305489 6:-0.70894685 7:-0.65415955 8:1.0275615 9:2.8639212 10:-1.1354435 11:1.037667 12:1.0822085 13:-0.7782114 14:-0.91919537 15:1.1242633 16:-0.79747166 17:-0.70238354 18:0.41858516 19:-0.036497445 
-1681.277899988319 -0 -0 -0 0 0 0 1:-0.52429117 2:-0.79084292 3:0.30939568 4:0.38346509 5:-0.39311549 6:-0.71357568 7:-0.65415955 8:1.0275615 9:1.5398007 10:-1.1338992 11:1.037667 12:1.0822085 13:1.5516949 14:-0.91826021 15:1.127409 16:-0.79747166 17:-0.69981532 18:0.4209318 19:-0.038065303 
-0 -0 -0 -0 0 0 809.6996021526105 1:-0.34038392 2:-0.5050722 3:0.30943837 4:0.38542644 5:-0.38256704 6:-0.57544468 7:-0.28617515 8:0.36808073 9:0.41429819 10:-1.1227869 11:0.6160229 12:0.49760286 13:0.45146137 14:-0.93252126 15:1.1323025 16:-0.4739181 17:-0.52738408 18:0.42885171 19:-0.011934341 
-0 -0 -0 -0 2.550994766805327 0 0 1:-0.32792667 2:-0.5050722 3:0.30957638 4:0.38563573 5:-0.38180154 6:-0.56603922 7:-0.28617515 8:-0.053254201 9:0.41429819 10:-1.1117786 11:-0.11227145 12:-0.28187135 13:0.38674175 14:-0.91498719 15:1.121467 16:-0.4739181 17:-0.51509845 18:0.41418521 19:-0.041201019 
-1737.835722462022 -0 -0 -0 0 0 2048 1:-0.42286892 2:-0.70679271 3:0.31054508 4:0.38376384 5:-0.39078969 6:-0.69669614 7:-0.40238075 8:1.0092426 9:-0.64499825 10:-1.1143334 11:0.99933572 12:1.0042611 13:-0.38989368 14:-0.89020569 15:1.1113306 16:-0.59157394 17:-0.65130932 18:0.39453211 19:-0.077784365 
-0 -6.656467812011998 -0 -0 0 0 1335.581819619122 1:-0.32535829 2:-0.55550232 3:0.31060513 4:0.38534803 5:-0.3833615 6:-0.58453948 7:-0.24743995 8:0.056659258 9:-0.71120428 10:-1.1219852 11:-0.2272653 12:-0.24289764 13:-0.19573482 14:-0.93579429 15:1.1179717 16:-0.20919246 17:-0.47327582 18:0.4493848 19:-0.063673646 
-726.5066393826393 -0 -0 -0 0 0 2048 1:-0.30490178 2:-0.55550232 3:0.31063216 4:0.38508607 5:-0.38357624 6:-0.60996147 7:-0.26680755 8:0.60622656 9:-0.71120428 10:-1.113198 11:0.5201947 12:0.049405189 13:-0.1310152 14:-0.95402973 15:1.0767269 16:-0.20919246 17:-0.45986966 18:0.53327714 19:-0.23404752 
-826.8961777325569 -0 -0 -0 0 0 174.0389903243251 1:-0.46419906 2:-0.72360275 3:0.31006035 4:0.38369985 5:-0.39194966 6:-0.7004598 7:-0.51858635 8:1.0275615 9:0.21568011 10:-1.095866 11:1.037667 12:0.61452399 13:0.12786328 14:-0.93602808 15:1.0312877 16:-0.65040186 17:-0.6559546 18:0.56525009 19:-0.3991952 
-1531.094913422112 -0 -0 -0 0 0 1077.985492266068 1:-0.51568253 2:-0.79084292 3:0.3094684 4:0.38338376 5:-0.39311561 6:-0.72168392 7:-0.67352715 8:1.0275615 9:-0.7774103 10:-1.0720266 11:1.037667 12:1.0822085 13:2.1341715 14:-0.91007765 15:1.0075196 16:-0.79747166 17:-0.7060135 18:0.55469022 19:-0.47392975 
-0 -0 -0 -0 0 0 717.0809770146983 1:-0.51960414 2:-0.79084292 3:0.30943736 4:0.38339496 5:-0.39314145 6:-0.72075952 7:-0.65415955 8:1.0275615 9:1.7384187 10:-1.0775003 11:1.037667 12:1.0822085 13:1.8105734 14:-0.91498719 15:1.0089177 16:-0.7680577 17:-0.70593878 18:0.55527688 19:-0.46190951 
-2048 -0 -0 -0 0 0 2048 1:-0.51919923 2:-0.77403288 3:0.3094415 4:0.38344956 5:-0.39311811 6:-0.71652032 7:-0.67352715 8:1.0275615 9:-0.18155606 10:-1.0769202 11:1.037667 12:1.0822085 13:-0.7782114 14:-0.91592234 15:1.0085682 16:-0.79747166 17:-0.70774849 18:0.55762351 19:-0.4645226 
-2048 -0 -0 -0 0 0 2048 1:-0.51563847 2:-0.77403288 3:0.30948256 4:0.38344435 5:-0.39309119 6:-0.71728796 7:-0.65415955 8:1.0275615 9:-0.7774103 10:-1.0735156 11:1.037667 12:1.0822085 13:1.3575361 14:-0.91148037 15:1.0082186 16:-0.79747166 17:-0.70714551 18:0.55498355 19:-0.47027141 
-1620.690891849045 -0 -0 -0 0 0 53.85298920697793 1:-0.51517361 2:-0.77403288 3:0.30948631 4:0.38343303 5:-0.39308212 6:-0.71769628 7:-0.65415955 8:1.0275615 9:3.3273634 10:-1.0735992 11:1.037667 12:1.0822085 13:0.45146137 14:-0.91171416 15:1.006471 16:-0.79747166 17:-0.70449053 18:0.55469022 19:-0.47183927 
-0 -0 -0 -0 0 0 92.33750222541083 1:-0.51515783 2:-0.77403288 3:0.30948512 4:0.38343389 5:-0.39307804 6:-0.71769628 7:-0.67352715 8:1.0275615 9:1.8046248 10:-1.0720949 11:1.037667 12:1.0822085 13:3.1696854 14:-0.91077901 15:1.0043738 16:-0.79747166 17:-0.70202295 18:0.55469022 19:-0.47706546 
-71.35442272064861 -0 -0 -0 0 0 0 1:-0.51538334 2:-0.77403288 3:0.30947883 4:0.38341167 5:-0.39308419 6:-0.71967407 7:-0.67352715 8:1.0275615 9:1.8708308 10:-1.0731583 11:1.037667 12:1.0822085 13:2.0047323 14:-0.91077901 15:1.0029757 16:-0.79747166 17:-0.70077208 18:0.55263691 19:-0.47549761 
-2048 -0 -0 -0 0 0 0 1:-0.51491044 2:-0.77403288 3:0.30948394 4:0.38340551 5:-0.39308196 6:-0.71998723 7:-0.67352715 8:1.0275615 9:-0.31396811 10:-1.0695551 11:1.037667 12:1.0822085 13:1.9400126 14:-0.90773977 15:1.0040243 16:-0.79747166 17:-0.7016818 18:0.55322357 19:-0.48176904 
-1972.881287484596 -0 -0 -0 0 0 0 1:-0.51522492 2:-0.77403288 3:0.30947583 4:0.38341032 5:-0.39308662 6:-0.71986676 7:-0.67352715 8:1.0275615 9:2.2018609 10:-1.0672788 11:1.037667 12:1.0822085 13:-0.7782114 14:-0.90610326 15:1.0047233 16:-0.79747166 17:-0.70238354 18:0.55410356 19:-0.48594999 
-2048 -0 -0 -0 0 0 0 1:-0.51579899 2:-0.77403288 3:0.30948528 4:0.38338334 5:-0.3930923 6:-0.72174563 7:-0.67352715 8:1.0275615 9:3.3273634 10:-1.0667729 11:1.037667 12:1.0822085 13:2.3283304 14:-0.90586947 15:1.0026261 16:-0.79747166 17:-0.70050588 18:0.55381023 19:-0.48908571 
-2048 -0 -0 -0 0 0 0 1:-0.51401541 2:-0.77403288 3:0.30949083 4:0.38339797 5:-0.39308038 6:-0.71853553 7:-0.65415955 8:1.0275615 9:1.2749765 10:-1.068715 11:1.037667 12:1.0822085 13:0.19258289 14:-0.90797356 15:1.0043738 16:-0.79747166 17:-0.70202295 18:0.55498355 19:-0.48385951 
-537.1348570979249 -0 -0 -0 0 0 374.0695132728484 1:-0.51284878 2:-0.77403288 3:0.30949704 4:0.38340092 5:-0.39305374 6:-0.7189621 7:-0.65415955 8:1.0275615 9:1.2749765 10:-1.0676566 11:1.037667 12:1.0822085 13:2.4577696 14:-0.90750598 15:1.001228 16:-0.7680577 17:-0.69748931 18:0.55469022 19:-0.48908571 
-0 -0 -0 -0 0 0 1211.174184579322 1:-0.50858391 2:-0.77403288 3:0.30954838 4:0.38344271 5:-0.39297593 6:-0.71697004 7:-0.63479195 8:1.0275615 9:0.6791223 10:-1.0656713 11:1.037667 12:1.0822085 13:1.8105734 14:-0.90586947 15:0.99773267 16:-0.7680577 17:-0.69447278 18:0.5535169 19:-0.49587976 
-378.4638340906283 -0 -0 -0 0 0 0 1:-0.37339262 2:-0.57231237 3:0.31078468 4:0.3848399 5:-0.38672677 6:-0.63503122 7:-0.30554275 8:0.89932912 9:-0.18155606 10:-1.0495572 11:0.73101675 12:-0.10648965 13:-0.19573482 14:-0.90984386 15:0.98619812 16:-0.44450414 17:-0.5322875 18:0.56290345 19:-0.52096548 
-5.775993845970758 -7.338885235042254 -0 -4.474679988889061 0 3.062514964609119 21.03366692594582 1:0.65097963 2:0.77249105 3:0.25646269 4:0.27163965 5:-0.015841364 6:0.61363135 7:0.89524844 8:-1.0607942 9:-0.5125862 10:0.14654189 11:-1.1663817 12:-1.1003193 13:-0.7782114 14:0.13729115 15:-0.3165076 16:2.0556824 17:2.9980288 18:0.56759673 19:-1.1209324 
-0 -0.2239906427223938 -0.9725565250530649 -0 0 0 0 1:0.49103258 2:0.77249105 3:0.21270931 4:0.17261917 5:0.010723037 6:0.6628404 7:0.74030764 8:-1.0607942 9:-0.7774103 10:0.39000546 11:-1.1663817 12:-1.1003193 13:-0.7782114 14:0.53496399 15:-0.67652555 16:2.4674779 17:3.3832206 18:-0.040182738 19:-0.78697867 
